
\data\
ngram 1=1053
ngram 2=3888
ngram 3=1930

\1-grams:
-2.068058	"	-1.373112
-1.296702	$	-2.383782
-2.14216	%	-0.887998
-4.076659	&	-0.2051383
-3.423446	'	-0.2260012
-2.348305	's	-0.3485626
-2.775629	(	-0.842896
-2.775629	)	-0.7932133
-1.390917	,	-0.7873461
-4.377688	-	-0.20143
-3.900567	--	-0.2068351
-1.429276	.	-2.929186
-4.377688	.11n	-0.2069989
-4.377688	.and	-0.1845117
-4.377688	0.51per	-0.2028106
-4.377688	1,845million	-0.2042417
-4.377688	1.24-1.26	-0.1998971
-4.377688	1.50-	-0.1845117
-4.377688	11th-largest	-0.2069807
-4.076659	13-week	-0.3142021
-4.377688	15-	-0.2011903
-4.377688	2.32-	-0.1845117
-4.377688	37th	-0.2069807
-4.377688	39th	-0.2069807
-4.377688	405,512,000or	-0.1845117
-3.900567	52-week	-0.5756654
-4.377688	53-week	-0.2059237
-4.377688	8-9	-0.2038752
-4.377688	802.11n	-0.2069625
-4.377688	9-lives	-0.2069989
-4.377688	:	-0.2048641
-2.514366	;	-0.6803895
-1.352793	</s>
-99	<s>	-0.925101
-1.893389	a	-0.8439949
-4.377688	a/s	-0.1938232
-4.076659	about	-0.2627428
-3.423446	above	-0.2820673
-3.532591	accepted	-0.265992
-3.532591	accordance	-0.2644592
-3.599537	according	-0.8362539
-3.900567	accordingly	-0.560124
-4.377688	accounted	-0.1938607
-3.098935	accounting	-0.2948828
-4.076659	achievable	-0.3002135
-4.076659	achieve	-0.2000636
-4.377688	acquisitions.	-0.1873014
-4.377688	across	-0.1837443
-4.076659	ad	-0.3146046
-4.377688	add	-0.2063796
-4.377688	addition	-0.198173
-4.076659	additional	-0.1275045
-3.076659	adjusted	-0.4753754
-4.377688	adjustment	-0.1889932
-4.377688	adopted	-0.2000451
-4.377688	adopting	-0.2069261
-3.900567	adoption	-0.5649539
-4.076659	advanced	-0.1430481
-3.035266	advertising	-0.5975198
-2.678719	aes	-0.5800582
-4.377688	affiliates	-0.1889932
-4.377688	affirmed	-0.2058142
-3.423446	after	-0.4161631
-4.076659	after-tax	-0.206744
-2.629501	against	-1.140474
-4.377688	aggressive	-0.2069807
-2.592359	ago	-1.314726
-3.678719	ago.	-0.9559023
-4.377688	agree	-0.198173
-4.377688	agreed	-0.198173
-4.076659	ahead	-0.3034905
-4.377688	aided	-0.2069079
-3.678719	all	-0.4407295
-4.377688	along	-0.2051383
-3.474599	also	-0.311211
-4.377688	amended	-0.2000451
-4.076659	america	-0.3002135
-4.377688	amid	-0.2069625
-3.775629	amortization	-0.301271
-3.678719	amounted	-0.9667739
-2.833621	an	-0.5493382
-3.599537	analyst	-0.2763884
-3.015961	analysts	-0.3805473
-1.961048	and	-0.4511533
-4.377688	animal	-0.2069989
-4.377688	announce	-0.1837443
-2.44827	announced	-0.798596
-2.797905	announces	-0.2083362
-3.423446	annual	-0.2446672
-4.377688	another	-0.1530754
-4.377688	antes	-0.2063614
-4.377688	anticipate	-0.2054855
-4.076659	anticipated	-0.1813565
-3.900567	anticipates	-0.144984
-4.076659	any	-0.3164842
-4.377688	applied	-0.198173
-4.377688	appoints	-0.2069989
-4.377688	approved	-0.20143
-4.377688	approves	-0.2048641
-4.377688	approxima	-0.2032881
-4.377688	approximate	-0.2032881
-3.532591	approximately	-0.5913889
-2.979749	april	-1.361032
-4.076659	april-june	-0.1406584
-4.377688	april.	-0.1873014
-3.035266	are	-0.5663291
-4.377688	areas	-0.2069625
-4.377688	arising	-0.2000451
-4.076659	arizona	-0.2026635
-4.377688	arlington-based	-0.2069807
-2.821386	as	-0.1808951
-4.377688	ascent	-0.2069807
-4.377688	asia	-0.2022405
-4.377688	aside	-0.2039302
-3.900567	asset	-0.2769167
-3.900567	assets	-0.2467883
-4.076659	associated	-0.3148057
-2.821386	at	-0.298043
-3.098935	atheros	-1.485188
-4.377688	attempt	-0.198173
-4.076659	attributable	-0.3078403
-4.076659	aug	-0.3002135
-3.900567	august	-0.5242062
-4.377688	authorization	-0.1905462
-4.377688	authorizes	-0.2068715
-4.377688	auto	-0.2069989
-3.775629	available	-0.2327185
-3.474599	average	-0.2576332
-4.377688	avoiding	-0.2069989
-4.377688	bad	-0.2069443
-4.377688	bakery	-0.2022405
-3.900567	bakery-cafe	-0.2751656
-4.076659	bakery-cafes	-0.1903949
-4.377688	bakke	-0.2065618
-3.900567	balance	-0.2467883
-4.076659	bank	-0.2066165
-4.076659	banking	-0.2059054
-4.377688	bankruptcy	-0.2069989
-4.377688	bankruptcy.	-0.1873014
-4.377688	banks	-0.1889932
-4.377688	barratt	-0.1889932
-3.775629	based	-0.7646435
-4.076659	basic	-0.3119079
-4.076659	basis	-0.2986606
-2.886327	be	-0.6247849
-3.900567	beat	-0.1831678
-4.377688	beating	-0.2065983
-4.377688	became	-0.20143
-3.775629	because	-0.7528716
-3.900567	been	-0.1844542
-3.377689	before	-0.2680605
-4.377688	beginning	-0.2000451
-4.377688	believed	-0.2058142
-3.336296	believes	-0.2170362
-4.377688	below	-0.2069989
-4.377688	benefit	-0.2067622
-4.377688	benefited	-0.2039302
-4.377688	benefits	-0.2067622
-3.775629	better	-0.765756
-4.377688	betw	-0.2032881
-3.377689	between	-1.018887
-4.377688	big	-0.2069989
-2.453409	billion	-0.9134199
-3.599537	billion.	-0.8253824
-3.900567	board	-0.2637586
-4.377688	bolster	-0.2069989
-4.377688	bolstered	-0.2030127
-4.377688	bondholders	-0.2069989
-4.377688	boost	-0.2000451
-4.377688	boston	-0.2069989
-4.076659	both	-0.2050652
-4.377688	bought	-0.2039302
-4.377688	brands	-0.1905462
-4.377688	brands.	-0.1873014
-4.377688	brazilian	-0.2069989
-2.775629	bread	-1.275651
-4.377688	breakeven	-0.1998971
-4.076659	breaks	-0.1842624
-4.377688	bright	-0.2066711
-4.377688	bringing	-0.2058142
-4.377688	broadcast	-0.2068533
-4.377688	buffalo	-0.2069989
-4.076659	build	-0.2069625
-3.532591	business	-0.3295945
-4.076659	but	-0.2052663
-2.786624	by	-0.5346647
-4.377688	cable	-0.2069625
-4.377688	cafes	-0.2068715
-4.377688	calculated	-0.1998971
-3.173569	call	-0.4898335
-4.377688	call.	-0.1873014
-4.076659	came	-0.1910563
-4.377688	can	-0.2069807
-4.377688	capable	-0.1938232
-4.377688	capitalizing	-0.2055951
-3.336296	cash	-0.6429623
-4.377688	cent	-0.20143
-4.076659	centrica	-0.1938419
-2.270479	cents	-1.154893
-4.377688	ceo	-0.1938232
-4.076659	certain	-0.1935604
-4.377688	chain	-0.1938232
-4.377688	chances	-0.1938232
-3.678719	change	-0.3478161
-3.900567	channel	-0.166628
-4.377688	channels	-0.1905462
-3.532591	charge	-0.3191766
-3.231561	charges	-0.5647658
-4.377688	chief	-0.2069989
-4.377688	chile	-0.2065436
-3.678719	circulation	-0.23533
-3.900567	cl	-0.5725607
-4.377688	class	-0.20143
-4.377688	cleveland	-0.2034533
-4.377688	cleveland-based	-0.2063614
-4.377688	climb	-0.198173
-3.474599	climbed	-0.1944953
-4.377688	closed	-0.2062155
-2.404561	co	-1.961253
-4.076659	co.	-0.2986606
-4.076659	coast	-0.1981358
-3.900567	coffee	-0.2022037
-4.076659	com	-0.2032698
-4.377688	combination	-0.1938232
-4.377688	come	-0.2000451
-4.377688	comes	-0.2069079
-4.377688	comfortable	-0.2051383
-4.377688	coming	-0.2000451
-4.377688	commented	-0.2054855
-3.900567	commerce	-0.2567791
-4.076659	commercial	-0.3166117
-4.377688	commitment	-0.198173
-4.377688	committed	-0.198173
-3.231561	common	-1.301661
-2.886327	communications	-1.242647
-2.915291	companies	-1.475626
-2.087654	company	-0.7830019
-4.377688	compara	-0.2032881
-3.14724	comparable	-0.8456538
-4.377688	comparable-store	-0.2052846
-3.599537	compare	-0.8432193
-2.195845	compared	-2.374933
-3.532591	compares	-0.66014
-4.377688	comparison	-0.2051383
-4.377688	compensation	-0.2069989
-4.076659	compiled	-0.3159741
-4.377688	compiles	-0.2065983
-4.377688	completed	-0.2048641
-4.377688	compounded	-0.2068533
-4.377688	concern	-0.2069625
-4.377688	conditions	-0.1837443
-4.377688	conducted	-0.2063067
-4.377688	confirmed	-0.2054855
-4.377688	conjunction	-0.2051383
-4.076659	consecutive	-0.3108577
-3.775629	consensus	-0.2580159
-4.377688	consistent	-0.2069443
-3.298507	consolidated	-0.2619241
-4.377688	construction	-0.1938232
-4.377688	consumer	-0.2066165
-4.076659	content	-0.3166299
-3.678719	continue	-0.237422
-3.900567	continued	-0.5693037
-4.377688	continues	-0.198173
-2.946325	continuing	-1.637269
-4.076659	contract	-0.1885946
-4.076659	contributed	-0.1751921
-4.076659	core	-0.2069807
-2.997477	corp	-1.381469
-4.377688	corp.	-0.1889932
-3.336296	corporation	-0.3850197
-4.377688	cos.	-0.1889932
-3.900567	cost	-0.2060514
-3.775629	costs	-0.2230139
-4.377688	could	-0.2069989
-4.377688	couple	-0.1938232
-4.377688	cover	-0.1837443
-4.377688	cox	-0.2064525
-4.377688	craig	-0.2069989
-4.377688	crimp	-0.2066165
-3.900567	cumulative	-0.5780022
-3.900567	currency	-0.276862
-3.678719	current	-0.1381702
-3.900567	currently	-0.2066894
-4.377688	customer	-0.2000451
-4.076659	customers	-0.1889743
-3.900567	cut	-0.2216673
-4.377688	cuts	-0.2022405
-3.775629	debt	-0.2402606
-3.263745	dec	-1.129657
-2.532591	december	-1.424539
-4.076659	declared	-0.2012272
-3.532591	decline	-0.6632632
-3.678719	declined	-0.2345278
-4.377688	declines	-0.2063614
-4.076659	decrease	-0.3097124
-3.775629	decreased	-0.1704992
-4.377688	decreases	-0.2063614
-4.377688	deducting	-0.1837443
-4.377688	default	-0.2055951
-4.377688	del	-0.2069807
-4.377688	deliver	-0.1530754
-3.900567	demand	-0.2588905
-4.377688	denmark	-0.1889932
-4.377688	dennis	-0.2069989
-4.377688	departments	-0.1889932
-4.076659	depreciation	-0.3119079
-4.377688	detailed	-0.2063796
-3.900567	digits	-0.2576173
-2.015961	diluted	-1.552424
-4.076659	directors	-0.2048458
-4.377688	disclosed	-0.2069989
-3.775629	discontinued	-0.7653551
-2.74422	discovery	-1.362198
-4.076659	discussed	-0.3165206
-3.775629	distribution	-0.2514633
-3.336296	dividend	-0.2077402
-4.377688	dividend.	-0.1873014
-4.377688	divulge	-0.2069443
-4.377688	dollar	-0.2069625
-4.377688	doubled	-0.198173
-4.377688	dough	-0.2052846
-3.263745	down	-0.640045
-4.377688	drive	-0.2058689
-3.900567	driven	-0.5774374
-3.900567	dropped	-0.1422882
-3.599537	due	-0.7084742
-3.678719	during	-0.5573744
-4.377688	ea	-0.2032881
-4.377688	each	-0.1938232
-3.076659	earlier	-0.7357333
-4.076659	earlier.	-0.2969688
-3.678719	earn	-0.2128672
-3.231561	earned	-0.7506047
-4.076659	earning	-0.3155728
-1.809487	earnings	-1.063205
-4.377688	economic	-0.2069989
-4.076659	edged	-0.2061426
-3.900567	education	-0.2700917
-3.474599	effect	-0.2266785
-4.377688	effective	-0.2051383
-3.900567	effects	-0.5649539
-4.076659	el	-0.2069807
-4.076659	elimination	-0.3034905
-3.599537	end	-0.3350584
-4.377688	end-products	-0.2069443
-1.939938	ended	-1.309705
-3.201597	ending	-0.3755122
-4.377688	england	-0.2069261
-4.377688	enough	-0.2069443
-4.377688	enrollment	-0.2069261
-3.678719	eps	-0.208133
-4.377688	equal	-0.198173
-4.377688	equivalent	-0.198173
-4.377688	especially	-0.2000451
-4.377688	espino	-0.1889932
-4.377688	essentially	-0.2069807
-4.377688	establishing	-0.2058142
-3.377689	estimate	-0.3199076
-4.377688	estimated	-0.2054855
-3.377689	estimates	-0.1741029
-4.377688	estimates.	-0.1873014
-4.377688	europe	-0.1889932
-4.377688	even	-0.2063614
-4.377688	exc	-0.2032881
-3.900567	exceed	-0.2756771
-4.076659	exceeded	-0.3165206
-4.076659	exchange	-0.1905273
-4.377688	excluded	-0.1889932
-4.377688	excludes	-0.1837443
-3.098935	excluding	-0.6552114
-4.377688	executive	-0.2069989
-4.377688	existing	-0.2069807
-4.377688	expansion	-0.2051383
-4.377688	expasion	-0.2069261
-3.532591	expect	-0.2913488
-3.122416	expectations	-0.498331
-2.915291	expected	-0.6864939
-4.377688	expecting	-0.1889932
-2.84621	expects	-0.4094434
-4.076659	expense	-0.1882337
-4.377688	expensing	-0.2068897
-4.377688	faces	-0.1905462
-4.377688	fall	-0.2069807
-4.377688	farm	-0.1905462
-4.377688	fas	-0.1530754
-3.775629	feb	-0.7495946
-3.775629	february	-0.1777914
-4.076659	fee	-0.1981916
-4.377688	fees	-0.2022405
-3.336296	fell	-0.3264817
-3.775629	figure	-0.2378056
-4.377688	final	-0.2069625
-2.962715	financial	-0.8002497
-3.900567	financial/first	-0.5778565
-4.377688	financials	-0.2033983
-2.170863	first	-1.341593
-3.336296	first-quarter	-0.3171973
-2.369088	fiscal	-1.38702
-4.377688	flat	-0.2063614
-3.678719	flow	-0.2395039
-4.377688	flows	-0.2069989
-4.076659	fluctuations	-0.3002135
-4.377688	followed	-0.20143
-4.377688	following	-0.2068351
-4.076659	food	-0.2004887
-4.377688	foods	-0.2069989
-4.377688	foodservices	-0.2038202
-1.525209	for	-1.328572
-4.377688	force	-0.1889932
-3.055469	forecast	-0.3350758
-4.076659	forecasting	-0.2000266
-3.336296	forecasts	-0.3202904
-3.775629	foreign	-0.4517354
-4.377688	forma	-0.2069989
-4.377688	forward	-0.1889932
-4.076659	four	-0.204553
-2.257115	fourth	-2.314735
-3.336296	fourth-quarter	-0.1688849
-4.377688	franchise	-0.2069989
-4.377688	free	-0.2068169
-2.149802	from	-0.9605677
-4.377688	frozen	-0.2069807
-2.438169	full	-1.731508
-3.423446	full-year	-0.2608981
-4.377688	fully	-0.2028106
-4.076659	further	-0.1889363
-3.076659	gaap	-1.074098
-3.678719	gain	-0.2688049
-4.377688	gained	-0.1530754
-4.377688	gains	-0.2000451
-4.377688	gap.	-0.1873014
-4.377688	gener	-0.2069443
-3.532591	generally	-0.2662105
-4.377688	generated	-0.2063614
-4.377688	generators	-0.1889932
-4.377688	gets	-0.2069807
-4.377688	giant	-0.2069807
-4.377688	given	-0.1837443
-4.377688	globe	-0.1889932
-4.377688	goal	-0.1938232
-3.775629	goodwill	-0.1854882
-4.377688	greater	-0.2067076
-3.423446	grew	-0.4262298
-4.076659	gross	-0.3166117
-3.423446	group	-0.2070034
-4.377688	groups	-0.1905462
-3.900567	grow	-0.199212
-4.377688	growt	-0.2032881
-3.035266	growth	-0.8914622
-2.592359	guidance	-1.483092
-4.377688	h.	-0.2069989
-4.377688	h.j	-0.1905462
-3.775629	h.j.	-0.7649721
-3.298507	had	-0.2089384
-4.377688	hanging	-0.2000451
-3.263745	has	-0.4967996
-4.076659	have	-0.1981172
-2.578348	health	-1.523575
-2.599537	heinz	-0.9246674
-4.377688	heinz/del	-0.2069807
-4.377688	help	-0.2069989
-3.900567	helped	-0.1829755
-3.900567	higher	-0.2065801
-4.076659	higher-than-expected	-0.2052115
-4.377688	highest	-0.2038202
-4.377688	highlights	-0.2062885
-4.076659	history	-0.184013
-2.962715	hj	-1.43027
-2.930531	holding	-1.45752
-4.377688	homes.	-0.1837443
-4.377688	housing	-0.2069261
-4.377688	however	-0.1889932
-4.377688	i.b.e.s.	-0.1889932
-4.377688	identify	-0.2069807
-3.900567	if	-0.1266074
-3.336296	impact	-1.040671
-3.900567	impairment	-0.263646
-4.377688	impairments	-0.1905462
-4.076659	implies	-0.202737
-4.377688	improve	-0.2058142
-4.377688	improved	-0.2033983
-3.900567	improvement	-0.2668622
-4.076659	improving	-0.3166117
-1.797905	in	-0.8017186
-2.463875	inc	-1.902607
-3.900567	include	-0.2299196
-3.678719	included	-0.1598811
-4.076659	includes	-0.1599654
-3.377689	including	-0.2224084
-2.037245	income	-1.035255
-2.606837	increase	-1.073954
-2.305807	increased	-1.081708
-3.678719	increases	-0.2235056
-4.377688	increasing	-0.1530754
-4.377688	independent	-0.2069443
-4.377688	indianapolis	-0.2069443
-4.377688	information	-0.1905462
-3.900567	initial	-0.2067986
-4.377688	insurer	-0.2069807
-4.076659	intangible	-0.3166299
-3.532591	interest	-0.2623335
-3.599537	international	-0.717305
-4.377688	internationally-focused	-0.2069989
-4.377688	into	-0.1530754
-4.076659	invest	-0.3166481
-4.377688	investments	-0.2000451
-4.377688	ipalco	-0.2069989
-4.377688	ipo	-0.2069989
-2.872539	is	-0.2777147
-4.076659	issued	-0.3155728
-2.886327	it	-0.2652932
-3.336296	items	-0.7304597
-2.558145	its	-0.3343387
-4.377688	j.	-0.2059237
-3.900567	jan	-0.5616769
-4.377688	janaury	-0.1530754
-3.076659	january	-0.9345661
-4.377688	january-june	-0.1530754
-4.377688	japan	-0.2069625
-4.076659	jobs	-0.1968148
-4.377688	juayua	-0.1889932
-2.821386	july	-1.51426
-3.900567	jump	-0.2151271
-4.076659	jumped	-0.152993
-2.930531	june	-1.408456
-4.076659	just	-0.2068351
-4.377688	ketchup	-0.2022405
-3.532591	key	-0.3268729
-2.821386	keycorp	-0.505496
-3.775629	keycorp.	-0.2516666
-4.377688	kids	-0.2069625
-4.377688	known	-0.2063614
-4.377688	la	-0.2069989
-2.764905	last	-1.501695
-4.076659	latest	-0.3057362
-4.377688	latin	-0.2069807
-4.377688	lawsuit	-0.2069989
-4.076659	lease	-0.3163385
-4.377688	leasing	-0.2068897
-3.532591	least	-0.6151705
-4.377688	leaving	-0.1837443
-4.377688	lempa	-0.2022405
-4.377688	lending	-0.2022405
-4.076659	less	-0.2063431
-4.076659	level	-0.1904517
-4.377688	levels	-0.1905462
-4.377688	libertad	-0.2069989
-4.377688	light	-0.2069807
-4.377688	like	-0.2069989
-4.076659	line	-0.3148057
-4.377688	linked	-0.198173
-4.377688	liquidity	-0.198173
-4.377688	litigation	-0.2069989
-4.377688	loan	-0.2068897
-4.377688	loan-loss	-0.2069807
-3.775629	loans	-0.2814778
-4.377688	located	-0.2000451
-4.377688	looking	-0.2069989
-4.377688	looks	-0.198173
-2.53884	loss	-1.107496
-3.532591	losses	-0.2269527
-4.076659	lost	-0.2941791
-4.076659	low	-0.1974293
-4.377688	low-	-0.198173
-4.377688	low-double	-0.2069625
-4.377688	low-double-digit	-0.206489
-4.377688	low-to	-0.2069625
-2.670119	lowe	-1.714051
-3.775629	lower	-0.1972246
-4.377688	lowered	-0.2058142
-3.336296	lowes	-0.3593639
-4.377688	loyalty	-0.2000451
-4.076659	mainly	-0.1836867
-4.377688	make	-0.2068533
-4.076659	management	-0.2068897
-4.377688	many	-0.2069989
-3.015961	march	-1.32627
-4.377688	marcos	-0.2069989
-4.076659	margin	-0.2044615
-3.775629	margins	-0.1693361
-3.900567	mark	-0.1693956
-4.377688	mark-to-market	-0.2068897
-3.678719	market	-0.2122201
-4.377688	marketing	-0.1905462
-4.377688	markets	-0.2063067
-4.076659	marks	-0.2934116
-4.076659	matched	-0.183629
-4.076659	matters	-0.3166481
-3.377689	may	-0.8518393
-4.377688	mean	-0.2068351
-4.377688	measures	-0.1905462
-4.076659	media	-0.2050287
-4.076659	meet	-0.2053942
-4.377688	meeting	-0.1938232
-4.377688	megawatts	-0.1889932
-4.076659	met	-0.1833024
-4.377688	mid	-0.2069989
-3.900567	mid-single	-0.2680714
-4.377688	mid-single-digit	-0.198173
-4.377688	mild	-0.2069989
-1.682207	million	-1.137277
-3.678719	million.	-0.9559023
-4.377688	minus	-0.1837443
-4.377688	modest	-0.20023
-4.076659	money	-0.1890691
-4.076659	monte	-0.205449
-3.231561	month	-0.6033013
-2.508457	months	-1.050344
-3.423446	more	-0.2520735
-4.377688	most	-0.2069807
-4.377688	much	-0.2063614
-4.377688	multiple	-0.2069807
-4.377688	municipalities	-0.1938232
-4.377688	n.c.-based	-0.2034533
-4.377688	nation	-0.2050652
-4.377688	national	-0.2066165
-4.377688	near	-0.1837443
-4.377688	nearer	-0.1837443
-3.678719	nearly	-0.5289568
-4.377688	negative	-0.2069625
-4.377688	negotiated	-0.2069989
-1.893389	net	-1.361724
-4.377688	nets	-0.2040768
-3.900567	network	-0.2068351
-3.263745	networks	-0.4551548
-4.377688	networks.	-0.2066711
-2.705591	new	-0.9392438
-3.678719	newspaper	-0.9754542
-4.076659	newspapers	-0.1905273
-3.900567	next	-0.2011534
-2.859175	nine	-1.53013
-3.775629	no	-0.4353177
-4.377688	non-cash	-0.2069443
-3.377689	non-gaap	-1.035806
-4.377688	non-interest	-0.2030127
-4.377688	non-operating	-0.2030127
-4.377688	non-recurring	-0.2049372
-4.377688	noninterest	-0.2030127
-4.377688	nonperforming	-0.2069443
-3.900567	nonrecurring	-0.2767164
-4.076659	not	-0.2069443
-4.076659	notes	-0.1752704
-3.900567	november	-0.5242062
-3.775629	now	-0.2572137
-0.9325517	num	-0.9087639
-4.076659	obligations	-0.3002135
-4.377688	ocotber	-0.1530754
-4.076659	oct	-0.3002135
-2.821386	october	-1.709316
-4.377688	oem	-0.2069261
-1.52399	of	-1.02904
-4.076659	off	-0.1751921
-4.377688	offer	-0.198173
-4.377688	offered	-0.2063796
-4.377688	offering	-0.1938232
-3.599537	offset	-0.4924482
-3.423446	oibda	-0.2111709
-2.485594	on	-0.5774233
-4.076659	one	-0.190773
-3.775629	one-time	-0.2355477
-4.377688	only	-0.1889932
-3.474599	open	-0.4271165
-4.377688	opening	-0.1938232
-2.915291	operating	-0.9515371
-2.786624	operations	-0.420874
-4.377688	option	-0.2069807
-4.377688	options	-0.2069989
-1.966069	or	-1.531096
-4.377688	original	-0.2051566
-3.532591	other	-0.1867106
-3.098935	outlook	-0.8453742
-4.377688	output	-0.2039302
-4.076659	outstanding	-0.1817233
-2.979749	over	-0.7342526
-4.076659	overall	-0.2041318
-4.377688	overseas	-0.2049372
-4.377688	owns	-0.2069989
-2.764905	panera	-1.817117
-4.377688	par	-0.2022957
-4.377688	pared	-0.2051383
-4.076659	parent	-0.1932787
-3.900567	partially	-0.5780386
-4.377688	particular	-0.2069989
-4.377688	particularly	-0.2000451
-4.377688	partner	-0.2000451
-4.377688	pas	-0.2069261
-4.377688	past	-0.2068169
-4.377688	pastries	-0.2069989
-3.775629	payable	-0.4499842
-4.377688	payment	-0.2063614
-4.377688	pc	-0.2069989
-4.076659	penny	-0.2013563
-1.788857	per	-1.985529
-3.678719	per-share	-0.3832466
-2.277318	percent	-0.8154832
-4.377688	percent.	-0.1873014
-4.377688	percentage	-0.2059419
-3.775629	performance	-0.4414191
-2.24415	period	-1.06202
-3.900567	period.	-0.5584321
-4.377688	pet	-0.2069807
-4.076659	plan	-0.1981544
-4.377688	planet	-0.1889932
-4.076659	planning	-0.3078403
-4.377688	plans	-0.198173
-4.377688	plc	-0.2069807
-4.377688	pocf	-0.2062885
-4.377688	political	-0.2066165
-3.900567	polled	-0.5774374
-4.377688	pooling-of-interests	-0.2069443
-4.377688	portfolio	-0.1905462
-4.377688	possibility	-0.1938232
-4.377688	possible	-0.1905462
-4.076659	post	-0.1945543
-3.532591	posted	-0.6596546
-4.076659	posts	-0.1822438
-3.775629	power	-0.193072
-4.377688	predicted	-0.1530754
-4.377688	predicts	-0.2054855
-4.377688	preliminarily	-0.20023
-3.678719	preliminary	-0.9753814
-4.377688	prepares	-0.198173
-4.377688	presents	-0.2069989
-4.076659	president	-0.1888984
-3.900567	pretax	-0.1886706
-3.474599	previous	-0.8019201
-3.599537	previously	-0.2175448
-4.377688	price	-0.1938232
-3.900567	prices	-0.166628
-4.377688	prifits	-0.1938232
-3.599537	primarily	-0.2156598
-3.900567	principle	-0.2630262
-3.532591	principles	-1.033332
-3.055469	prior	-1.106127
-4.377688	prior-year	-0.2069625
-4.377688	privately	-0.2069989
-4.377688	pro	-0.2069989
-4.377688	proceeds	-0.1889932
-4.377688	produce	-0.1530754
-4.377688	produced	-0.20143
-4.377688	producer	-0.1889932
-4.076659	producing	-0.152993
-3.900567	products	-0.181704
-2.930531	profit	-0.4201157
-3.263745	profits	-0.2423409
-4.377688	profits.	-0.1889932
-3.678719	program	-0.3537011
-3.775629	project	-0.1961972
-4.377688	projected	-0.20023
-4.377688	projections	-0.1938232
-4.377688	projects	-0.2054855
-4.377688	promotions	-0.1889932
-4.076659	provided	-0.3098973
-2.797905	provides	-1.246104
-4.377688	proviodes	-0.20023
-4.377688	public	-0.2069989
-4.377688	publications	-0.2068351
-4.377688	pulling	-0.2068533
-4.377688	purchases	-0.2022957
-4.076659	pursuant	-0.3078403
-4.377688	put	-0.2068533
-4.377688	quarte	-0.1873014
-1.603902	quarter	-1.124038
-4.377688	quarter-to-date	-0.2067076
-4.076659	quarter.	-0.2969688
-3.377689	quarterly	-0.2050555
-3.678719	quarters	-0.1973559
-3.900567	raised	-0.2046445
-4.076659	raises	-0.1453827
-4.377688	randers	-0.1889932
-2.915291	range	-1.072507
-3.900567	rate	-0.5649539
-4.377688	rates	-0.2022405
-4.377688	rather	-0.2067076
-4.377688	reach	-0.1837443
-3.900567	reached	-0.5556424
-4.377688	reaffirm	-0.2058142
-3.900567	reaffirmed	-0.5769449
-3.532591	reaffirms	-0.6675272
-4.076659	reasonable	-0.2069261
-4.076659	recent	-0.2032514
-4.076659	recently	-0.205449
-4.377688	reconfirmed	-0.2052846
-4.377688	reconfirms	-0.2046079
-3.231561	record	-0.2761504
-3.423446	recorded	-0.6475516
-4.076659	recovery	-0.1817233
-3.900567	recurring	-0.5774374
-4.076659	reduced	-0.199712
-3.678719	reflect	-0.2675732
-4.377688	regional	-0.2069807
-4.377688	reiterates	-0.2058142
-3.900567	related	-0.2681085
-4.377688	releas	-0.2032881
-4.377688	releases	-0.2066894
-4.377688	remain	-0.2069807
-4.076659	remainder	-0.3034905
-3.900567	remains	-0.2055586
-4.377688	repor	-0.2032881
-4.076659	report	-0.1977641
-2.134651	reported	-0.8943659
-2.399965	reports	-0.607393
-4.076659	represented	-0.3110974
-4.377688	representing	-0.20143
-4.377688	represents	-0.2063796
-3.474599	repurchase	-0.3850352
-4.076659	repurchased	-0.1530342
-4.377688	research	-0.1905462
-4.076659	reserves	-0.1718104
-3.678719	respectively	-0.5477124
-4.377688	respectively.	-0.1873014
-4.377688	rest	-0.1938232
-3.900567	restated	-0.2687768
-4.076659	restates	-0.1965539
-4.377688	restructure	-0.1845117
-4.076659	restructuring	-0.1905273
-3.678719	result	-0.3699006
-2.081023	results	-1.293872
-4.377688	retailer	-0.2038202
-4.076659	retirement	-0.3166481
-4.377688	reuters	-0.2069989
-2.320784	revenue	-0.694701
-2.520356	revenues	-1.275709
-4.076659	revised	-0.3098973
-4.076659	revises	-0.1991008
-3.377689	rise	-0.6744519
-4.076659	rising	-0.2056499
-4.377688	robust	-0.2066165
-2.754439	rose	-0.8304143
-4.377688	royalties	-0.2022405
-4.377688	rules	-0.2066165
-4.377688	runs	-0.1837443
-4.377688	rushing	-0.198173
-2.979749	said	-0.3822146
-3.900567	sale	-0.5649539
-2.399965	sales	-0.6862335
-4.377688	salvadorian	-0.2069443
-2.356499	same	-1.254939
-3.532591	same-store	-0.2646054
-4.076659	same-stores	-0.3149519
-4.377688	san	-0.2069989
-4.377688	save	-0.2069807
-4.377688	saw	-0.20143
-4.377688	say	-0.2046079
-4.377688	says	-0.1530754
-4.377688	sbux	-0.2062885
-4.076659	seattle-based	-0.2069625
-2.305807	second	-1.772141
-4.377688	second-half	-0.2069807
-3.423446	second-quarter	-0.3322796
-4.377688	see	-0.2069989
-4.377688	sees	-0.2058142
-4.377688	sell	-0.1837443
-3.678719	sept	-0.9591472
-2.900567	september	-1.609732
-3.599537	services	-0.2036599
-4.377688	setting	-0.2063796
-4.377688	settleme	-0.2032881
-4.377688	settlement	-0.1938232
-4.377688	several	-0.2069261
-3.900567	severance	-0.5733712
-3.678719	sfas	-0.400162
-4.377688	sh	-0.2032881
-4.377688	sha	-0.2032881
-1.720633	share	-0.9998147
-3.900567	share.	-0.5584321
-3.599537	shareholders	-0.7025799
-3.377689	shares	-0.2157992
-4.377688	shed	-0.2069989
-4.377688	shipping	-0.2069989
-4.377688	shore	-0.2062155
-4.076659	short	-0.3034905
-3.900567	should	-0.2067258
-4.377688	shy	-0.1938232
-4.377688	significant	-0.2066165
-4.377688	since	-0.1530754
-4.377688	single-ch	-0.2032881
-2.946325	six	-1.445809
-4.377688	six-month	-0.2045347
-4.377688	slight	-0.20023
-3.900567	slightly	-0.274031
-4.377688	slipped	-0.1530754
-4.377688	slowdown	-0.2069625
-4.377688	slowing	-0.2069625
-4.377688	slump	-0.2069625
-4.377688	snuck	-0.2065618
-4.377688	soared	-0.2069261
-4.377688	soaring	-0.20023
-4.377688	softness	-0.2000451
-4.076659	solid	-0.2022221
-4.377688	solution	-0.1905462
-4.377688	sonsonate	-0.1889932
-4.377688	sought	-0.198173
-4.377688	source	-0.1938232
-4.377688	south	-0.2069807
-4.377688	space	-0.2065618
-3.423446	special	-0.2765772
-4.076659	specialty	-0.2069079
-4.377688	specialty-coffee	-0.2069989
-4.377688	spent	-0.2068533
-4.377688	spun	-0.2069807
-4.377688	spurred	-0.2069807
-4.377688	standards	-0.2069989
-4.377688	starbuck	-0.2052846
-3.298507	starbucks	-0.3452091
-4.377688	starkist	-0.2069989
-4.377688	start	-0.2069807
-4.377688	statement	-0.1905462
-4.377688	statements	-0.1905462
-4.377688	stations	-0.2067986
-4.377688	still	-0.2069989
-3.532591	stock	-0.2994179
-4.377688	stockholders	-0.1938232
-3.336296	store	-1.077449
-3.599537	stores	-0.3780903
-3.423446	street	-0.4138239
-4.377688	strengthen	-0.2058142
-4.076659	strong	-0.1889743
-4.377688	subsidiaries	-0.1905462
-4.377688	subsidiary	-0.2054855
-4.076659	substations	-0.1833024
-4.377688	such	-0.2067622
-4.377688	suggests	-0.20023
-4.377688	surge	-0.2039302
-4.377688	surprisingly	-0.2069807
-4.377688	surv	-0.2032881
-3.900567	survey	-0.2637586
-3.678719	surveyed	-0.9749076
-4.377688	swap	-0.2069807
-4.377688	swung	-0.198173
-4.377688	systems	-0.2069989
-4.377688	systemwide	-0.2068897
-4.076659	t	-0.3129555
-4.377688	take	-0.20143
-4.377688	taking	-0.20143
-3.377689	target	-0.3111116
-4.377688	targeted	-0.206489
-4.377688	targeti	-0.2032881
-4.076659	targeting	-0.1430481
-4.076659	targets	-0.2014116
-3.678719	tax	-0.2466403
-4.377688	taxable-equivalent	-0.20143
-3.900567	taxes	-0.1913961
-4.076659	technology	-0.2021853
-4.377688	teens	-0.2069807
-3.900567	television	-0.2067076
-4.076659	texas	-0.1981172
-4.377688	th	-0.2032881
-3.14724	than	-0.1971999
-2.453409	that	-0.3902992
-1.282519	the	-0.9202583
-4.076659	their	-0.2069625
-4.377688	then	-0.1905462
-4.377688	there	-0.2064343
-3.532591	these	-1.04778
-3.900567	they	-0.2063431
-4.377688	thier	-0.2069079
-2.344265	third	-1.909949
-3.336296	third-quarter	-0.2126247
-3.076659	this	-0.4159299
-3.173569	thomson	-1.302151
-4.377688	those	-0.1938232
-3.231561	three	-0.8745654
-4.377688	three-month	-0.2045347
-3.678719	through	-0.2228317
-4.076659	throughout	-0.2627428
-3.678719	time	-0.1711388
-2.786624	times	-0.9676136
-1.695544	to	-0.9088913
-4.377688	todd	-0.2069989
-4.377688	top	-0.2068169
-4.377688	topped	-0.2066894
-4.377688	topping	-0.2069079
-4.377688	tops	-0.1837443
-2.599537	total	-1.447418
-3.775629	totaled	-0.3723138
-4.377688	totaling	-0.1845117
-4.076659	tough	-0.1987484
-4.076659	track	-0.3078403
-4.377688	traded	-0.198173
-3.775629	transaction	-0.2401657
-4.377688	transactions	-0.1889932
-4.377688	translation	-0.2069989
-4.377688	transportation	-0.2022405
-4.377688	travel	-0.2069625
-4.377688	treats	-0.2063614
-4.377688	tuna	-0.1889932
-4.377688	turbine	-0.2069443
-3.474599	twelve	-0.5747052
-3.900567	two	-0.2699067
-3.231561	u.s	-1.15962
-4.377688	u.s.	-0.2067804
-3.263745	unaudited	-0.8564718
-4.076659	unchanged	-0.3135976
-4.076659	under	-0.2002115
-4.076659	unfavorable	-0.3164842
-4.377688	unit	-0.1938232
-3.900567	units	-0.2747999
-2.734236	up	-1.083633
-4.076659	updated	-0.2001375
-4.377688	updates	-0.20023
-4.377688	upper	-0.2069079
-4.076659	usd	-0.2627428
-4.377688	usulutan	-0.2022405
-4.377688	utility	-0.2034533
-4.377688	utstarcom	-0.1889932
-4.377688	vault	-0.2067804
-4.377688	versus	-0.1845117
-4.377688	vestas	-0.2069625
-4.377688	vice	-0.2069807
-4.377688	view	-0.1938232
-4.076659	volume	-0.2035634
-4.377688	w.	-0.2069989
-3.423446	wall	-0.9998361
-4.377688	wanted	-0.1889932
-4.377688	warned	-0.2067804
-4.377688	warns	-0.1938232
-2.44319	was	-0.956351
-3.900567	weak	-0.276516
-4.377688	weather	-0.2069989
-4.377688	wednesday	-0.1889932
-2.433206	weeks	-1.358078
-3.900567	well	-0.2761514
-2.724476	were	-0.8853514
-4.377688	what	-0.2068533
-3.599537	when	-0.3193754
-3.055469	which	-0.2213989
-3.775629	while	-0.2022405
-4.377688	wilkesboro	-0.1889932
-4.377688	wilkesboro-based	-0.2060879
-3.14724	will	-0.7377127
-3.900567	wind	-0.2069625
-4.377688	windmill	-0.2069443
-4.377688	winter	-0.2069989
-2.364851	with	-0.6819499
-3.900567	within	-0.2701656
-4.377688	wlan	-0.2068897
-4.377688	work	-0.2069989
-4.377688	workers	-0.2068533
-4.377688	worth	-0.1938232
-3.173569	would	-0.2921798
-4.377688	write	-0.2067804
-4.377688	wrote	-0.2069807
-1.875262	year	-1.052817
-3.377689	year-ago	-0.2559689
-3.474599	year-earlier	-0.4324914
-4.377688	year-end	-0.20023
-3.532591	year.	-0.2466222
-4.377688	year.starbucks	-0.2067986
-4.377688	yearly	-0.2067804
-3.900567	years	-0.1169063
-2.833621	york	-1.750247

\2-grams:
-0.30103	" </s>
-2.730813	" aes
-1.803268	" atheros	0.8545724
-1.40654	" discovery	0.4771056
-2.29452	" h.j.	0.4458418
-1.133539	" health	0.1180992
-1.531479	" hj	0.5090895
-1.531479	" keycorp	-0.05065265
-1.96572	" keycorp.	-0.05548766
-1.163502	" lowe	0.539912
-2.29452	" new	0.2726928
-1.079181	" panera	0.3575113
-1.659213	" starbucks	-0.5585825
-1.10551	" the	-1.331168
-3.50217	$ "
-1.738564	$ (	-0.9901168
-3.50217	$ 0.51per
-3.50217	$ 1,845million
-3.50217	$ 1.24-1.26
-3.50217	$ 1.50-
-3.50217	$ 2.32-
-3.50217	$ 405,512,000or
-0.01057972	$ num	-1.274345
-1.729166	% ,	-0.06962359
-1.235528	% .	1.907509
-2.656711	% .and
-2.656711	% against
-2.656711	% and
-2.220419	% at
-2.656711	% customer
-1.891618	% decline	-0.1160651
-2.656711	% decrease
-2.656711	% due
-2.220419	% during
-1.281286	% for	0.3127691
-1.156347	% from	0.1763341
-1.457377	% growth	-0.7839715
-2.656711	% improvement
-1.729166	% in	0.007812113
-1.059437	% increase	-0.4467204
-2.220419	% of
-2.220419	% or	0.1671166
-2.220419	% over
-0.30103	% to	-1.442065
-0.7222127	& fiscal
-0.7222127	& light
-1.375425	' compensation
-1.375425	' consensus
-1.375425	' estimate
-0.9391328	' estimates
-1.375425	' expectations
-1.375425	' forecasts
-1.375425	' reduced
-1.375425	' revenue
-2.450567	's 11th-largest
-1.685474	's advertising	-0.1142901
-2.450567	's also
-2.450567	's board
-2.450567	's broadcast
-2.014274	's business	-0.1556836
-2.450567	's chain
-2.450567	's common
-0.6314438	's companies	0.06214786
-2.450567	's continuing
-2.450567	's december
-2.014274	's earned	0.1269342
-2.450567	's end
-2.014274	's estimates
-2.014274	's expectations
-2.450567	's final
-1.508963	's first	0.07649207
-2.014274	's forecast
-2.450567	's forecasts
-1.685474	's fourth	1.705254
-2.450567	's full-year
-2.014274	's history
-2.450567	's loss
-2.014274	's net
-2.450567	's network
-1.685474	's newspaper	0.560298
-2.450567	's noninterest
-1.685474	's num
-2.450567	's operating
-2.450567	's preliminary
-2.450567	's presents
-2.450567	's raises
-2.450567	's releases
-2.450567	's reported
-1.523022	's reports	-0.1941531
-2.450567	's revenues
-1.508963	's said	0.03624822
-2.450567	's sales
-2.450567	's say
-1.685474	's second	1.179441
-2.450567	's target
-2.450567	's targeted
-2.450567	's television
-2.014274	's third	1.41217
-2.450567	's third-quarter
-1.523022	's total	-0.09318802
-2.450567	's was
-1.58695	( $	1.298365
-0.8239087	( gaap	-0.7673723
-2.023243	( including
-1.081639	( loss	-0.6775903
-2.023243	( low
-0.2403322	( num	-1.357972
-2.023243	( pocf
-2.023243	( sbux
-2.023243	( three
-0.8239087	) ,	-0.499389
-1.25815	) .	2.533582
-1.58695	) and	-0.3049838
-1.58695	) billion	-0.3027399
-2.023243	) earnings
-2.023243	) for
-2.023243	) in
-0.6478175	) million	-0.8269626
-0.455932	) per	0.4767272
-2.023243	) said
-3.407954	, 9-lives
-1.644349	, a	-0.3535476
-2.642862	, above	-0.06336624
-2.208621	, according	-0.07717621
-2.971662	, adjusted
-2.971662	, aes
-2.466351	, after	-0.1468151
-2.466351	, against	-0.02599297
-2.971662	, ahead	-0.003539294
-3.407954	, aided
-1.840644	, an	-0.5314789
-1.644349	, and	-0.1274066
-3.407954	, announced
-2.971662	, are
-2.336355	, as
-3.407954	, at
-2.971662	, based	0.4458418
-3.407954	, beating
-3.407954	, became
-2.971662	, before
-3.407954	, bought
-3.407954	, bringing
-3.407954	, capitalizing
-3.407954	, com
-3.407954	, coming
-1.254378	, compared	0.4414806
-3.407954	, consolidated
-3.407954	, decreased
-3.407954	, denmark
-2.480409	, down	-0.2358475
-2.971662	, driven	0.2579241
-2.971662	, during	0.1520227
-2.642862	, earnings
-2.971662	, education	-0.1363758
-3.407954	, effective
-2.466351	, ended
-3.407954	, enough
-3.407954	, especially
-3.407954	, essentially
-3.407954	, even
-2.480409	, excluding	-0.08964354
-3.407954	, financial
-3.407954	, fiscal
-1.524374	, for	-0.6269514
-3.407954	, foreign
-2.642862	, fourth	1.705254
-1.872828	, from	-0.2954261
-3.407954	, gained
-3.407954	, goodwill
-3.407954	, guidance
-3.407954	, had
-2.466351	, health	0.6232492
-1.986772	, heinz	-0.2918473
-3.407954	, however
-1.571798	, in	-0.5948576
-2.466351	, including	-0.5309073
-2.971662	, increase	-0.1928245
-2.336355	, increased	-0.1951242
-3.407954	, initial
-3.407954	, is
-2.971662	, it
-3.407954	, just
-2.971662	, keycorp
-2.971662	, last	0.3894701
-3.407954	, like
-2.971662	, lowe	1.395779
-3.407954	, lowes
-2.971662	, mainly
-3.407954	, met
-3.407954	, n.c.-based
-1.907591	, net	-0.2830417
-3.407954	, new
-2.971662	, non-gaap	0.7211689
-0.5701312	, num	-0.7198148
-3.407954	, of
-2.971662	, on
-3.407954	, one
-3.407954	, one-time
-0.8020803	, or	-0.2860763
-3.407954	, partially
-3.407954	, payable
-3.407954	, posted
-3.407954	, preliminary
-3.407954	, president
-2.971662	, primarily
-2.971662	, prior	-0.298265
-3.407954	, profit
-3.407954	, profits
-3.407954	, pulling
-3.407954	, pursuant
-3.407954	, rather
-3.407954	, related
-2.971662	, reported	-0.2647064
-3.407954	, representing
-2.336355	, respectively	-0.2267235
-3.407954	, respectively.
-2.971662	, revenue
-2.642862	, revenues	-0.1275902
-2.466351	, rose	0.5402678
-3.407954	, said
-2.466351	, sales	-0.09303851
-3.407954	, san
-3.407954	, short
-3.407954	, special
-3.407954	, starbucks
-3.407954	, systemwide
-3.407954	, technology
-1.123449	, the	-0.6892394
-3.407954	, they
-3.407954	, third
-3.407954	, this
-3.407954	, through
-1.986772	, to	0.06583077
-3.407954	, topping
-2.336355	, total	-0.1296752
-3.407954	, transportation
-3.407954	, unchanged
-3.407954	, under
-1.406988	, up	-0.6353006
-3.407954	, usulutan
-3.407954	, utstarcom
-2.336355	, was	0.05943722
-3.407954	, well
-2.466351	, were	-0.04575753
-2.642862	, when
-1.708018	, which	-0.005432025
-2.642862	, while
-3.407954	, will
-2.208621	, with	-0.07354353
-3.407954	, would
-0.4211827	- a
-0.898304	-- offset
-0.898304	-- particularly
-0.898304	-- two
-0.0004887952	. </s>
-0.4211827	.11n space
-0.4211827	.and $
-0.4211827	0.51per diluted
-0.4211827	1,845million compared
-0.4211827	1.24-1.26 per
-0.4211827	1.50- $
-0.4211827	11th-largest bank
-0.2859202	13-week period	-0.2658661
-0.4211827	15- year
-0.4211827	2.32- $
-0.4211827	37th consecutive
-0.4211827	39th consecutive
-0.4211827	405,512,000or $
-0.1332113	52-week period	-0.3609625
-0.4211827	53-week total
-0.4211827	8-9 %
-0.4211827	802.11n products
-0.4211827	9-lives pet
-0.4211827	: second
-2.284506	; and
-0.8633229	; announces
-2.284506	; anticipates
-2.284506	; appoints
-2.284506	; declared
-2.284506	; earnings
-2.284506	; estimates
-1.519413	; expectations	-0.3300467
-1.848213	; expects
-2.284506	; first
-2.284506	; forecast
-1.848213	; forecasts	-0.2229411
-2.284506	; predicted
-0.3318439	; provides	-0.114536
-2.284506	; proviodes
-2.284506	; raised
-1.519413	; reaffirms	0.09302193
-1.848213	; reports
-2.284506	; restates
-1.848213	; revised	-0.003539294
-1.848213	; revises
-2.284506	; third
-0.7793833	<s> "	0.1078985
-3.446079	<s> (
-3.009786	<s> a
-2.504475	<s> adjusted	0.09060588
-3.446079	<s> advertising
-1.626956	<s> aes	0.0863474
-3.446079	<s> agreed
-2.518534	<s> analysts
-3.446079	<s> and
-1.352798	<s> announced	-0.08726478
-1.910953	<s> announces	-0.3562636
-3.446079	<s> annual
-3.446079	<s> approves
-3.446079	<s> arizona
-2.680986	<s> as
-3.446079	<s> aside
-2.070653	<s> atheros	0.2787536
-3.446079	<s> bakery-cafe
-3.446079	<s> but
-3.446079	<s> calculated
-3.446079	<s> commerce
-3.446079	<s> company
-3.009786	<s> comparable	0.1320739
-3.446079	<s> declared
-1.945715	<s> diluted	-1.033249
-1.702677	<s> discovery	0.2550447
-3.446079	<s> earned
-3.009786	<s> earnings
-2.024896	<s> excluding	0.3157662
-3.009786	<s> expects
-3.446079	<s> first-quarter
-3.009786	<s> fiscal
-1.042625	<s> for	-0.3013117
-3.446079	<s> forecast
-3.446079	<s> forecasts
-3.009786	<s> fourth-quarter
-2.680986	<s> gaap	-0.06853259
-2.374479	<s> generally	-0.5535102
-3.446079	<s> gross
-3.446079	<s> h.
-3.446079	<s> h.j
-2.680986	<s> has	0.08326319
-1.682473	<s> health	-0.02020347
-1.848805	<s> heinz	-0.4860761
-3.446079	<s> heinz/del
-3.446079	<s> higher
-2.024896	<s> hj	0.389971
-3.446079	<s> homes.
-2.680986	<s> if
-1.702677	<s> in	-0.01925743
-3.446079	<s> income
-2.680986	<s> is
-2.680986	<s> it
-2.680986	<s> key	-0.02104193
-1.723866	<s> keycorp	-0.01232183
-3.446079	<s> keycorp.
-3.446079	<s> looking
-1.593532	<s> lowe	0.2688453
-2.518534	<s> lowes	0.02267753
-3.446079	<s> minus
-1.644685	<s> net	-0.6086936
-2.246745	<s> networks	-0.349299
-3.446079	<s> networks.
-2.504475	<s> new	-0.1060534
-2.504475	<s> non-gaap	0.3424227
-1.519746	<s> num	-0.7392592
-3.446079	<s> of
-3.446079	<s> oibda
-3.009786	<s> on
-2.374479	<s> operating	0.3094959
-3.446079	<s> overall
-1.723866	<s> panera	0.2905645
-3.446079	<s> parent
-3.446079	<s> previously
-3.446079	<s> profit
-3.446079	<s> provided
-3.009786	<s> provides
-3.446079	<s> quarter-to-date
-3.446079	<s> quarterly
-2.680986	<s> reaffirms	0.09302193
-3.446079	<s> reconfirmed
-3.446079	<s> report
-1.218716	<s> reported	-0.1044075
-1.371683	<s> reports	-0.4328914
-3.446079	<s> restated
-3.446079	<s> restates
-1.983503	<s> revenue	-0.06743261
-2.518534	<s> revenues	-0.05743077
-3.446079	<s> rushing
-2.504475	<s> said	-0.2093693
-1.820776	<s> sales	-0.3203322
-3.009786	<s> same-store	-0.05388585
-3.009786	<s> same-stores	-0.003539294
-3.446079	<s> says
-3.446079	<s> second
-3.446079	<s> shares
-3.446079	<s> starbuck
-2.374479	<s> starbucks
-2.518534	<s> that	-0.1428634
-0.917686	<s> the	-0.5878129
-2.246745	<s> these	-0.07717621
-3.446079	<s> they
-3.446079	<s> third-quarter
-1.983503	<s> this	-0.1176033
-3.446079	<s> times
-3.009786	<s> to
-1.878768	<s> total	0.2177152
-3.446079	<s> u.s.
-3.446079	<s> utility
-3.446079	<s> warns
-1.308209	a $	0.4424977
-2.905483	a 15-
-2.905483	a announced
-2.905483	a announces
-2.46919	a change	-0.06723961
-2.905483	a combination
-2.905483	a common
-2.905483	a comparable
-2.905483	a consensus
-2.905483	a content
-2.905483	a decline
-2.905483	a first
-2.905483	a forecast
-2.905483	a fourth-quarter
-2.905483	a fully
-2.905483	a gaap
-2.46919	a gain
-2.905483	a greater
-2.46919	a income	-0.1036313
-2.905483	a interest
-2.905483	a key
-2.905483	a lawsuit
-1.370356	a loss	-0.754437
-2.905483	a nearly
-1.370356	a net	0.03216231
-0.9929382	a num	-1.456213
-2.905483	a one-time
-2.905483	a operating
-2.905483	a par
-2.46919	a penny
-2.46919	a per-share
-2.905483	a performance
-1.530057	a profit	-0.7289332
-2.905483	a quarterly
-1.530057	a range	0.2879825
-2.14039	a record	-0.1522131
-2.905483	a reported
-2.905483	a result
-2.14039	a revenue	-0.2217381
-2.905483	a rise
-2.905483	a second
-2.905483	a second-half
-0.620977	a share	-0.5481241
-2.905483	a solid
-2.905483	a statement
-2.905483	a surprisingly
-2.46919	a survey
-2.905483	a thomson
-2.905483	a total
-2.46919	a tough
-2.905483	a unit
-2.905483	a weak
-2.905483	a wind
-0.5600206	a year	-1.120459
-2.905483	a year-earlier
-0.4211827	a/s of
-0.2859202	about num	-0.2927245
-0.9391328	above ,	-0.3182173
-1.375425	above analyst
-1.375425	above analysts
-1.375425	above that
-0.6103325	above the
-1.375425	above wall
-0.3387358	accepted accounting	-0.3438388
-0.3387358	accordance with	-0.577
-0.06694679	according to	-0.1577993
-0.1332113	accordingly ,	-0.3813408
-0.4211827	accounted for
-1.699936	accounting adjustment
-1.263644	accounting change
-1.263644	accounting for	-0.3195918
-1.263644	accounting matters	-0.003539294
-0.9348436	accounting principle	-0.001734167
-0.7723914	accounting principles	0.2349197
-1.699936	accounting rules
-1.699936	accounting standards
-0.2859202	achievable .	2.628678
-0.7222127	achieve earnings
-0.7222127	achieve full-year
-0.4211827	acquisitions. </s>
-0.4211827	across the
-0.2859202	ad revenue
-0.4211827	add an
-0.4211827	addition to
-0.7222127	additional $
-0.7222127	additional num
-1.722213	adjusted .
-1.28592	adjusted diluted	-0.2395293
-0.95712	adjusted earnings	-0.2800876
-1.722213	adjusted for
-1.722213	adjusted loss
-1.28592	adjusted net	0.05348635
-0.39794	adjusted oibda	-0.007603776
-1.722213	adjusted operating
-1.722213	adjusted to
-0.4211827	adjustment ,
-0.4211827	adopted in
-0.4211827	adopting sfas
-0.1332113	adoption of	-0.4132993
-0.7222127	advanced num
-0.7222127	advanced to
-1.763605	advertising "
-1.763605	advertising ,
-1.763605	advertising .
-1.763605	advertising demand
-1.763605	advertising market
-1.763605	advertising prices
-0.30103	advertising revenue	-0.09266558
-0.8220019	advertising revenues	-0.1598865
-1.763605	advertising slump
-2.120153	aes ,
-2.120153	aes also
-1.68386	aes announced
-2.120153	aes as
-0.3767507	aes corp	0.05551732
-2.120153	aes corp.
-1.192608	aes corporation	0.03471509
-1.35506	aes expects
-2.120153	aes forecast
-2.120153	aes gets
-2.120153	aes increased
-1.68386	aes reaffirmed	0.2579241
-0.9208187	aes reports	-0.06201625
-2.120153	aes to
-2.120153	aes would
-0.4211827	affiliates ,
-0.4211827	affirmed its
-0.6103325	after all	-0.1623359
-1.375425	after key
-1.375425	after taking
-0.6103325	after tax	-0.08481108
-1.375425	after three
-0.7222127	after-tax charge
-0.7222127	after-tax effect
-0.3679768	against $	0.220649
-0.9700368	against a	-0.4582043
-2.169371	against adjusted
-2.169371	against earnings
-2.169371	against gaap
-0.60206	against net	-0.8102727
-0.9700368	against operating	0.3988129
-1.733078	against the
-2.169371	against total
-0.4211827	aggressive plan
-1.264909	ago ,
-0.06932649	ago .	1.224626
-1.44142	ago as	-0.3878373
-2.206512	ago period.
-2.206512	ago when
-0.04855306	ago. </s>
-0.4211827	agree to
-0.4211827	agreed to
-0.2859202	ahead of
-0.4211827	aided primarily
-0.35506	all charges	-0.04734331
-0.6838602	all of	-0.1486706
-0.4211827	along with
-1.324273	also confirmed
-1.324273	also expects
-1.324273	also lowered
-1.324273	also reaffirmed
-1.324273	also reiterates
-0.55918	also said	-0.247829
-0.4211827	amended in
-0.2859202	america .	2.628678
-0.4211827	amid higher
-0.5869502	amortization increased	0.3045002
-0.5869502	amortization of	-0.3195935
-0.04855306	amounted to	-0.3068596
-1.965251	an $
-1.965251	an 8-9
-1.528958	an accounting
-1.528958	an additional
-1.528958	an after	-0.1980079
-1.965251	an aggressive
-1.965251	an annual
-1.965251	an attempt
-1.528958	an average
-1.528958	an earnings
-1.965251	an improvement
-0.2887955	an increase	-1.08648
-1.965251	an operating
-0.7630415	analyst estimate
-0.7630415	analyst estimates	-0.2727545
-1.199334	analyst forecasts
-1.199334	analyst projections
-0.8553656	analysts '	-0.01700867
-1.782911	analysts are
-1.782911	analysts by
-1.782911	analysts expect
-1.346618	analysts expected
-1.346618	analysts had
-1.017818	analysts polled	0.1628277
-1.782911	analysts produced
-0.7113109	analysts surveyed	0.1557699
-0.9852768	and $	1.096064
-1.910278	and a	-0.1879676
-2.837823	and acquisitions.
-2.401531	and adjusted	-0.2971374
-2.401531	and advertising
-2.837823	and all
-2.401531	and amortization	-0.1901293
-1.766224	and an	0.1133628
-2.837823	and animal
-2.837823	and announces
-2.837823	and approximately
-2.837823	and assets
-2.837823	and banking
-2.837823	and cafes
-2.837823	and ceo
-2.837823	and consistent
-2.837823	and consolidated
-2.837823	and cut
-2.837823	and detailed
-1.462398	and diluted	0.6011657
-2.837823	and discontinued
-2.837823	and dough
-1.910278	and earnings	0.01655768
-2.837823	and el
-2.837823	and expect
-2.401531	and expects
-2.837823	and fee
-2.837823	and fees
-2.837823	and financial
-1.416641	and fiscal	0.4106008
-2.401531	and for
-2.837823	and fourth
-2.837823	and frozen
-0.7538826	and full	-0.03570569
-1.89622	and full-year	-0.009026982
-2.837823	and gains
-2.837823	and helped
-2.837823	and higher-than-expected
-2.837823	and in
-2.837823	and included
-2.837823	and income
-2.837823	and into
-2.837823	and it
-1.766224	and its	-0.08685488
-2.837823	and la
-2.837823	and leaving
-2.837823	and matched
-2.837823	and media
-1.910278	and net	-0.1311563
-2.837823	and new
-1.270512	and nine	0.3553876
-2.837823	and nonrecurring
-1.416641	and num	-0.06047053
-2.401531	and operating
-1.638489	and other
-2.837823	and pastries
-2.837823	and plans
-2.837823	and posted
-2.837823	and prepares
-2.837823	and profits
-2.837823	and raises
-2.837823	and related
-2.837823	and remain
-2.837823	and sales
-2.837823	and same-store
-2.837823	and second
-2.401531	and services	-0.2379565
-2.401531	and should
-1.302697	and six	0.3010299
-2.837823	and special
-2.837823	and spent
-2.837823	and start
-2.837823	and that
-1.766224	and the
-2.401531	and total	-0.3039437
-2.837823	and transaction
-2.401531	and twelve	-0.2600297
-2.837823	and would
-1.302697	and year	-1.070909
-0.4211827	animal planet
-0.4211827	announce the
-1.914309	announced a
-2.350602	announced comparable
-2.350602	announced consolidated
-0.9294189	announced earnings	-0.8896801
-1.151268	announced financial	-0.3523989
-1.408998	announced first	0.07649207
-1.585509	announced fourth	1.705254
-2.350602	announced improved
-2.350602	announced it
-2.350602	announced management
-1.914309	announced num
-2.350602	announced on
-1.585509	announced record	-0.1522131
-0.9294189	announced results	-0.3368033
-2.350602	announced sales
-1.279002	announced second	0.7749126
-0.4522977	announced that	-0.1503196
-2.350602	announced third
-2.350602	announced third-quarter
-2.350602	announced updated
-2.000966	announces business
-1.073421	announces earnings	-0.4998585
-2.000966	announces expectations
-1.564674	announces financial	0.2496515
-1.564674	announces fiscal
-2.000966	announces forecasts
-2.000966	announces group
-1.564674	announces num
-2.000966	announces opening
-1.073421	announces results	0.2390155
-2.000966	announces sales
-1.235874	announces second	1.179441
-2.000966	announces second-quarter
-2.000966	announces share
-2.000966	announces shares
-1.059363	announces third	1.033424
-2.000966	announces to
-2.000966	announces updated
-0.9391328	annual dividend
-0.9391328	annual earnings	-0.2612246
-1.375425	annual growt
-1.375425	annual meeting
-1.375425	annual operating
-1.375425	annual per-share
-1.375425	annual rate
-0.4211827	another num
-0.4211827	antes as
-0.4211827	anticipate that
-0.7222127	anticipated .
-0.7222127	anticipated to
-0.898304	anticipates a
-0.898304	anticipates num
-0.898304	anticipates that
-0.2859202	any impact	0.4201389
-0.4211827	applied to
-0.4211827	appoints todd
-0.4211827	approved a
-0.4211827	approves increased
-0.4211827	approxima "
-0.4211827	approximate "
-0.8299882	approximately $	1.298365
-0.1946811	approximately num	-0.1727571
-0.01703334	april num	-0.6320492
-0.7222127	april-june num
-0.7222127	april-june quarter
-0.4211827	april. </s>
-0.9985127	are $	1.203269
-1.327313	are achievable	-0.003539294
-1.763605	are applied
-1.763605	are excluded
-0.30103	are expected	-0.6581759
-1.763605	are for
-1.763605	are forecasting
-1.763605	are located
-1.763605	are within
-0.4211827	areas --
-0.4211827	arising in
-0.7222127	arizona health
-0.7222127	arizona reported
-0.4211827	arlington-based but
-1.977485	as $
-1.541193	as a
-1.212392	as adjusted
-1.977485	as advertising
-1.541193	as against	-0.2710057
-1.977485	as amended
-1.977485	as buffalo
-1.541193	as compared
-1.977485	as customers
-1.977485	as earnings
-1.977485	as for
-1.541193	as it
-1.977485	as mild
-1.977485	as much
-1.212392	as num	-0.3878209
-1.977485	as overall
-1.977485	as previously
-1.541193	as sales
-1.977485	as specialty
-1.035882	as the
-1.977485	as they
-1.977485	as vice
-1.541193	as well	-0.1363758
-0.4211827	ascent media
-0.4211827	asia and
-0.4211827	aside from
-0.898304	asset impairments
-0.4620115	asset retirement	-0.003539294
-0.4620115	assets .	2.628678
-0.898304	assets of
-0.2859202	associated with
-1.212392	at $	1.203269
-1.541193	at an	-0.3071822
-1.977485	at annual
-1.977485	at ascent
-1.977485	at bakery
-1.977485	at bakery-cafes
-1.977485	at brazilian
-1.977485	at commerce
-0.9058856	at international	-0.2260685
-1.977485	at its
-1.04994	at least	-0.1078534
-1.977485	at lowes
-1.541193	at stores	-0.2379565
-1.977485	at this
-1.977485	at times
-1.04994	at u.s	0.7519101
-1.699936	atheros commented
-0.0234811	atheros communications	0.3155244
-0.4211827	attempt to
-0.2859202	attributable to
-0.2859202	aug .	2.628678
-0.1332113	august num	-0.3483993
-0.4211827	authorization .
-0.4211827	authorizes repurchase
-0.4211827	auto leasing
-1.023243	available .
-1.023243	available information
-0.5869502	available to
-0.8879802	average analyst	-0.2379565
-1.324273	average compounded
-1.324273	average estimate
-1.324273	average price
-0.8879802	average shares	-0.2727545
-1.324273	average u.s
-0.4211827	avoiding bankruptcy.
-0.4211827	bad loans
-0.4211827	bakery and
-0.898304	bakery-cafe margins
-0.4620115	bakery-cafe sales
-0.7222127	bakery-cafes .
-0.7222127	bakery-cafes open
-0.4211827	bakke said
-0.898304	balance .
-0.4620115	balance of
-0.7222127	bank forecast
-0.7222127	bank saw
-0.7222127	banking advertising
-0.7222127	banking operations
-0.4211827	bankruptcy hanging
-0.4211827	bankruptcy. </s>
-0.4211827	banks ,
-0.4211827	barratt ,
-0.08163927	based on	-0.1254393
-0.2859202	basic and	-0.3049838
-0.2859202	basis ,
-0.8409448	be $	0.7987409
-1.912544	be a
-1.912544	be approximately
-0.9709409	be between	0.3424227
-1.912544	be capable
-0.3452336	be in	-0.4178201
-1.912544	be known
-1.476252	be num
-1.912544	be recorded
-1.912544	be strong
-0.898304	beat forecast
-0.898304	beat the
-0.898304	beat wall
-0.4211827	beating analysts
-0.4211827	became a
-0.08163927	because of	-0.1306126
-0.898304	been $
-0.898304	been expecting
-0.898304	been reduced
-1.421183	before .
-1.421183	before certain
-1.421183	before deducting
-0.9848902	before depreciation	-0.003539294
-0.65609	before income	-0.4109201
-1.421183	before such
-1.421183	before the
-0.4211827	beginning in
-0.4211827	believed its
-1.462575	believes it
-1.462575	believes its
-1.462575	believes modest
-0.5350304	believes that	-0.2515225
-1.462575	believes the
-0.4211827	below those
-0.4211827	benefit charges
-0.4211827	benefited from
-0.4211827	benefits charges
-0.08163927	better than	-0.1039519
-0.4211827	betw "
-0.04139268	between $	0.5771964
-0.4211827	big banks
-0.509306	billion ,	-0.4490634
-0.9242793	billion .	1.907509
-1.403859	billion a	-0.5590625
-2.345462	billion against
-2.345462	billion amid
-1.403859	billion and	-0.08381823
-1.90917	billion compared	0.06922811
-2.345462	billion dollar
-1.403859	billion for	0.1364766
-0.9700368	billion from	-0.658604
-0.6938304	billion in	-0.5169526
-2.345462	billion mark
-2.345462	billion of
-2.345462	billion reported
-2.345462	billion to
-2.345462	billion while
-0.06694679	billion. </s>
-0.898304	board authorizes
-0.4620115	board of	-0.3195935
-0.4211827	bolster loan-loss
-0.4211827	bolstered income
-0.4211827	bondholders agree
-0.4211827	boost in
-0.4211827	boston globe
-0.7222127	both fiscal
-0.7222127	both quarters
-0.4211827	bought from
-0.4211827	brands .
-0.4211827	brands. </s>
-0.4211827	brazilian affiliates
-1.081639	bread announces
-0.2218488	bread co	0.5797836
-0.8239087	bread company	-0.2418682
-2.023243	bread num
-0.951643	bread reports	0.07675353
-0.4211827	breakeven per
-0.7222127	breaks $
-0.7222127	breaks down
-0.4211827	bright outlook
-0.4211827	bringing its
-0.4211827	broadcast group
-0.4211827	buffalo gap.
-0.7222127	build loyalty
-0.7222127	build substations
-1.266281	business conditions
-1.266281	business continued
-1.266281	business contributed
-1.266281	business expasion
-0.501188	business units	-0.001734167
-0.7222127	but internationally-focused
-0.7222127	but sales
-1.070644	by $	0.919619
-1.070644	by a	-0.2224817
-2.012247	by about
-1.575955	by an	-0.006604642
-2.012247	by analysts
-2.012247	by approximately
-2.012247	by increases
-2.012247	by less
-2.012247	by nearly
-2.012247	by non-recurring
-0.6879746	by num	-0.5211233
-2.012247	by reuters
-2.012247	by the
-0.5496719	by thomson	0.2445602
-2.012247	by year
-0.4211827	cable television
-0.4211827	cafes open
-0.4211827	calculated per
-0.30103	call .	1.994659
-1.625303	call estimate
-1.625303	call expected
-1.625303	call had
-1.625303	call is
-1.625303	call project
-1.625303	call projected
-1.625303	call surv
-1.625303	call survey
-0.4211827	call. </s>
-0.7222127	came in
-0.7222127	came to
-0.4211827	can achieve
-0.4211827	capable of
-0.4211827	capitalizing on
-1.462575	cash and
-0.520972	cash dividend	-0.03396024
-0.3909757	cash flow	-0.0008584708
-1.462575	cash from
-0.4211827	cent a
-0.7222127	centrica for
-0.7222127	centrica plc
-1.7633	cents ,
-1.456793	cents .	2.129054
-0.3829341	cents a	-1.613582
-2.528393	cents above
-2.528393	cents and
-2.528393	cents better
-2.528393	cents for
-2.0921	cents from	-0.2964571
-2.528393	cents higher
-1.7633	cents in	-0.002853841
-2.0921	cents or	-0.1850659
-0.4737415	cents per	0.5444491
-1.028029	cents to	-1.074263
-0.4211827	ceo of
-0.7222127	certain charges
-0.7222127	certain of
-0.4211827	chain of
-0.4211827	chances of
-1.120153	change ,
-1.120153	change .
-0.35506	change in	-0.4127898
-0.898304	channel ,
-0.898304	channel .
-0.898304	channel and
-0.4211827	channels .
-1.266281	charge ,
-0.8299882	charge in	0.09224248
-0.501188	charge of	-0.1448207
-1.266281	charge to
-1.567311	charges (
-0.243038	charges ,	-0.2995434
-1.131018	charges .	2.628678
-1.567311	charges anticipated
-1.567311	charges linked
-1.567311	charges per
-0.4211827	chief executive
-0.4211827	chile financial
-1.120153	circulation and
-1.120153	circulation income
-0.6838602	circulation revenue
-1.120153	circulation revenues
-0.1332113	cl a
-0.4211827	class a
-0.4211827	cleveland company
-0.4211827	cleveland-based keycorp
-0.4211827	climb to
-0.3967277	climbed num	-0.5621971
-1.324273	climbed to
-0.4211827	closed up
-0.004595752	co .	0.9711783
-0.2859202	co. ,
-0.7222127	coast banking
-0.7222127	coast to
-0.898304	coffee and
-0.898304	coffee japan
-0.898304	coffee retailer
-0.7222127	com "
-0.7222127	com pared
-0.4211827	combination of
-0.4211827	come in
-0.4211827	comes due
-0.4211827	comfortable with
-0.4211827	coming in
-0.4211827	commented that
-0.4620115	commerce ,	-0.31976
-0.898304	commerce revenue
-0.2859202	commercial loans
-0.4211827	commitment to
-0.4211827	committed to
-0.146128	common share	-0.9546674
-0.6257073	common stock	-0.1044908
-1.147452	communications announces
-0.07638834	communications inc	0.4877144
-1.476252	communications reports	-0.1418407
-0.01472326	companies inc	0.4419569
-0.8920946	company 's	-0.08799025
-2.274925	company ,	-0.3116326
-2.711217	company .
-2.711217	company adjusted
-2.711217	company aes
-2.711217	company affirmed
-1.769614	company also
-1.290035	company announced	-0.1316201
-2.711217	company announces
-2.711217	company anticipate
-1.335792	company believes	-0.2341845
-1.946125	company cl	0.1628277
-2.711217	company currently
-1.946125	company earned
-2.711217	company earnings
-2.711217	company estimates
-2.274925	company expect
-2.711217	company expected
-1.176091	company expects	-0.06100205
-2.711217	company faces
-2.711217	company fiscal
-2.274925	company forecast
-2.274925	company had
-1.946125	company has
-2.711217	company increased
-1.511883	company is
-2.711217	company now
-2.274925	company of	-0.04972434
-2.711217	company offered
-2.274925	company posted
-2.711217	company predicts
-2.711217	company projects
-2.711217	company provided
-2.711217	company provides
-2.274925	company recorded
-2.274925	company remains
-0.4976429	company reported	-0.2470039
-1.639618	company reports
-2.711217	company repurchase
-1.946125	company revenues	-0.1275902
-1.946125	company rose	0.4834246
-1.386945	company said	0.07670321
-2.711217	company targets
-2.711217	company wrote
-0.4211827	compara "
-1.651632	comparable bakery-cafe
-0.8865389	comparable period	-0.1239252
-0.1890562	comparable store	0
-1.215339	comparable year	-0.2978036
-0.4211827	comparable-store sales
-0.06694679	compare with	-0.489014
-2.603026	compared from
-0.2276011	compared to	-0.708009
-0.3965138	compared with	-0.3704167
-0.8299882	compares to	0.07188669
-0.1946811	compares with	-0.0874242
-0.4211827	comparison with
-0.4211827	compensation subsidiaries
-0.2859202	compiled by
-0.4211827	compiles analysts
-0.4211827	completed second
-0.4211827	compounded annual
-0.4211827	concern raised
-0.4211827	conditions the
-0.4211827	conducted by
-0.4211827	confirmed that
-0.4211827	conjunction with
-0.2859202	consecutive year
-0.5869502	consensus estimate
-1.023243	consensus estimates
-1.023243	consensus view
-0.4211827	consistent performance
-0.572819	consolidated earnings	-0.3138614
-1.064071	consolidated financial	0.2496515
-1.064071	consolidated net
-1.500364	consolidated revenue
-0.4211827	construction of
-0.4211827	consumer advertising
-0.2859202	content impairment	-0.1363758
-1.120153	continue its
-1.120153	continue through
-0.6838602	continue throughout	-0.003539294
-1.120153	continue to
-0.1332113	continued to
-0.4211827	continues to
-1.852546	continuing advertising
-0.01639042	continuing operations	-0.1084752
-0.7222127	contract .
-0.7222127	contract with
-0.7222127	contributed $
-0.7222127	contributed to
-0.7222127	core brands.
-0.7222127	core wlan
-0.01772877	corp .	1.550962
-0.4211827	corp. ,
-1.026283	corporation announced	-0.1311675
-1.462575	corporation beat
-0.520972	corporation has	-0.0001856983
-1.462575	corporation quarterly
-1.462575	corporation reaffirms
-1.026283	corporation reported
-0.4211827	cos. ,
-0.898304	cost aes
-0.898304	cost associated
-0.898304	cost cuts
-1.023243	costs ,
-0.5869502	costs .	2.628678
-1.023243	costs recorded
-0.4211827	could surge
-0.4211827	couple of
-0.4211827	cover the
-0.4211827	cox communications
-0.4211827	craig barratt
-0.4211827	crimp advertising
-0.1332113	cumulative effect	-0.1926613
-0.4620115	currency fluctuations	-0.003539294
-0.898304	currency transaction
-1.120153	current consensus
-1.120153	current fiscal
-1.120153	current forecasts
-1.120153	current num
-1.120153	current quarter
-0.898304	currently anticipates
-0.898304	currently available
-0.898304	currently believes
-0.4211827	customer in
-0.7222127	customers ,
-0.7222127	customers make
-0.898304	cut its
-0.4620115	cut num
-0.4211827	cuts and
-0.5869502	debt ,
-1.023243	debt restructuring
-1.023243	debt transaction
-0.03218468	dec .	1.802774
-1.829988	december ,
-0.0255541	december num	-1.421723
-2.266281	december only
-2.266281	december revenue
-0.7222127	declared a
-0.7222127	declared dividend
-0.8299882	decline at	-0.2626297
-0.1946811	decline in
-0.6838602	declined by
-1.120153	declined compared
-0.6838602	declined num
-0.4211827	declines at
-0.2859202	decrease in
-1.023243	decreased $
-1.023243	decreased in
-0.5869502	decreased num
-0.4211827	decreases at
-0.4211827	deducting the
-0.4211827	default on
-0.4211827	del monte
-0.4211827	deliver num
-0.898304	demand and
-0.4620115	demand for	-0.3195918
-0.4211827	denmark ,
-0.4211827	dennis w.
-0.4211827	departments ,
-0.2859202	depreciation and	-0.3184975
-0.4211827	detailed an
-0.4620115	digits .	2.628678
-0.898304	digits compared
-2.346618	diluted "	-0.0191938
-2.782911	diluted basis
-1.407485	diluted common	-0.455932
-0.7706632	diluted earnings	-0.9833525
-2.017818	diluted eps	-0.08481108
-2.782911	diluted income
-2.017818	diluted per	-0.09832999
-2.782911	diluted sh
-2.782911	diluted sha
-0.1364186	diluted share	-0.1743919
-2.346618	diluted share.	0.2579241
-0.7222127	directors approved
-0.7222127	directors increased
-0.4211827	disclosed gener
-0.08163927	discontinued operations	-0.2825208
-2.054651	discovery channel
-2.054651	discovery channels
-0.5542872	discovery communications	-0.3215516
-0.1863104	discovery holding	-0.003539324
-2.054651	discovery kids
-0.2859202	discussed above	-0.267145
-1.023243	distribution and
-1.023243	distribution network
-0.5869502	distribution revenue
-1.026283	dividend .	2.628678
-0.6974827	dividend for	0.6498646
-1.462575	dividend from
-1.462575	dividend increases
-1.462575	dividend is
-1.462575	dividend num
-1.462575	dividend on
-1.462575	dividend payable
-0.4211827	dividend. </s>
-0.4211827	divulge debt
-0.4211827	dollar mark
-0.4211827	doubled to
-0.4211827	dough sales
-0.5935226	down from	0.07236496
-1.535126	down goodwill
-0.3357921	down num	-0.5132762
-1.535126	down slightly
-1.535126	down to
-0.4211827	drive health
-0.1332113	driven by	-0.1738963
-0.898304	dropped as
-0.898304	dropped num
-0.898304	dropped to
-1.199334	due dec
-0.1277343	due to	-0.09065729
-1.120153	during second
-0.1785493	during the	-0.2311473
-0.4211827	ea "
-0.4211827	each of
-1.28592	earlier ,
-0.154902	earlier .	1.772811
-1.722213	earlier as
-1.28592	earlier period
-1.722213	earlier the
-0.2859202	earlier. </s>
-0.6838602	earn $	1.298365
-1.120153	earn less
-0.6838602	earn num	-0.2998051
-0.1918855	earned $	0.618589
-1.567311	earned a
-1.567311	earned last
-0.802218	earned num	-0.3949015
-0.2859202	earning guidance	0.3511627
-2.553092	earnings (	-0.282658
-1.422074	earnings .	1.772811
-2.553092	earnings ;
-2.989384	earnings at
-2.553092	earnings before	-0.211898
-2.989384	earnings between
-2.989384	earnings climb
-2.989384	earnings down
-2.989384	earnings expectations
-2.224292	earnings fell	-0.03578572
-2.989384	earnings figure
-1.245982	earnings for	0.3660921
-2.553092	earnings forecast
-1.790051	earnings from	-0.6834017
-2.224292	earnings grew	-0.1170678
-2.989384	earnings growth
-1	earnings guidance	-0.6395518
-2.989384	earnings helped
-2.989384	earnings in
-2.989384	earnings increase
-2.989384	earnings jumped
-2.989384	earnings mark
-2.989384	earnings matched
-2.989384	earnings num
-0.8961039	earnings of	-0.9944911
-2.989384	earnings on
-2.047781	earnings outlook	0.5454507
-0.5725665	earnings per	-0.2519014
-0.6491236	earnings results	-0.9295053
-2.989384	earnings rise
-2.047781	earnings rose	0.5377639
-2.989384	earnings should
-2.989384	earnings target
-2.553092	earnings this	-0.2103337
-1.665112	earnings to	-0.451564
-2.047781	earnings were	0.5219696
-1.917785	earnings will	0.3312226
-2.553092	earnings within	-0.1363758
-2.553092	earnings would
-0.4211827	economic slowdown
-0.7222127	edged lower
-0.7222127	edged up
-0.4620115	education and	-0.3101234
-0.898304	education revenue
-1.324273	effect ,
-0.3967277	effect of	-0.1310879
-0.4211827	effective with
-0.1332113	effects of	0.08491731
-0.7222127	el espino
-0.7222127	el salvadorian
-0.2859202	elimination of	-0.304114
-1.199334	end --
-1.199334	end a
-1.199334	end liquidity
-0.4342413	end of
-0.4211827	end-products available
-2.858933	ended ,
-1.158997	ended april	0.1139433
-2.422641	ended aug	-0.003539294
-2.858933	ended august
-1.396358	ended dec	0.06694686
-0.6973879	ended december	-0.4973246
-1.91733	ended feb	0.06709552
-2.858933	ended february
-1.91733	ended fiscal	0.3082054
-2.093841	ended jan	0.1628277
-2.858933	ended janaury
-1.483508	ended january	-0.1760913
-0.9192366	ended july	0.03672278
-0.9905925	ended june	0
-1.182478	ended march	0.1014576
-2.093841	ended may	0.2836499
-2.093841	ended november	0.1628277
-1.323807	ended num	-0.2792459
-2.858933	ended ocotber
-2.858933	ended oct
-0.9905925	ended october	0.09390438
-2.858933	ended prior
-1.91733	ended sept	0.276648
-0.9753526	ended september	0
-2.858933	ended the
-0.8321813	ending april	0.9996533
-0.6556705	ending december	0.544068
-1.597274	ending february
-1.160982	ending in
-1.597274	ending july
-1.597274	ending may
-1.597274	ending oct
-1.597274	ending october
-1.597274	ending sept
-0.4211827	england newspaper
-0.4211827	enough power
-0.4211827	enrollment declined
-1.120153	eps ,
-1.120153	eps in
-0.6838602	eps of	-0.04972434
-1.120153	eps rise
-0.4211827	equal to
-0.4211827	equivalent to
-0.4211827	especially in
-0.4211827	espino ,
-0.4211827	essentially unchanged
-0.4211827	establishing its
-1.421183	estimate ,
-1.421183	estimate compiled
-0.9848902	estimate for
-1.421183	estimate in
-0.4795793	estimate of	0.04031026
-1.421183	estimate to
-0.4211827	estimated that
-1.421183	estimates ,
-1.421183	estimates .
-1.421183	estimates are
-1.421183	estimates as
-1.421183	estimates because
-0.9848902	estimates earnings
-1.421183	estimates for
-0.9848902	estimates of
-0.4211827	estimates. </s>
-0.4211827	europe ,
-0.4211827	even as
-0.4211827	exc "
-0.898304	exceed current
-0.4620115	exceed its
-0.2859202	exceeded wall	0.6797762
-0.7222127	exchange .
-0.7222127	exchange translation
-0.4211827	excluded ,
-0.4211827	excludes the
-1.699936	excluding discontinued
-1.263644	excluding items	0.2440477
-1.699936	excluding losses
-1.699936	excluding nonrecurring
-1.699936	excluding one-time
-0.6283367	excluding special	-0.6283634
-0.3756636	excluding the	-0.05858448
-0.4211827	executive dennis
-0.4211827	existing notes
-0.4211827	expansion with
-0.4211827	expasion program
-0.8299882	expect diluted
-1.266281	expect earnings
-0.501188	expect num
-1.266281	expect to
-0.4771213	expectations .	2.026628
-1.676455	expectations and
-0.7489102	expectations for	0.7024025
-0.7348518	expectations of	-0.09747788
-1.883581	expected ,
-1.118488	expected .	2.533582
-1.883581	expected because
-1.883581	expected by
-0.9419773	expected earnings	-0.2503326
-1.883581	expected num
-1.883581	expected per-share
-0.2319491	expected to	-0.4536299
-0.4211827	expecting ,
-1.516369	expects a
-1.952662	expects annual
-1.952662	expects diluted
-0.881062	expects earnings	-0.2265049
-1.952662	expects first
-1.952662	expects fiscal
-1.952662	expects for
-1.516369	expects fourth	1.80035
-1.952662	expects further
-1.952662	expects it
-0.881062	expects its	-0.1855973
-1.516369	expects num
-1.952662	expects third
-0.6283889	expects to	-0.2969741
-1.952662	expects total
-1.952662	expects yearly
-0.7222127	expense )
-0.7222127	expense ,
-0.4211827	expensing stock
-0.4211827	faces .
-0.4211827	fall short
-0.4211827	farm .
-0.4211827	fas num
-0.08163927	feb .	2.249932
-1.023243	february estimate
-0.5869502	february num	-0.253303
-1.023243	february the
-0.7222127	fee and
-0.7222127	fee income
-0.4211827	fees and
-0.5350304	fell num	-0.5900862
-0.520972	fell to	0.1230794
-1.023243	figure fell
-1.023243	figure in
-0.5869502	figure of
-0.4211827	final two
-1.836156	financial expectations
-1.836156	financial guidance
-1.836156	financial measures
-1.836156	financial restructuring
-0.1362197	financial results	-0.2763356
-1.399864	financial services
-1.836156	financial statements
-0.1332113	financial/first call	-0.1142901
-0.4211827	financials results
-2.628009	first $
-2.628009	first and
-1.092883	first call	0.1294442
-2.628009	first call.
-2.628009	first in
-1.862916	first nine	1.116159
-2.628009	first payment
-0.07972108	first quarter	-0.1890905
-1.862916	first six	1.031838
-2.628009	first three
-2.628009	first time
-2.628009	first two
-1.462575	first-quarter diluted
-0.6974827	first-quarter earnings
-1.462575	first-quarter ended
-1.462575	first-quarter net
-0.6974827	first-quarter num
-1.026283	first-quarter profit
-1.99349	fiscal first	0.4552383
-2.429783	fiscal fourth
-2.429783	fiscal full
-0.1335389	fiscal num	-0.3684944
-2.429783	fiscal quarter
-2.429783	fiscal second
-0.6863809	fiscal year	-0.4934273
-0.4211827	flat at
-1.120153	flow (
-1.120153	flow increased
-0.6838602	flow results	0.342973
-1.120153	flow was
-0.4211827	flows past
-0.2859202	fluctuations .	2.628678
-0.4211827	followed a
-0.4211827	following quarterly
-0.7222127	food and
-0.7222127	food sales
-0.4211827	foods along
-0.4211827	foodservices reported
-3.273663	for $
-2.83737	for a
-3.273663	for all
-2.83737	for asset	-0.1363758
-3.273663	for at
-2.83737	for commercial	-0.003539294
-3.273663	for december
-3.273663	for diluted
-2.83737	for earnings	-0.2612246
-1.94939	for first	0.4329753
-1.85248	for fiscal	0.8089452
-2.346118	for fourth	1.696393
-3.273663	for fourth-quarter
-2.50857	for full	1.047078
-3.273663	for health
-2.50857	for its
-3.273663	for january
-3.273663	for key
-3.273663	for net
-3.273663	for newspapers
-1.333966	for num	-0.2932903
-2.83737	for october	1.236079
-3.273663	for option
-2.50857	for period	-0.3609625
-3.273663	for profits
-2.50857	for second	1.179441
-2.83737	for six	1.126934
-3.273663	for texas
-3.273663	for th
-0.06857642	for the	-0.6827239
-3.273663	for these
-2.074329	for third	0.8101195
-0.4211827	force ,
-0.9783093	forecast .	2.533582
-1.307109	forecast a
-1.307109	forecast earnings
-0.9783093	forecast for
-1.743402	forecast implies
-0.8017986	forecast of	-0.09747788
-1.743402	forecast profit
-1.743402	forecast range
-1.307109	forecast second-quarter
-1.743402	forecast suggests
-1.743402	forecast to
-0.7222127	forecasting earnings
-0.7222127	forecasting first-quarter
-1.462575	forecasts ,
-0.6974827	forecasts .	2.533582
-1.462575	forecasts earnings
-1.026283	forecasts for
-1.462575	forecasts of
-0.6974827	forecasts results	0.2478766
-0.25815	foreign currency	-0.001734167
-1.023243	foreign exchange
-0.4211827	forma compara
-0.4211827	forward ,
-0.7222127	four new
-0.7222127	four weeks
-2.541757	fourth fiscal
-0.003302636	fourth quarter	-0.1330925
-1.462575	fourth-quarter adjusted
-1.026283	fourth-quarter and
-1.026283	fourth-quarter earnings
-1.026283	fourth-quarter net
-1.462575	fourth-quarter num
-1.462575	fourth-quarter of
-1.462575	fourth-quarter revenue
-1.462575	fourth-quarter sales
-0.4211827	franchise royalties
-0.4211827	free cash
-0.2640989	from $	-0.3498939
-1.721524	from a	-0.3490598
-0.8299467	from continuing	0.01639032
-2.212777	from discontinued	0.4458418
-2.649069	from fas
-2.649069	from fiscal
-2.212777	from foreign	0.02838847
-2.649069	from income
-2.212777	from its
-1.273644	from num	-0.2564866
-1.707466	from operations	-0.2304579
-2.649069	from political
-2.649069	from pro
-1.883977	from recurring	0.1628277
-2.649069	from special
-1.081759	from the	-0.1894056
-2.649069	from third
-2.649069	from time
-2.649069	from vestas
-0.4211827	frozen food
-2.360702	full effect
-1.92441	full fiscal	-0.2201086
-0.01523997	full year	-0.8191501
-0.9391328	full-year earnings
-1.375425	full-year fiscal
-1.375425	full-year guidance
-0.6103325	full-year num
-1.375425	full-year profit
-1.375425	full-year profits
-0.4211827	fully diluted
-0.7222127	further ,
-0.7222127	further improvement
-0.5228788	gaap )	-0.4627872
-1.722213	gaap earnings
-1.28592	gaap for	-0.2996136
-0.2596373	gaap net	-0.6676825
-1.120153	gain from
-0.6838602	gain in
-0.6838602	gain of
-0.4211827	gained num
-0.4211827	gains in
-0.4211827	gap. </s>
-0.4211827	gener debt
-0.3387358	generally accepted	-0.1578433
-0.4211827	generated at
-0.4211827	generators ,
-0.4211827	gets contract
-0.4211827	giant post
-0.4211827	given the
-0.4211827	globe ,
-0.4211827	goal of
-1.023243	goodwill .
-1.023243	goodwill and
-1.023243	goodwill pursuant
-1.023243	goodwill related
-0.4211827	greater than
-1.375425	grew $
-1.375425	grew by
-0.3038256	grew num	-0.3258132
-0.9391328	grew to	0.07188669
-0.2859202	gross margins
-1.375425	group 's
-1.375425	group circulation
-1.375425	group decreased
-1.375425	group earnings
-1.375425	group in
-1.375425	group increased
-0.9391328	group reported
-1.375425	group said
-0.4211827	groups .
-0.898304	grow at
-0.898304	grow in
-0.898304	grow more
-0.4211827	growt "
-1.763605	growth and
-0.5642715	growth at	-0.4365742
-0.3424227	growth in	0.2673869
-1.763605	growth is
-0.9985127	growth of	-0.014029
-1.763605	growth target
-1.007179	guidance .	2.026628
-2.206512	guidance excludes
-0.1040886	guidance for	0.147194
-1.134913	guidance of	0.3028561
-2.206512	guidance to
-0.4211827	h. j.
-0.4211827	h.j .
-0.08163927	h.j. heinz	-0.0606618
-1.500364	had $
-1.500364	had a
-1.064071	had been
-1.500364	had benefited
-1.500364	had estimated
-1.064071	had expected	-0.2858382
-1.500364	had lost
-1.500364	had previously
-1.500364	had revenue
-1.500364	had third-quarter
-0.4211827	hanging in
-0.3357921	has announced	0.02925912
-1.535126	has coast
-1.535126	has expected
-1.535126	has increased
-1.535126	has posted
-1.098834	has reported
-1.535126	has repurchased
-0.7222127	have been
-0.7222127	have to
-2.220523	health insurer
-0.0211893	health net	-0.7058802
-2.220523	health nets
-2.220523	health plan
-2.199334	heinz 's
-2.199334	heinz announces
-0.3802112	heinz co	0.5627502
-1.434241	heinz company	-0.3924572
-1.434241	heinz earned	0.2615759
-2.199334	heinz flows
-2.199334	heinz foodservices
-2.199334	heinz has
-1.763041	heinz posted	0.1219471
-2.199334	heinz profit
-2.199334	heinz provides
-0.8239087	heinz reported	-0.0776518
-0.7367586	heinz reports	-0.01557335
-0.4211827	heinz/del monte
-0.4211827	help wanted
-0.898304	helped by
-0.898304	helped the
-0.898304	helped vault
-0.898304	higher margins
-0.898304	higher prices
-0.898304	higher than
-0.7222127	higher-than-expected costs
-0.7222127	higher-than-expected sales
-0.4211827	highest reported
-0.4211827	highlights (
-0.7222127	history ,
-0.7222127	history and
-0.01639042	hj heinz	-0.8798602
-0.03218468	holding co	0.5463599
-1.432048	holding company
-0.4211827	homes. the
-0.4211827	housing market
-0.4211827	however ,
-0.4211827	i.b.e.s. ,
-0.4211827	identify four
-0.898304	if num
-0.898304	if the
-0.898304	if there
-1.026283	impact from	-0.3175548
-0.08715018	impact of	-0.3401382
-0.4620115	impairment charge
-0.898304	impairment of
-0.4211827	impairments .
-0.7222127	implies fiscal
-0.7222127	implies fourth
-0.4211827	improve its
-0.4211827	improved results
-0.898304	improvement from
-0.4620115	improvement in
-0.2859202	improving performance	0.02838847
-1.676694	in a	-0.2311194
-2.073421	in accordance	-0.1578433
-2.235874	in accounting	-0.3616806
-2.564674	in adjusted	-0.09837502
-2.235874	in advertising	0.1154478
-3.000966	in an
-2.564674	in april	1.09475
-3.000966	in april.
-3.000966	in asia
-3.000966	in asset
-3.000966	in at
-3.000966	in august
-3.000966	in bad
-3.000966	in bakery-cafe
-3.000966	in both
-2.235874	in circulation
-3.000966	in commerce
-2.564674	in comparable
-3.000966	in comparable-store
-3.000966	in comparison
-3.000966	in conjunction
-2.564674	in december
-2.235874	in distribution	-0.05548766
-3.000966	in each
-2.564674	in earnings
-3.000966	in education
-3.000966	in europe
-3.000966	in february
-3.000966	in first-quarter
-1.403692	in fiscal	-0.6268836
-3.000966	in full-year
-3.000966	in income
-2.564674	in interest	-0.05388585
-2.235874	in its
-2.059363	in january	0.6926659
-3.000966	in latin
-3.000966	in lending
-2.564674	in line	-0.003539294
-2.564674	in may	0.3787462
-3.000966	in near
-3.000966	in nearer
-3.000966	in nonperforming
-1.074634	in num	-0.2005824
-3.000966	in october
-3.000966	in other
-2.564674	in pretax
-3.000966	in previous
-2.564674	in quarterly
-3.000966	in recent
-3.000966	in repurchase
-2.235874	in revenue	-0.162101
-2.564674	in sales
-3.000966	in same-store
-3.000966	in september
-3.000966	in sonsonate
-3.000966	in south
-3.000966	in technology
-3.000966	in texas
-0.2124277	in the	-0.4024948
-3.000966	in third
-2.564674	in third-quarter
-3.000966	in total
-3.000966	in volume
-0.00526424	inc .	1.029824
-0.4620115	include $	1.298365
-0.898304	include the
-1.120153	included a
-1.120153	included num
-1.120153	included profit
-0.6838602	included the
-0.7222127	includes $
-0.7222127	includes the
-0.9848902	including $	1.298365
-1.421183	including t
-0.4936377	including the	-0.1508315
-2.325334	income (	-0.282658
-2.325334	income ,
-2.325334	income .	2.628678
-2.761627	income advanced
-1.690027	income and	-0.2137441
-2.325334	income attributable	-0.003539294
-2.325334	income available	-0.1901293
-1.820023	income before	-0.0837736
-2.761627	income declines
-2.325334	income dropped
-2.761627	income edged
-2.761627	income estimate
-1.820023	income fell	-0.1192346
-0.7841416	income for	-0.2635417
-1.136324	income from	-0.7914536
-2.761627	income grew
-1.340444	income in	0.08410972
-2.761627	income includes
-1.996534	income increased	0.2094039
-2.325334	income is
-0.4059457	income of	-1.66902
-1.690027	income per	-0.4282016
-2.325334	income rose	0.348783
-2.761627	income tax
-1.996534	income taxes
-0.9602329	income was	-0.6395328
-2.192035	increase approximate
-1.250431	increase approximately	-0.2567991
-1.755742	increase by
-0.5947608	increase in	0.3260795
-2.192035	increase marks
-2.192035	increase num
-0.4920984	increase of	-0.3563637
-0.5947608	increase over	-0.2552725
-2.192035	increase was
-1.293731	increased $	0.6963148
-2.493065	increased annual
-1.168792	increased by	-0.4732507
-2.056772	increased its
-0.1176395	increased num	-1.910104
-2.056772	increased results	-0.3179468
-2.056772	increased the
-1.56552	increased to	-0.2180678
-1.120153	increases .
-1.120153	increases cash
-0.6838602	increases in
-1.120153	increases quarterly
-0.4211827	increasing num
-0.4211827	independent power
-0.4211827	indianapolis power
-0.4211827	information .
-0.898304	initial partner
-0.898304	initial public
-0.898304	initial target
-0.4211827	insurer posts
-0.2859202	intangible assets	-0.1363758
-0.3387358	interest income	-0.09224172
-1.199334	international markets
-0.1277343	international networks	-0.194543
-0.4211827	internationally-focused independent
-0.4211827	into num
-0.2859202	invest usd	-0.003539294
-0.4211827	investments in
-0.4211827	ipalco pooling-of-interests
-0.4211827	ipo proceeds
-0.7269987	is $	0.6963148
-1.926333	is compared
-1.926333	is establishing
-0.854733	is expected	-0.4366314
-1.926333	is for
-1.926333	is forecast
-1.926333	is forecasting
-1.926333	is no
-1.49004	is now
-1.926333	is num
-1.926333	is on
-1.49004	is payable
-1.49004	is planning	-0.003539294
-1.49004	is reasonable
-1.926333	is setting
-1.926333	is still
-1.926333	is targeti
-1.926333	is targeting
-1.926333	is the
-0.2859202	issued guidance
-1.476252	it 's
-1.912544	it also
-1.912544	it anticipates
-1.912544	it believed
-1.912544	it can
-1.912544	it continued
-1.912544	it continues
-1.476252	it earned	0.1269342
-1.912544	it earnings
-1.476252	it expected	-0.2675135
-0.9709409	it expects	-0.1525255
-1.912544	it forecast
-1.912544	it had
-1.912544	it is
-1.912544	it looks
-1.912544	it lost
-1.912544	it may
-1.912544	it now
-1.912544	it raised
-1.912544	it remains
-1.912544	it sees
-1.912544	it sought
-1.912544	it will
-1.476252	it would
-0.1383027	items ,	-0.323743
-1.462575	items .
-1.462575	items and
-1.462575	items are
-1.804434	its board	-0.1363758
-2.240727	its cable
-2.240727	its chances
-2.240727	its class
-2.240727	its commitment
-2.240727	its common
-2.240727	its core
-2.240727	its dividend
-1.041393	its earnings	-0.1151721
-2.240727	its el
-2.240727	its expansion
-2.240727	its february
-2.240727	its financial
-1.804434	its first
-1.475634	its first-quarter
-1.475634	its fiscal	0.3916543
-1.475634	its forecast	-0.1109797
-2.240727	its fourth
-1.475634	its fourth-quarter
-2.240727	its full
-2.240727	its goal
-1.804434	its improving	-0.003539294
-2.240727	its initial
-0.916454	its num
-2.240727	its offer
-1.475634	its outlook	0.2613735
-2.240727	its per-share
-2.240727	its previous
-1.804434	its profit
-2.240727	its revenue
-1.804434	its second-quarter
-2.240727	its solid
-2.240727	its stock
-1.804434	its third	1.41217
-2.240727	its total
-2.240727	its u.s
-2.240727	its work
-2.240727	its workers
-0.4211827	j. heinz
-0.1332113	jan .	2.533582
-0.4211827	janaury num
-1.722213	january ,
-1.722213	january .
-0.07058107	january num	-0.4679281
-1.722213	january with
-0.4211827	january-june num
-0.4211827	japan helped
-0.7222127	jobs ;
-0.7222127	jobs to
-0.4211827	juayua ,
-0.01189922	july num	-1.01226
-0.898304	jump in
-0.4620115	jump num
-0.7222127	jumped better
-0.7222127	jumped num
-0.01523997	june num	-1.380237
-0.7222127	just above
-0.7222127	just shy
-0.4211827	ketchup and
-0.501188	key 's
-1.266281	key corp
-1.266281	key financial
-1.266281	key source
-1.266281	key warned
-1.977485	keycorp ,
-1.212392	keycorp .	2.533582
-0.6532125	keycorp announced	-0.1655229
-1.212392	keycorp announces	-0.1472661
-1.977485	keycorp earned
-1.977485	keycorp earnings
-1.977485	keycorp expects
-1.977485	keycorp had
-1.977485	keycorp has
-1.977485	keycorp increased
-1.541193	keycorp increases
-1.977485	keycorp interest
-1.212392	keycorp reported
-0.7781513	keycorp reports	-0.02430722
-1.541193	keycorp said
-1.977485	keycorp shares
-1.023243	keycorp. 's
-0.5869502	keycorp. announced
-1.023243	keycorp. reported
-0.4211827	kids channel
-0.4211827	known as
-0.4211827	la libertad
-2.033967	last quarter
-0.09426992	last year	-1.03524
-0.8346326	last year.	-0.6559363
-2.033967	last year.starbucks
-0.2859202	latest quarter
-0.4211827	latin america
-0.4211827	lawsuit arising
-0.2859202	lease accounting	-0.2958876
-0.4211827	leasing business
-0.501188	least a	-0.2754126
-0.3246773	least num	-0.1111508
-0.4211827	leaving the
-0.4211827	lempa and
-0.4211827	lending and
-0.7222127	less than
-0.7222127	less this
-0.7222127	level .
-0.7222127	level through
-0.4211827	levels .
-0.4211827	libertad departments
-0.4211827	light co.
-0.4211827	like many
-0.2859202	line with
-0.4211827	linked to
-0.4211827	liquidity to
-0.4211827	litigation settleme
-0.4211827	loan losses
-0.4211827	loan-loss reserves
-0.5869502	loans ,
-0.5869502	loans .	2.628678
-0.4211827	located in
-0.4211827	looking forward
-0.4211827	looks to
-1.318428	loss )	-0.1154883
-2.260032	loss ,
-2.260032	loss ;
-0.8846066	loss for	0.6023872
-1.823739	loss from	-0.2506996
-1.823739	loss increased	-0.2897345
-0.2260652	loss of	-1.342284
-1.060698	loss per	1.328413
-1.494939	loss was	0.5728251
-1.266281	losses and
-1.266281	losses at
-0.8299882	losses from
-1.266281	losses since
-1.266281	losses totaled
-1.266281	losses totaling
-0.2859202	lost $	1.298365
-0.7222127	low )
-0.7222127	low to
-0.4211827	low- to
-0.4211827	low-double digits
-0.4211827	low-double-digit range
-0.4211827	low-to mid-single
-0.008433168	lowe 's	-0.3522038
-1.023243	lower end
-1.023243	lower profit
-1.023243	lower than
-1.023243	lower to
-0.4211827	lowered its
-1.462575	lowes announced
-0.520972	lowes companies	0.7781512
-1.462575	lowes cos.
-1.026283	lowes expects
-1.462575	lowes increased
-1.462575	lowes recently
-1.462575	lowes reconfirms
-0.4211827	loyalty in
-0.7222127	mainly driven
-0.7222127	mainly the
-0.4211827	make more
-0.7222127	management estimates.
-0.7222127	management services
-0.4211827	many big
-0.01848341	march num	-0.8176858
-0.4211827	marcos lempa
-0.7222127	margin growth
-0.7222127	margin increased
-1.023243	margins .
-1.023243	margins drive
-1.023243	margins in
-1.023243	margins of
-0.898304	mark .
-0.898304	mark for
-0.898304	mark in
-0.4211827	mark-to-market losses
-0.6838602	market ,
-1.120153	market .
-1.120153	market more
-1.120153	market purchases
-0.4211827	marketing .
-0.4211827	markets by
-0.2859202	marks the
-0.7222127	matched analyst
-0.7222127	matched the
-0.2859202	matters discussed	-0.003539294
-1.421183	may ad
-0.09691001	may num	-0.4019851
-1.421183	may repurchase
-0.4211827	mean estimate
-0.4211827	measures .
-0.7222127	media 's
-0.7222127	media management
-0.7222127	meet analysts
-0.7222127	meet its
-0.4211827	meeting of
-0.4211827	megawatts ,
-0.7222127	met analysts
-0.7222127	met the
-0.4211827	mid teens
-0.4620115	mid-single digits
-0.898304	mid-single to
-0.4211827	mid-single-digit to
-0.4211827	mild winter
-3.116664	million (
-0.4832941	million ,	-0.7148374
-1.416728	million .	1.647872
-3.116664	million </s>
-1.91733	million a	-0.7823667
-3.116664	million after-tax
-1.465033	million against	0.01818323
-1.741239	million and	-0.2294806
-2.175061	million as
-3.116664	million at
-2.680372	million average	-0.2600297
-3.116664	million before
-2.680372	million charge
-1.333754	million compared	0.8009212
-3.116664	million decline
-0.9794784	million for	-0.4034354
-1.549354	million from	-0.8047321
-3.116664	million gain
-2.680372	million growth	-0.05698237
-1.104417	million in	-0.157559
-3.116664	million increase
-2.680372	million increased	-0.2975598
-2.680372	million last
-2.351572	million loss	-0.1248843
-3.116664	million more
-2.175061	million of
-1.654089	million on	-0.5653291
-0.8146681	million or	0.00475049
-2.680372	million over	0.299565
-2.680372	million profit
-1.741239	million reported	-0.5519754
-2.680372	million revenue
-3.116664	million share
-2.680372	million shares
-3.116664	million the
-1.741239	million to	-0.09039053
-2.680372	million unfavorable	-0.003539294
-3.116664	million versus
-3.116664	million wednesday
-2.680372	million were
-2.680372	million when	-0.1209927
-3.116664	million worth
-0.04855306	million. </s>
-0.4211827	minus the
-0.4211827	modest earnings
-0.7222127	money .
-0.7222127	money on
-0.7222127	monte announced
-0.7222127	monte foods
-1.567311	month ended
-0.4957111	month in	-0.7816438
-1.131018	month last	0.3894701
-0.4957111	month of	-0.3727738
-1.567311	month period
-1.09108	months ,	-0.499389
-1.854122	months earnings
-0.1449558	months ended	-0.324035
-1.218815	months ending
-1.36287	months of	-0.5876101
-2.290414	months period
-1.375425	more end-products
-1.375425	more money
-0.4478803	more than
-0.4211827	most recent
-0.4211827	much as
-0.4211827	multiple customers
-0.4211827	municipalities of
-0.4211827	n.c.-based company
-0.4211827	nation 's
-0.4211827	national advertising
-0.4211827	near the
-0.4211827	nearer the
-1.120153	nearly flat
-0.1785493	nearly num	-0.2489389
-0.4211827	negative pretax
-0.4211827	negotiated transactions
-1.442907	net 's	-0.2062738
-2.905483	net announced
-2.905483	net announces
-2.905483	net believes
-2.905483	net cash
-2.905483	net currently
-1.104089	net earnings	-0.318001
-2.46919	net expects	-0.2589917
-1.052936	net inc	0.4719201
-0.2387872	net income	-0.1455584
-2.14039	net interest	-0.1489822
-1.037142	net loss	-0.1088096
-2.905483	net of
-2.905483	net posts
-2.905483	net profit
-2.905483	net profits
-2.46919	net recorded	-0.1980079
-1.530057	net reported	-0.8251478
-2.46919	net reports
-2.905483	net repurchased
-1.706149	net revenue	-0.7286922
-2.14039	net revenues	-0.1206413
-2.905483	net rose
-2.905483	net sales
-0.4211827	nets first
-0.898304	network next
-0.898304	network services
-0.898304	network subsidiary
-1.535126	networks '
-0.7700334	networks ,
-0.7700334	networks .	2.533582
-0.5935226	networks and	-0.295451
-1.535126	networks had
-1.535126	networks was
-0.4211827	networks. excluding
-1.656988	new accounting
-2.093281	new bakery-cafes
-2.093281	new england
-2.093281	new guidance
-2.093281	new international
-2.093281	new notes
-2.093281	new rate
-1.151677	new stores	-0.06979996
-0.1280298	new york	0
-0.04855306	newspaper group
-0.7222127	newspapers .
-0.7222127	newspapers bolstered
-0.898304	next couple
-0.898304	next several
-0.898304	next year
-0.01296498	nine months	-0.2015516
-0.25815	no .	2.533582
-1.023243	no recovery
-0.4211827	non-cash foreign
-0.04139268	non-gaap net	-0.6676825
-0.4211827	non-interest income
-0.4211827	non-operating income
-0.4211827	non-recurring revenue
-0.4211827	noninterest income
-0.4211827	nonperforming loans
-0.4620115	nonrecurring items
-0.898304	nonrecurring severance
-0.7222127	not have
-0.7222127	not meet
-0.7222127	notes ,
-0.7222127	notes for
-0.1332113	november num	-0.3483993
-1.023243	now expected
-0.5869502	now expects
-1.023243	now targeting
-3.101227	num "	-0.1142901
-2.79472	num $	0.7987409
-1.212141	num %	-0.02570724
-3.430027	num 's
-3.86632	num (
-2.064926	num )	-0.6897699
-0.8452539	num ,	-0.3659177
-1.129167	num .	0.6308386
-1.674285	num ;	-0.03305164
-2.064926	num </s>
-2.144107	num a	-1.006186
-3.101227	num accordingly	0.1628277
-3.430027	num accounting	-0.2958876
-3.86632	num ad
-3.86632	num adjusted
-3.101227	num advertising	-0.1146637
-3.86632	num after
-2.064926	num against	-0.04148257
-2.924716	num amounted	0.276648
-3.86632	num analysts
-1.876935	num and	-0.2486663
-3.101227	num are	0.1154478
-3.430027	num as
-3.430027	num atheros	0.9585298
-3.86632	num average
-3.86632	num based
-3.86632	num between
-1.536652	num billion	-0.07637823
-2.666986	num billion.	-0.07717621
-3.86632	num came
-3.86632	num cent
-1.337927	num cents	0.04266405
-3.86632	num circulation
-3.86632	num cleveland-based
-3.86632	num company
-2.79472	num comparable	-0.3675505
-1.782379	num compared	0.5097448
-3.86632	num consolidated
-3.86632	num craig
-3.86632	num declined
-2.269046	num diluted	-1.028547
-2.403744	num discovery	0.1767558
-3.86632	num dividend.
-3.86632	num ea
-3.86632	num earlier
-3.86632	num earned
-1.791924	num earnings	-0.3077153
-3.86632	num eps
-3.86632	num equal
-3.86632	num exc
-3.86632	num excluding
-3.430027	num expectations	-0.1441325
-3.86632	num expected
-3.86632	num fee
-2.924716	num financial	0.4386324
-2.924716	num first	0.07649207
-3.86632	num fiscal
-1.581814	num for	-0.4258162
-3.86632	num forecast
-2.938775	num fourth	1.696393
-3.86632	num free
-2.030164	num from	-0.7725474
-3.86632	num full
-3.86632	num further
-3.430027	num gaap
-3.86632	num generators
-3.430027	num guidance
-3.430027	num h.j.	0.4458418
-2.189864	num health	0.04346561
-2.924716	num heinz	-0.1984499
-2.445137	num hj	0.389971
-1.712743	num in	-0.4382974
-3.86632	num included
-3.86632	num including
-3.101227	num income	-0.382372
-2.166383	num increased	-0.6540297
-2.79472	num is	-0.6087934
-3.86632	num it
-3.430027	num jobs
-3.86632	num key
-2.938775	num keycorp	-0.008894175
-2.79472	num loss	-0.7803397
-2.938775	num lowe	1.291822
-3.430027	num lowes
-3.86632	num megawatts
-3.86632	num met
-0.7585007	num million	-0.01248384
-2.79472	num million.	0.1557699
-3.86632	num months
-3.86632	num national
-1.901069	num net	-0.6132299
-2.924716	num new	0.4130803
-3.86632	num non-gaap
-3.430027	num num
-3.101227	num on	-0.1259964
-3.86632	num operating
-2.102714	num or	-0.5581566
-3.101227	num panera	1.197464
-1.122918	num per	-0.03815126
-1.344766	num percent	-0.04147047
-3.86632	num percent.
-3.430027	num period	-0.2694702
-3.430027	num preliminary	0.6553943
-3.86632	num profit
-3.430027	num profits
-3.86632	num quarter
-3.86632	num recorded
-3.430027	num reflect	-0.2194527
-2.166383	num results	-0.6130033
-2.542047	num revenue	-0.4082405
-3.430027	num revenues	-0.2110793
-3.86632	num sale
-3.430027	num sales
-3.86632	num same
-2.666986	num second	0.6724865
-3.430027	num shares
-3.86632	num t
-3.430027	num target
-3.86632	num taxable-equivalent
-3.86632	num that
-2.666986	num the	-0.4760004
-3.430027	num third	1.41217
-1.652745	num to	-0.8112404
-2.241017	num total	-0.1441325
-3.86632	num totaled
-2.214688	num was	-0.1113651
-1.536652	num weeks	-0.0625459
-2.666986	num were	0.1198442
-3.86632	num which
-3.101227	num will	0.1161588
-3.430027	num with	-0.315836
-3.430027	num would
-2.924716	num year
-0.2859202	obligations .	2.628678
-0.4211827	ocotber num
-0.2859202	oct .	2.628678
-1.977485	october initial
-0.01223446	october num	-0.8503492
-0.4211827	oem market
-3.274881	of "
-0.3338702	of $	0.3897812
-2.347336	of a	-0.5301037
-3.274881	of adopting
-3.274881	of an
-3.274881	of analyst
-2.203281	of analysts
-3.274881	of annual
-3.274881	of approxima
-3.274881	of arizona
-3.274881	of at
-3.274881	of atheros
-3.274881	of avoiding
-3.274881	of bankruptcy
-3.274881	of betw
-2.838588	of between	0.7211689
-3.274881	of cash
-3.274881	of centrica
-3.274881	of certain
-3.274881	of charges
-3.274881	of company
-2.838588	of debt	-0.1901293
-2.838588	of december	0.9228142
-3.274881	of decline
-2.838588	of directors
-3.274881	of dividend
-2.333277	of earnings	-0.2873161
-3.274881	of expensing
-3.274881	of first
-1.438725	of fiscal	-0.837737
-2.838588	of goodwill
-3.274881	of income
-3.274881	of indianapolis
-3.274881	of intangible
-2.333277	of its
-2.509788	of january	0.4085886
-3.274881	of juayua
-2.333277	of last	0.4406628
-2.838588	of lease	-0.003539294
-3.274881	of losses
-3.274881	of lower
-3.274881	of margin
-3.274881	of marketing
-3.274881	of new
-0.4863423	of num	-0.459585
-3.274881	of previous
-3.274881	of producing
-3.274881	of randers
-2.509788	of record	-0.3407962
-3.274881	of severance
-2.333277	of sfas	0.1339624
-3.274881	of shareholders
-3.274881	of single-ch
-3.274881	of slowing
-3.274881	of starbucks
-3.274881	of tax
-3.274881	of television
-1.438725	of the	-0.07941616
-3.274881	of thier
-2.509788	of this	-0.1624957
-2.838588	of three
-3.274881	of total
-3.274881	of wall
-2.838588	of weak
-3.274881	of year
-3.274881	of years
-0.7222127	off $
-0.7222127	off to
-0.4211827	offer to
-0.4211827	offered an
-0.4211827	offering of
-0.2577305	offset by	-0.6603969
-1.199334	offset cost
-1.199334	offset robust
-1.375425	oibda ,
-1.375425	oibda and
-0.9391328	oibda grew
-1.375425	oibda increased
-1.375425	oibda margin
-0.9391328	oibda of	-0.04972434
-1.375425	oibda was
-1.876985	on $	1.298365
-1.113943	on a	-0.07979795
-2.313277	on analysts
-2.313277	on august
-2.313277	on common
-2.313277	on consumer
-2.313277	on currently
-1.876985	on generally	-0.05388585
-2.313277	on its
-2.313277	on july
-1.371674	on march	0.6812412
-1.876985	on may	0.3787462
-1.113943	on net	-0.9136456
-1.876985	on num	-0.2370034
-0.5698753	on revenue	-1.148841
-1.385732	on revenues	-0.2744189
-0.8920946	on sales	-0.9667591
-1.548185	on the
-1.371674	on total	-0.3679768
-1.876985	on track	-0.003539294
-0.7222127	one in
-0.7222127	one million
-1.023243	one-time $
-0.5869502	one-time charges
-1.023243	one-time costs
-0.4211827	only ,
-0.3826693	open at	-0.6584229
-1.324273	open for
-1.324273	open market
-0.8879802	open new	-0.288463
-0.4211827	opening of
-1.447288	operating cash	-0.09366935
-1.883581	operating highlights
-0.462398	operating income	0.09936412
-0.3484547	operating loss	-0.4212223
-1.447288	operating profit
-1.883581	operating results
-2.012247	operations ,
-1.575955	operations .	2.628678
-1.247155	operations and
-2.012247	operations declined
-1.084702	operations for	0.4307925
-2.012247	operations guidance
-2.012247	operations in
-2.012247	operations increased
-0.6879746	operations of	-0.07198739
-1.070644	operations per	-0.4282016
-2.012247	operations rose
-2.012247	operations swung
-0.9406477	operations was	-0.06144094
-1.247155	operations were	0.2378924
-0.4211827	option expense
-0.4211827	options beginning
-0.1710705	or $	-0.00466013
-2.39651	or a	-0.3013068
-2.832803	or breakeven
-2.39651	or diluted	-0.3160353
-1.761203	or earnings	-0.760849
-2.832803	or net
-0.5727706	or num	-1.214716
-2.39651	or sales
-2.832803	or slightly
-2.832803	or through
-0.4211827	original fiscal
-1.266281	other ,
-1.266281	other benefits
-1.266281	other brands
-1.266281	other intangible
-1.266281	other non-interest
-1.266281	other non-operating
-1.266281	other revenue
-1.699936	outlook ;
-1.699936	outlook at
-0.1026623	outlook for	0.7116861
-1.699936	outlook of
-1.699936	outlook to
-0.4211827	output from
-0.7222127	outstanding ,
-0.7222127	outstanding in
-1.819123	over $
-1.819123	over earnings
-1.38283	over fiscal	0.2570126
-1.819123	over net
-1.819123	over num
-0.1191864	over the	-0.4663685
-0.7222127	overall health
-0.7222127	overall sales
-0.4211827	overseas revenue
-0.4211827	owns publications
-2.033967	panera 's
-0.01072387	panera bread	0.0482645
-0.4211827	par or
-0.4211827	pared with
-0.7222127	parent of
-0.7222127	parent operating
-0.1332113	partially offset	-0.06619069
-0.4211827	particular softness
-0.4211827	particularly in
-0.4211827	partner in
-0.4211827	pas market
-0.4211827	past third-quarter
-0.4211827	pastries treats
-1.023243	payable march
-0.25815	payable on	-0.1667237
-0.4211827	payment at
-0.4211827	pc oem
-0.7222127	penny a
-0.7222127	penny better
-2.573722	per basic	-0.003539294
-3.010015	per common
-0.3335592	per diluted	-1.007942
-2.573722	per quarter
-0.2856357	per share	0.02914351
-3.010015	per share.
-3.010015	per shares
-1.120153	per-share basis
-0.35506	per-share earnings
-1.120153	per-share profit
-1.449954	percent ,	-0.8153477
-1.197281	percent .	1.994659
-1.57995	percent and	-0.1160029
-1.756461	percent as	-0.1729081
-2.521553	percent at
-2.521553	percent below
-2.521553	percent compared
-2.521553	percent decline
-1.449954	percent for	0.01559848
-1.594008	percent from	-0.08278525
-2.521553	percent gain
-0.9542425	percent in	-0.1019243
-1.197281	percent increase	-0.2150875
-2.521553	percent jump
-2.521553	percent last
-2.521553	percent more
-2.521553	percent of
-1.57995	percent over	0.4885459
-2.085261	percent range	-0.2675135
-2.085261	percent revenue	-0.3074096
-2.521553	percent rise
-0.3679768	percent to	-0.9339103
-0.4211827	percent. </s>
-0.4211827	percentage increase
-1.023243	performance that
-0.25815	performance to	-0.4123171
-1.627177	period ,	-0.3339975
-0.9574476	period .	1.744782
-0.5653372	period a	-1.439876
-2.118429	period are	-0.2743007
-1.789629	period earlier	0.1075586
-2.554722	period earned
-0.9294189	period ended	-0.1227602
-0.8782664	period in	-0.2175289
-0.8547853	period last	0.3245393
-1.613118	period of	-0.1292221
-2.554722	period previous
-1.483122	period prior	0.02524984
-1.789629	period the	-0.35518
-1.483122	period was	-0.06144094
-0.1332113	period. </s>
-0.4211827	pet food
-0.7222127	plan enrollment
-0.7222127	plan to
-0.4211827	planet ,
-0.2859202	planning to
-0.4211827	plans to
-0.4211827	plc under
-0.4211827	pocf )
-0.4211827	political advertising
-0.1332113	polled by	-0.2714135
-0.4211827	pooling-of-interests transaction
-0.4211827	portfolio .
-0.4211827	possibility of
-0.4211827	possible .
-0.7222127	post a
-0.7222127	post earnings
-0.8299882	posted a
-0.1946811	posted net	-0.4461381
-0.7222127	posts $
-0.7222127	posts second
-1.023243	power &
-1.023243	power by
-1.023243	power for
-1.023243	power producer
-0.4211827	predicted num
-0.4211827	predicts that
-0.4211827	preliminarily earnings
-0.04855306	preliminary unaudited	-0.250126
-0.4211827	prepares to
-0.4211827	presents bright
-0.7222127	president and
-0.7222127	president of
-0.898304	pretax ,
-0.898304	pretax charges
-0.898304	pretax effects
-1.324273	previous forecasts
-1.324273	previous guidance
-0.1249387	previous year	-0.8195208
-1.199334	previously ,
-1.199334	previously announced
-1.199334	previously disclosed
-0.7630415	previously issued	-0.003539294
-1.199334	previously reported
-0.4211827	price of
-0.898304	prices ,
-0.898304	prices .
-0.898304	prices and
-0.4211827	prifits of
-1.199334	primarily at
-1.199334	primarily by
-1.199334	primarily due
-0.7630415	primarily reflect	-0.2194527
-1.199334	primarily the
