
\data\
ngram 1=6983
ngram 2=30716
ngram 3=8457

\1-grams:
-3.771236		-0.3469666
-4.917364	!	-0.1899242
-2.78703	"	-0.8621418
-2.232518	$	-1.993704
-2.692055	%	-1.041274
-3.10445	&	-0.3584652
-2.926138	'	-0.2537972
-4.917364	'buddy	-0.2129667
-4.917364	'diversity	-0.2134188
-4.917364	'duty	-0.2022052
-4.917364	'hot-area	-0.2129667
-4.917364	'hotspots	-0.2129667
-4.917364	'hotspots'	-0.1944099
-4.917364	'new	-0.2121507
-4.917364	'oakes/cobo,	-0.2129667
-4.917364	'one-touch	-0.2129667
-4.917364	'pc-mp	-0.2134766
-4.917364	're	-0.2134766
-2.050486	's	-0.2885056
-4.917364	'siren	-0.2129667
-4.917364	'starbucks	-0.213445
-4.917364	't	-0.2122982
-4.917364	'wireline	-0.2133294
-2.237028	(	-0.6438748
-2.237028	)	-0.5370258
-3.741272	+	-0.4005207
-1.311736	,	-0.3627403
-2.790259	-	-0.908937
-4.014274	--	-0.1834147
-4.917364	-105dbm	-0.1917616
-4.917364	-capable	-0.2134398
-4.917364	-hosted	-0.2133557
-1.366891	.	-2.865541
-4.917364	0.02/share	-0.2109582
-4.917364	0.04/share	-0.2109582
-4.917364	02/09/2001	-0.1944099
-4.616333	03/07/2001	-0.2555762
-4.917364	03/11/2005	-0.1917616
-4.917364	03/23/1998	-0.1944099
-4.917364	03/27/2000	-0.1917616
-4.616333	03/31/2000	-0.2555762
-4.616333	04/01/1999	-0.252928
-4.917364	1,200mw	-0.2049837
-4.917364	1-5.	-0.2134503
-4.917364	1/1/1900	-0.1974892
-3.963121	1/2	-0.5817183
-4.616333	1/2c	-0.2721246
-4.315304	10-k	-0.273433
-4.440242	10-q	-0.209932
-4.315304	10-year	-0.2742172
-4.917364	100-200	-0.2121455
-4.616333	1000th	-0.2128142
-4.616333	100m	-0.2048604
-4.917364	105mbits/sec	-0.2134555
-4.917364	1080i	-0.2134398
-4.917364	108mbps	-0.1944099
-4.616333	10b-5	-0.2746376
-4.917364	11-13	-0.1944099
-4.616333	11-13.	-0.2117765
-4.917364	11/18/2003	-0.1944099
-4.917364	11/19/1996	-0.1917616
-4.917364	11a	-0.2111167
-4.917364	11g	-0.2127773
-4.616333	11th	-0.2132244
-4.917364	12-year	-0.2134398
-4.917364	124th	-0.2134398
-4.218394	13-week	-0.6611288
-4.917364	138th	-0.213466
-4.917364	144a	-0.2036746
-4.917364	145th	-0.213466
-4.917364	15-year	-0.213445
-4.917364	163-megawatt	-0.213466
-4.917364	18.8million	-0.2067052
-4.917364	186,000-sq	-0.1944099
-4.917364	19-acre	-0.2134713
-4.917364	1france	-0.2128983
-4.917364	2.4-ghz	-0.2134766
-4.917364	2.4/5-ghz	-0.2134083
-4.917364	2.4/5ghz	-0.2134766
-4.917364	2.4ghz	-0.2036746
-4.917364	2.5-gigabit-per-second	-0.2134766
-4.917364	20-ounce	-0.2109582
-4.917364	20910,united	-0.2133189
-4.440242	20th	-0.2313356
-4.917364	21-year	-0.2120611
-4.917364	215-acre	-0.2133767
-4.917364	22-year	-0.2121718
-4.917364	24-can	-0.2134766
-4.917364	25-54.	-0.213445
-4.917364	25-member	-0.2133662
-4.315304	26-week	-0.4775645
-4.917364	27,000-square-foot	-0.2134766
-4.917364	27-year	-0.212372
-4.917364	270-person	-0.213382
-4.616333	27th	-0.2132454
-4.917364	3-2	-0.2067052
-4.616333	3/8	-0.2737647
-4.917364	31-year	-0.2125563
-4.917364	32-bit	-0.2134766
-4.917364	32-year	-0.2129562
-4.917364	36-year	-0.212372
-4.917364	3g	-0.213177
-4.917364	3gsm	-0.2067052
-4.917364	4,000mw	-0.2121191
-4.917364	4,500-plus	-0.2128825
-4.616333	4-cup	-0.2109424
-4.917364	4-year-old	-0.2134398
-4.440242	4.9ghz	-0.2531249
-4.616333	40-acre	-0.2131087
-4.917364	400-	-0.2109318
-4.440242	42nd	-0.2532247
-4.917364	43-employee	-0.212372
-4.917364	43-week	-0.2127352
-4.917364	47-week	-0.2127352
-4.917364	5,000-square-foot	-0.2128562
-4.917364	50/50	-0.2133137
-4.440242	52-week	-0.5003857
-4.917364	54-mbps	-0.2134188
-4.917364	54mbps	-0.1917616
-4.616333	58-year	-0.2134398
-4.917364	5ghz	-0.2134766
-4.917364	5ghz/2.4ghz	-0.2133925
-4.917364	6-k	-0.2132454
-4.917364	6.5-ounce	-0.2134766
-4.917364	60-person	-0.2134083
-4.917364	600-project	-0.1917616
-4.917364	60mbits/sec	-0.1944099
-4.917364	670-megawatt	-0.2133925
-4.917364	80-100	-0.2121455
-4.917364	800r	-0.1917616
-4.616333	80124,united	-0.2744853
-4.917364	802.11-based	-0.2129772
-4.072266	802.11a	-0.2862356
-3.616334	802.11a/b/g	-0.3602994
-3.574941	802.11a/g	-0.3648448
-4.218394	802.11b	-0.2048717
-4.139213	802.11b/g	-0.3106622
-4.616333	802.11e	-0.2745536
-3.39885	802.11g	-0.3740222
-4.917364	802.11g-based	-0.2132401
-4.440242	802.11i	-0.2531354
-4.139213	802.11n	-0.2738595
-4.616333	802.1x	-0.1917506
-4.917364	850-890	-0.213424
-4.440242	8550w	-0.201547
-4.616333	8620lw	-0.2745746
-4.917364	8th	-0.2134555
-4.917364	95054.,united	-0.2133189
-2.565181	:	-0.5263293
-2.727032	;	-0.6170284
-1.277379	</s>
-99	<s>	-0.669282
-4.440242	?	-0.2128286
-4.616333	[	-0.2132927
-4.616333	]	-0.197462
-1.976349	a	-0.3622611
-4.917364	a&e	-0.213382
-3.555636	a.	-0.3099782
-4.917364	a.m.	-0.2134188
-4.917364	a.s	-0.1944099
-4.917364	a/g	-0.2134503
-4.616333	aaa	-0.2746271
-4.917364	aat	-0.2109582
-4.917364	ab	-0.2111167
-4.917364	abia	-0.2109582
-3.80342	ability	-1.000714
-4.072266	able	-0.7262447
-4.440242	abn	-0.5011166
-3.595145	about	-0.4220824
-4.616333	abpca	-0.2721246
-4.616333	abrams	-0.1895137
-4.917364	abramson	-0.1917616
-4.917364	abroad	-0.1944099
-4.917364	abrupt	-0.213466
-4.917364	absence	-0.2022052
-4.917364	ac100	-0.2134766
-4.917364	academe	-0.1917616
-4.616333	academic	-0.2036692
-4.917364	acc	-0.1899242
-4.218394	accelerate	-0.1945032
-4.315304	accenthealth	-0.2158451
-4.616333	accept	-0.2746166
-4.616333	accepted	-0.2570229
-4.917364	accepting	-0.2128299
-2.921729	access	-1.014545
-4.917364	accessibility	-0.2124036
-4.917364	accessories	-0.212293
-4.917364	acclaimed	-0.213466
-4.917364	accommodate	-0.2130824
-4.616333	accomplishment	-0.1873265
-4.315304	accordance	-0.4760568
-3.771236	according	-1.167593
-4.315304	account	-0.2111695
-4.616333	accountant	-0.1998916
-4.616333	accountants	-0.1940365
-4.315304	accounted	-0.4728876
-3.616334	accounting	-0.548176
-4.218394	accounts	-0.3527543
-4.917364	accounts.	-0.1899242
-4.917364	accreditation	-0.2036746
-4.218394	accretive	-0.6533772
-4.218394	accrued	-0.6520681
-4.440242	accuracy	-0.4913251
-4.440242	accused	-0.1827047
-4.616333	accuses	-0.1947007
-4.917364	accusing	-0.2134555
-4.440242	ach	-0.2132401
-4.315304	achieve	-0.2131718
-4.139213	achieved	-0.193052
-4.917364	achieves	-0.2088714
-4.917364	acknowledged	-0.2049837
-4.917364	acoustics	-0.2134766
-4.616333	acquird	-0.2734593
-3.555636	acquire	-0.2824762
-3.440243	acquired	-0.3981564
-4.917364	acquiring	-0.2134398
-3.574941	acquisition	-0.6009902
-3.63861	acquisitions	-0.5261642
-4.917364	acquisitions..	-0.2126405
-3.519424	across	-0.6202983
-3.875971	act	-0.3289291
-4.616333	acted	-0.2717281
-4.014274	acting	-0.2546254
-3.555636	action	-0.5099071
-4.440242	active	-0.203422
-3.917364	activities	-0.2637713
-4.917364	activities.	-0.1899242
-4.917364	actual	-0.2134766
-4.917364	actually	-0.2134713
-4.440242	actuarial	-0.2519883
-4.917364	actuary	-0.2080583
-4.917364	acute	-0.213361
-4.315304	ad	-0.4771169
-4.917364	ad-based	-0.2133347
-4.917364	ad-hoc	-0.2134555
-4.917364	ad-supported	-0.2134608
-4.616333	adam	-0.2134503
-4.440242	adapter	-0.2434053
-4.218394	adapters	-0.3639877
-4.139213	adaptive	-0.3337729
-3.875971	add	-0.1819937
-4.917364	add-on	-0.213382
-3.963121	added	-1.156755
-4.315304	adding	-0.2087121
-3.361061	addition	-1.093642
-3.33758	additional	-0.2470658
-4.014274	additionally	-0.5435251
-4.917364	additions	-0.2049837
-4.917364	address	-0.2134083
-4.917364	addressing	-0.1958566
-4.616333	adds	-0.2103872
-4.917364	adequate	-0.213445
-4.218394	adimos	-0.2042974
-4.616333	adjacent	-0.2049783
-4.917364	adjournment	-0.2130193
-4.616333	adjournments	-0.2130141
-4.917364	adjusted	-0.2134135
-4.917364	adjustment	-0.2049837
-4.616333	adjustments	-0.272225
-4.440242	adler	-0.4794121
-4.616333	adm100	-0.2134188
-4.616333	administered	-0.2734593
-3.838182	administration	-0.2439753
-4.917364	administration.	-0.1899242
-3.662091	administrative	-0.5955009
-4.440242	administrator	-0.1657136
-4.917364	admitted	-0.2128615
-4.315304	adopted	-0.207281
-4.917364	adopts	-0.2134713
-4.440242	ads	-0.1814398
-3.917364	advance	-1.04134
-3.917364	advance/newhouse	-0.961937
-3.713244	advanced	-0.3164592
-4.917364	advancement	-0.2022052
-4.616333	advancepcs	-0.2738332
-4.315304	advantage	-0.3759417
-4.917364	advantage.	-0.1899242
-4.917364	advertisement	-0.2104084
-4.440242	advertisers	-0.1940035
-3.412214	advertising	-0.3981569
-4.616333	advice	-0.1929639
-4.014274	advised	-0.3149848
-4.616333	adviser	-0.1949804
-4.917364	advising	-0.1958566
-3.713244	advisor	-0.8617324
-4.917364	advisor.	-0.1899242
-4.616333	advisors	-0.2692247
-4.440242	advisory	-0.2119979
-4.616333	advp	-0.2721246
-4.917364	aerator	-0.2112276
-2.51769	aes	-0.666639
-4.917364	aes-	-0.2134766
-4.139213	aes-intellinet	-0.2317453
-4.917364	aes-level	-0.2134713
-4.917364	aes.	-0.1899242
-4.917364	aesthetics	-0.2049837
-3.917364	affairs	-0.2682143
-4.917364	affected	-0.21334
-4.616333	affiliate	-0.2021675
-4.616333	affiliates	-0.2648409
-4.440242	affinity	-0.2432548
-4.917364	affirm	-0.2132822
-4.917364	affirmed	-0.2130456
-4.616333	affordable	-0.195079
-4.616333	africa	-0.2648409
-4.440242	african	-0.5009642
-3.454966	after	-0.350947
-4.917364	aftermarket	-0.2036746
-4.917364	afternoon	-0.1917616
-3.412214	ag	-0.6177819
-4.917364	ag.	-0.1899242
-4.440242	again	-0.1854983
-3.555636	against	-0.3658244
-4.616333	age	-0.2586556
-4.616333	agency	-0.1826201
-4.315304	agenda	-0.4771275
-3.771236	agent	-1.353739
-4.917364	agents	-0.1917616
-3.838182	aggregate	-0.9801354
-4.616333	aggressive	-0.2745063
-3.771236	agreed	-1.348797
-2.810154	agreement	-0.8298229
-3.771236	agreements	-0.7708234
-4.917364	agronomists	-0.1917616
-4.440242	agronomy	-0.2495101
-4.917364	aguila	-0.1917616
-4.917364	aids	-0.1917616
-4.917364	ailment	-0.1917616
-4.917364	aims	-0.2049837
-4.616333	ainsley	-0.2018493
-4.315304	air	-0.2130982
-4.616333	airaya	-0.2127405
-4.917364	airlines	-0.1899242
-4.917364	airoha	-0.1917616
-4.917364	airport	-0.2134713
-4.917364	aisle	-0.1917616
-4.917364	akron	-0.2036746
-4.917364	al.	-0.213403
-4.917364	ala.	-0.1899242
-4.139213	alarm	-0.3689418
-4.616333	alarms	-0.252928
-4.616333	alaska	-0.252928
-4.440242	alber	-0.2511444
-4.616333	albertsons	-0.2555762
-4.917364	albums	-0.2036746
-4.917364	alcohol	-0.2121191
-4.917364	alex	-0.1944099
-4.440242	ali	-0.2526517
-4.917364	align	-0.2112276
-4.917364	aligned	-0.2112118
-4.917364	aligning	-0.213361
-4.616333	aligns	-0.2131139
-4.917364	alike	-0.2112276
-2.967974	all	-0.3566217
-4.917364	all-in-one	-0.2133873
-4.616333	allegedly	-0.2746114
-3.963121	alleges	-0.53311
-4.616333	alleging	-0.2121718
-4.616333	allen	-0.2130246
-3.80342	alliance	-0.2418747
-4.917364	alliances	-0.1917616
-4.917364	allied	-0.2134713
-4.139213	alling	-0.2067904
-4.917364	allocable	-0.2049837
-4.917364	allocated	-0.1974892
-4.917364	allocation	-0.1917616
-4.139213	allow	-0.3156654
-4.616333	allowed	-0.2128931
-4.139213	allowing	-0.2269626
-4.014274	allows	-0.2422688
-4.315304	almost	-0.2560097
-4.315304	alone	-0.2204784
-3.80342	along	-0.6023424
-4.139213	already	-0.2109847
-2.852906	also	-0.3903107
-4.440242	altamonte	-0.5011113
-4.616333	alternative	-0.2133242
-4.917364	alternatives..	-0.2121613
-4.917364	although	-0.2121718
-4.616333	altius	-0.2723253
-4.917364	alumbrado	-0.2134766
-4.917364	always	-0.213445
-4.917364	am	-0.213403
-4.440242	am/pm	-0.2530671
-4.218394	amazon	-0.2328346
-4.616333	amazon.com	-0.2715535
-4.917364	ambassadeur	-0.2134766
-4.917364	amdur	-0.1917616
-4.917364	amember	-0.2134083
-4.014274	amended	-0.1874882
-4.917364	amendment	-0.2036746
-4.616333	amendments	-0.26615
-4.616333	amends	-0.2720982
-3.273911	america	-0.5538397
-4.616333	america.	-0.2510906
-4.616333	america/u.s	-0.2555762
-3.412214	american	-0.2836958
-4.440242	americans	-0.5006908
-4.917364	amid	-0.2088714
-3.963121	among	-0.308819
-4.917364	amortization	-0.1944099
-3.349162	amount	-0.8294928
-4.917364	amounted	-0.2049837
-4.616333	amounts	-0.2021998
-4.917364	amoy	-0.2134345
-4.917364	ample	-0.2134713
-4.440242	ampm	-0.2526201
-4.315304	amr	-0.2009256
-4.440242	amro	-0.2492027
-4.917364	amrs	-0.2127615
-4.917364	ams	-0.2109582
-4.917364	amsterdam	-0.2129351
-2.561338	an	-0.5388461
-4.440242	analog	-0.501106
-3.963121	analysis	-0.2433655
-4.315304	analyst	-0.1669432
-4.440242	analysts	-0.2033682
-4.440242	analytical	-0.2134293
-4.917364	analyze	-0.2133557
-4.917364	anchored	-0.212293
-1.651132	and	-0.1762491
-4.616333	and/or	-0.2131245
-4.917364	anders	-0.2134608
-4.917364	andersen	-0.213403
-4.315304	anderson	-0.1915296
-4.616333	andres	-0.2746271
-4.616333	andrew	-0.2074675
-4.917364	angela	-0.2134766
-3.838182	angeles	-0.5138142
-4.917364	angeles.	-0.1899242
-3.555636	animal	-1.273807
-4.917364	animals	-0.2126668
-4.917364	animation	-0.1917616
-4.315304	ann	-0.2746167
-4.917364	annex	-0.2134766
-3.686915	announce	-0.198134
-2.271941	announced	-1.10002
-4.917364	announcedthe	-0.2132664
-3.537153	announcement	-0.6274227
-2.872041	announces	-0.2965381
-4.616333	announcing	-0.2064223
-3.294114	annual	-0.7013512
-4.315304	annualized	-0.4781849
-4.917364	anomalies	-0.2067052
-4.139213	another	-0.1913749
-4.616333	answer	-0.2088396
-4.440242	answers	-0.2464791
-4.917364	antenna	-0.2067052
-4.917364	antennae	-0.212872
-4.917364	antennas.	-0.1899242
-4.139213	anthony	-0.3338518
-4.616333	anti-trust	-0.2648409
-4.616333	anticipate	-0.2745326
-4.917364	anticipating	-0.1958566
-4.917364	antitrust	-0.2134398
-4.440242	antonio	-0.1715788
-3.574941	any	-0.2106502
-4.917364	anyone	-0.2067052
-4.917364	anything	-0.1944099
-4.440242	anywhere	-0.4943557
-4.440242	aol	-0.2027279
-3.917364	ap	-0.3518113
-4.616333	ap-5100voip	-0.2127984
-4.917364	ap5005ap-g	-0.2133873
-4.917364	apart	-0.2114757
-4.917364	api	-0.213424
-3.917364	app	-0.3060492
-4.917364	appeal	-0.2134555
-4.440242	appeals	-0.1980122
-4.139213	appear	-0.3687252
-4.917364	appeared	-0.2088714
-4.917364	appearing	-0.2128299
-4.616333	apple	-0.1917451
-4.917364	applebee	-0.2095982
-4.917364	appliances	-0.2036746
-4.917364	applicable	-0.2134293
-4.440242	applicants	-0.205139
-4.072266	application	-0.1848703
-3.616334	applications	-0.2922677
-4.917364	applications.	-0.1899242
-4.616333	applied	-0.2746219
-4.616333	applies	-0.26615
-4.917364	apply	-0.2049837
-4.917364	appoint	-0.2022052
-3.236122	appointed	-0.306087
-3.30458	appointment	-0.8486581
-3.771236	appointments	-0.445505
-3.426002	appoints	-0.2235418
-4.917364	appreciation	-0.2132611
-4.315304	approach	-0.3815692
-4.440242	appropriate	-0.2122719
-3.686915	approval	-0.2781348
-4.218394	approvals	-0.354231
-4.616333	approve	-0.2570229
-4.139213	approved	-0.3527426
-4.440242	approves	-0.2503836
-4.917364	approving	-0.1958566
-3.20136	approximately	-1.609482
-4.315304	apr	-0.4623185
-4.917364	apr-14-2005	-0.1944099
-4.917364	apr-15-2005	-0.1944099
-4.917364	apr-24-2006	-0.1944099
-4.917364	apr-25-2005	-0.1944099
-3.118023	april	-1.516073
-4.917364	ar1900	-0.2133978
-4.616333	ar2313	-0.2132874
-4.616333	ar5001x	-0.2745694
-4.072266	ar5002ap-2x	-0.2920553
-4.917364	ar5002ap-x	-0.1917616
-4.917364	ar5002g	-0.2133032
-4.616333	ar5004g	-0.2744748
-4.139213	ar5004x	-0.2222073
-4.616333	ar5005g	-0.1916733
-4.315304	ar5005ug	-0.4685038
-4.218394	ar5005ux	-0.1616248
-4.616333	ar5005va	-0.1915738
-4.440242	ar5005vl	-0.2523885
-4.072266	ar5006ap-g	-0.203231
-4.616333	ar5006eg	-0.2108737
-4.616333	ar5006ex	-0.2010932
-4.917364	ar5006sx	-0.2036746
-4.616333	ar5006x	-0.1923135
-4.616333	ar5007ap-g	-0.252928
-4.014274	ar5008	-0.3025597
-4.917364	ar5413	-0.2036746
-4.917364	ar5414	-0.1917616
-4.917364	ar6001g	-0.2036746
-4.917364	ar6001x	-0.1917616
-4.917364	arab	-0.1917616
-4.616333	arbor	-0.252928
-4.917364	archaeology	-0.1917616
-4.616333	architect	-0.2692247
-4.917364	architects	-0.2134713
-4.917364	architectural	-0.2134083
-4.072266	architecture	-0.1724897
-4.917364	architecture.	-0.1899242
-4.616333	archive	-0.1940859
-4.917364	archives	-0.1917616
-4.218394	arco	-0.360213
-2.935092	are	-0.2577319
-4.917364	are.	-0.1899242
-3.50239	area	-0.2702286
-4.917364	area.	-0.1899242
-4.315304	areas	-0.378663
-4.917364	areas.	-0.1899242
-4.917364	arena	-0.1917616
-4.917364	arenas	-0.2126668
-4.440242	argentina	-0.2244405
-4.917364	argentine	-0.2134188
-4.917364	arising	-0.212098
-3.963121	arizona	-0.5288399
-4.917364	arizona.	-0.1899242
-4.917364	ark	-0.1944099
-4.616333	arkansas	-0.18853
-4.616333	arlen	-0.2746376
-4.917364	arlington-based	-0.2133294
-4.917364	arm	-0.1917616
-4.917364	armed	-0.2134713
-4.917364	arnold	-0.2049837
-4.917364	aroma	-0.2109582
-4.917364	aronoff	-0.1917616
-4.616333	aronson	-0.2633716
-4.616333	arose	-0.2119979
-3.771236	around	-0.623455
-4.440242	arps	-0.4794121
-4.917364	arrange	-0.2134188
-4.440242	arrangement	-0.1713126
-4.072266	array	-0.6408533
-4.917364	arrive	-0.212293
-4.218394	arthur	-0.2368725
-4.218394	articles	-0.2136946
-4.616333	artificially	-0.2746376
-4.917364	artist	-0.2134713
-4.616333	arts	-0.2743066
-4.315304	artusi	-0.2121443
-4.014274	aruba	-0.5797899
-2.173854	as	-0.6528611
-4.917364	as1000	-0.2134555
-3.80342	ascent	-1.14576
-4.014274	asia	-0.4207876
-4.917364	asiago	-0.2134766
-4.315304	asian	-0.2128141
-4.917364	aside	-0.2067052
-4.917364	ask	-0.1917616
-4.616333	asked	-0.2110533
-4.315304	asociados	-0.2306653
-4.072266	aspects	-0.7234663
-4.917364	asserting	-0.2120611
-4.917364	assessing	-0.1958566
-4.139213	asset	-0.2739121
-3.838182	assets	-0.1911489
-4.917364	assignment	-0.2134555
-4.616333	assignments	-0.2116129
-4.616333	assist	-0.2044155
-4.917364	assistance	-0.2133767
-3.80342	assistant	-0.274519
-4.917364	assistants	-0.2036746
-4.917364	assisting	-0.2134766
-4.014274	associate	-0.4610205
-4.139213	associated	-0.5452286
-4.917364	associates	-0.1917616
-4.014274	association	-0.2449187
-4.917364	association.	-0.1899242
-3.838182	assume	-0.3575736
-3.963121	assumed	-0.5178398
-4.616333	assumes	-0.2128089
-4.616333	assuming	-0.194613
-4.917364	assurance	-0.213466
-4.917364	assuring	-0.2110586
-2.504064	at	-0.5266592
-4.917364	at&t	-0.2134766
-2.414937	atheros	-0.7576225
-4.917364	atheros-based	-0.2129404
-4.917364	atheross	-0.21263
-4.616333	athr	-0.2721246
-4.440242	atlanta	-0.1608783
-4.917364	atlantic	-0.2133242
-3.574941	atm	-0.3603168
-3.686915	atms	-0.6589631
-4.917364	attached	-0.2049837
-4.917364	attempts	-0.2049837
-4.218394	attorney	-0.1775085
-4.616333	attorneys	-0.2129299
-4.917364	attract	-0.2134293
-4.917364	attractive	-0.2049837
-4.917364	attracts	-0.2133767
-3.686915	au	-1.255183
-4.218394	auburn	-0.2142761
-4.917364	auction	-0.2134608
-4.917364	audience	-0.2080583
-4.616333	audiences	-0.1716887
-4.139213	audio	-0.2741278
-4.917364	audio-on-demand	-0.1917616
-4.616333	audio/video	-0.2743749
-4.616333	audit	-0.2746114
-4.917364	auditor	-0.2112276
-4.917364	auditoriums	-0.1917616
-4.440242	auditors	-0.2285473
-4.917364	audits	-0.2067052
-4.315304	auen	-0.1979798
-4.218394	aug	-0.3750682
-4.917364	aug-03	-0.1974892
-4.917364	aug-03-2004	-0.1944099
-4.616333	aug-04	-0.2586556
-4.917364	aug-04-2005	-0.1944099
-4.917364	aug-04-2009	-0.1944099
-4.917364	aug-05	-0.1974892
-4.917364	aug-05-2004	-0.1944099
-4.917364	aug-09	-0.1974892
-4.917364	aug-09-2005	-0.1944099
-4.616333	aug-10-2005	-0.1697642
-4.917364	aug-16-2004	-0.1944099
-4.917364	aug-22-2005	-0.1944099
-4.917364	aug-24-2004	-0.1944099
-4.616333	aug-28-2001	-0.1697642
-3.440243	august	-0.9559128
-4.917364	augusta	-0.2036746
-4.616333	auletta	-0.18853
-4.616333	aunt	-0.2134713
-4.917364	aurora	-0.2128773
-4.917364	austin	-0.2036746
-4.616333	australia	-0.252928
-4.917364	australian	-0.2134293
-4.315304	austria	-0.1666859
-4.440242	ausura	-0.2070839
-4.917364	authentic	-0.1917616
-4.616333	authentication	-0.2066998
-4.917364	author	-0.2036746
-4.616333	authority	-0.1828231
-4.218394	authorization	-0.156983
-4.139213	authorized	-0.3522213
-4.917364	authorizes	-0.2104242
-4.315304	auto	-0.2131665
-3.686915	automated	-1.142806
-4.139213	automatic	-0.3593338
-4.616333	automatically	-0.2130771
-4.616333	automation	-0.2097731
-4.917364	automobile	-0.2134398
-4.139213	automotive	-0.1911703
-4.917364	autos	-0.2132296
-4.917364	autos.nytimes.com	-0.1944099
-4.616333	av	-0.2102338
-3.963121	availability	-0.3582907
-3.412214	available	-0.3318564
-4.218394	avenue	-0.1940475
-3.537153	average	-0.8483398
-4.315304	averill	-0.2185766
-4.917364	aviv	-0.1917616
-4.917364	avoid	-0.2088714
-4.917364	awaited	-0.2126931
-4.139213	award	-0.3201077
-4.616333	award-	-0.2746271
-4.440242	award-winning	-0.2130877
-4.139213	awarded	-0.200877
-4.917364	awards	-0.213403
-4.440242	away	-0.4997485
-4.917364	azimuth	-0.1917616
-3.713244	b	-0.8732431
-3.875971	b.	-0.3123247
-4.917364	b.a	-0.1944099
-4.917364	b.s	-0.1944099
-4.616333	b/g	-0.2745956
-4.616333	b2b	-0.2108948
-4.917364	baby	-0.2133189
-4.315304	back	-0.1739327
-4.917364	backhaul	-0.213177
-4.917364	backward	-0.2134713
-4.917364	baden-wuerttemberg	-0.2133137
-4.315304	bagel	-0.271416
-4.315304	bagels	-0.3774883
-4.917364	bahamas	-0.2134608
-4.616333	baidu	-0.2715535
-4.917364	baker	-0.2134766
-3.574941	bakery	-0.449447
-4.917364	bakery-	-0.213424
-3.146512	bakery-cafe	-0.8902986
-3.349162	bakery-cafes	-0.8218492
-4.917364	bakery-cafes.	-0.213424
-4.218394	bakke	-0.3378921
-4.917364	balance	-0.2134713
-4.315304	balances	-0.1691246
-4.917364	ballroom	-0.1917616
-4.917364	bancshares	-0.2128983
-4.218394	band	-0.1782839
-4.917364	bands	-0.1917616
-4.218394	bandwidth	-0.204866
-4.917364	bandwidths	-0.212098
-2.993084	bank	-0.3730412
-4.616333	bank.	-0.2510906
-4.616333	banker	-0.2041257
-3.39885	banking	-0.3208899
-4.917364	banking.	-0.1899242
-4.616333	bankruptcy	-0.2134083
-4.072266	banks	-0.1760381
-4.917364	banks.	-0.1899242
-4.440242	banner	-0.2049462
-4.072266	banquete	-0.4904882
-4.616333	barbara	-0.2746376
-4.917364	barcelona	-0.2036746
-4.917364	bargaining	-0.213445
-4.616333	barista	-0.2134713
-4.218394	barney	-0.2584371
-4.917364	barracks.	-0.1899242
-4.917364	barratt	-0.1917616
-4.014274	barry	-0.5943813
-4.917364	bars	-0.1917616
-4.218394	base	-0.3512633
-4.917364	baseb	-0.1899242
-4.014274	baseband	-0.3115182
-3.18497	based	-1.004972
-3.454966	basis	-0.7079504
-4.616333	basis.	-0.2510906
-4.917364	basketball	-0.2134766
-4.616333	bass	-0.252928
-4.917364	bathroom	-0.213466
-4.917364	baton	-0.2134766
-4.917364	battery	-0.2132611
-4.440242	battle	-0.1991918
-4.616333	bauer	-0.2743223
-4.917364	bay-area	-0.2133084
-4.616333	bays	-0.252928
-4.014274	bbc	-0.4391559
-4.917364	bc	-0.213445
-4.917364	bdm	-0.2132243
-2.574941	be	-0.4028552
-4.917364	beach	-0.2134766
-4.917364	beaches	-0.2036746
-4.616333	beam	-0.2132822
-4.917364	beamforming	-0.1917616
-4.917364	beauty	-0.2110586
-4.917364	beaverton	-0.2134766
-4.440242	became	-0.2122508
-4.072266	because	-0.3205783
-4.917364	becker	-0.1917616
-4.014274	become	-0.2369588
-4.218394	becomes	-0.2606439
-4.616333	becoming	-0.2088608
-4.315304	bed	-0.4592391
-4.917364	bedrooms	-0.2036746
-2.724239	been	-0.6704217
-4.917364	befits	-0.213466
-3.616334	before	-0.266683
-4.315304	began	-0.2422845
-3.80342	begin	-0.2075445
-4.218394	beginning	-0.3885854
-4.917364	begins	-0.2131823
-4.616333	begun	-0.26615
-3.838182	behalf	-1.102667
-4.315304	behar	-0.4565908
-4.917364	behavior	-0.2036746
-4.315304	behavioral	-0.4759882
-4.218394	beijing	-0.3690715
-3.838182	being	-0.2960361
-4.917364	believes	-0.2133242
-4.315304	belkin	-0.2382459
-4.917364	bell	-0.213466
-4.917364	bellevue	-0.1917616
-4.917364	beloved	-0.2133715
-4.616333	below	-0.2570229
-4.917364	belts	-0.2134766
-4.917364	benacci	-0.2111167
-4.917364	bench	-0.2134608
-4.917364	benches	-0.2036746
-4.917364	benchmark	-0.2134766
-4.440242	beneficiaries	-0.2365479
-3.917364	benefit	-0.3115939
-4.917364	benefit.	-0.1899242
-3.741272	benefits	-0.2936524
-4.139213	benten	-0.2267027
-4.917364	berea	-0.1917616
-4.139213	berger	-0.1857349
-4.917364	berlin	-0.2134345
-4.917364	berman	-0.2036746
-4.616333	bernardino	-0.2648409
-4.917364	bershad	-0.2134766
-4.440242	bertasso	-0.2065504
-4.917364	bertasso.	-0.1958566
-4.917364	bertelsmann	-0.2134766
-4.616333	besides	-0.2570229
-4.917364	bessie	-0.2095982
-3.963121	best	-0.2226246
-4.917364	best-seller	-0.2134713
-4.917364	bet	-0.2109582
-4.440242	better	-0.2130614
-3.50239	between	-0.3603082
-4.072266	beverage	-0.2280484
-4.072266	beverages	-0.2005923
-4.917364	beverages.	-0.1899242
-4.315304	beyond	-0.1931731
-4.917364	bias	-0.2067052
-4.440242	bid	-0.2285473
-4.917364	bidder	-0.213445
-4.616333	bidders	-0.2075527
-4.917364	bidding	-0.2080583
-4.440242	bids	-0.2004333
-4.917364	bids.	-0.1899242
-4.616333	big	-0.210953
-4.440242	biggest	-0.213177
-4.139213	bill	-0.2328396
-4.917364	bill-of-materials	-0.2109582
-4.917364	biller	-0.2133557
-4.917364	billers	-0.2131718
-3.03655	billion	-0.6809089
-4.440242	billion.	-0.4775747
-4.616333	bills	-0.1941464
-4.917364	bindi	-0.1899242
-4.917364	binding	-0.2134766
-4.917364	biomatch	-0.2134766
-4.218394	biometrics	-0.2262034
-4.917364	birmingham	-0.1917616
-4.917364	bistros	-0.2036746
-4.917364	bit	-0.2134766
-4.440242	black	-0.2132874
-4.917364	blair	-0.2134766
-4.917364	blake	-0.1917616
-4.917364	blend	-0.2131613
-3.963121	blended	-0.3205988
-4.917364	blends	-0.2134293
-4.917364	blind.	-0.1899242
-4.440242	blinds	-0.2342103
-4.616333	block	-0.2072065
-4.917364	blocks	-0.2022052
-4.917364	blood	-0.2134766
-4.917364	blood-clotting	-0.2134766
-4.917364	bloomberg	-0.2130719
-4.917364	bloomsburg	-0.1917616
-4.917364	blu-ray	-0.2134766
-4.315304	blue	-0.1986051
-4.917364	blueprint	-0.2080583
-4.917364	bluetooth	-0.2134713
-4.917364	bnp	-0.2134766
-2.697256	board	-0.8731499
-4.917364	board.	-0.1899242
-4.917364	board.mr	-0.1944099
-4.315304	boards	-0.1744503
-4.917364	boards.	-0.1899242
-4.917364	bobcats	-0.2022052
-4.917364	boces	-0.2109582
-4.315304	boggs	-0.2049301
-4.917364	bom	-0.2109582
-3.686915	bon	-1.255183
-4.917364	bonds	-0.2134503
-4.315304	bonner	-0.4782322
-4.917364	bonus	-0.213424
-4.616333	book	-0.2124299
-4.917364	booking	-0.2134083
-4.616333	books	-0.1932832
-4.315304	boost	-0.2047639
-4.218394	booth	-0.3225607
-4.616333	booze	-0.2678715
-4.440242	borden	-0.501043
-4.616333	borders	-0.2740436
-4.917364	borough-wide	-0.2134766
-4.917364	boroughs	-0.1944099
-4.616333	borrowing	-0.2745904
-4.917364	borrowing.	-0.1899242
-4.440242	borrowings	-0.5008959
-3.771236	boston	-0.4643476
-4.917364	boston.com	-0.2036746
-3.486	both	-0.2440209
-4.917364	bottled	-0.2134608
-4.917364	bottles	-0.2049837
-4.616333	bouillon	-0.1814454
-4.917364	bouillons	-0.2036746
-4.917364	boulevard	-0.1917616
-4.917364	bowman	-0.2131402
-4.616333	boxes	-0.252928
-4.616333	bp	-0.1917561
-4.440242	bracciodieta	-0.2290808
-4.917364	brad	-0.2134766
-4.139213	bradley	-0.3277171
-4.917364	brainstorming	-0.2134345
-4.616333	branch	-0.2017629
-3.486	brand	-0.2822303
-4.218394	branded	-0.2079573
-3.595145	brands	-0.2078467
-4.917364	brands.	-0.1899242
-4.139213	brandt	-0.1949651
-4.315304	brauer	-0.2120822
-4.917364	bravo	-0.2109582
-3.838182	brazil	-0.3031471
-4.917364	brazil.	-0.1899242
-4.917364	brazilian	-0.2134293
-4.917364	breached	-0.2111537
-2.627329	bread	-0.9177482
-4.917364	bread.	-0.1899242
-3.963121	breads	-0.317081
-4.440242	breadstick	-0.1910321
-4.917364	break	-0.212293
-4.917364	breakdown	-0.2133452
-4.917364	breakfast	-0.1917616
-4.917364	breakfasts	-0.1917616
-4.917364	breaks	-0.213382
-4.139213	breakthrough	-0.3526252
-4.917364	breathtaking	-0.213424
-4.139213	brent	-0.3573521
-4.616333	brewer	-0.2133084
-4.917364	brews	-0.2134135
-4.917364	brewster	-0.2134713
-4.616333	brian	-0.2746271
-4.917364	brick	-0.2130193
-4.315304	bridgeford	-0.2342229
-4.917364	bridges	-0.1944099
-4.616333	brief	-0.2133557
-4.917364	briefing	-0.2124036
-4.917364	briggs	-0.2131402
-4.917364	bright	-0.2134713
-4.014274	bring	-0.2134114
-4.218394	bringing	-0.1925506
-4.014274	brings	-0.2795092
-4.616333	britain	-0.1814454
-4.616333	brl	-0.2586556
-4.315304	broad	-0.4092515
-3.838182	broadband	-0.1954994
-4.917364	broadcast	-0.2130351
-4.917364	broadcasters	-0.2036746
-4.917364	broadcasting	-0.2110375
-4.917364	broadcell	-0.2132086
-4.917364	broadcom	-0.1917616
-4.440242	broadway	-0.1917285
-4.616333	broker	-0.2132138
-4.917364	brokerage	-0.2036746
-4.616333	brokers	-0.1940859
-4.440242	bronner	-0.1886802
-4.315304	brooklyn	-0.1998926
-4.616333	brothers	-0.2739173
-4.917364	brothers.	-0.1899242
-4.315304	brought	-0.2711831
-4.315304	brovis	-0.2734119
-4.440242	brown	-0.2434698
-4.917364	browse	-0.1917616
-4.917364	browser	-0.2112118
-4.616333	bruce	-0.2134608
-4.616333	bruckmann	-0.252928
-4.917364	brunswick	-0.2036746
-4.440242	bssid	-0.2108948
-4.917364	bubbled	-0.2067052
-4.917364	bucharest	-0.1944099
-4.917364	bucket	-0.2134766
-4.917364	buddy	-0.2134555
-4.218394	budget	-0.2163796
-4.616333	budgeting	-0.252928
-4.917364	buds	-0.2112276
-4.616333	buffalo	-0.1917561
-3.595145	build	-0.3084695
-4.917364	build-to-order	-0.2134503
-4.315304	building	-0.1912035
-4.616333	buildings	-0.1944044
-4.917364	buildings.	-0.1899242
-4.917364	builds	-0.2112118
-4.014274	built	-0.3093027
-4.440242	built-in	-0.2526096
-4.917364	bujagali	-0.2132611
-4.616333	bulgaria	-0.1967419
-4.616333	bulgarian	-0.2133662
-4.917364	bulk	-0.2110586
-4.917364	bulky	-0.2129404
-4.014274	bulletin	-0.9533696
-4.917364	bulletins	-0.212098
-4.315304	bunch	-0.1990072
-4.917364	bundle	-0.2121191
-4.917364	bundled	-0.2132769
-4.440242	bundling	-0.2308601
-3.963121	bunge	-0.4409969
-4.616333	bunn	-0.18853
-4.917364	bunting	-0.1917616
-3.963121	bureau	-0.4135459
-4.917364	burgeoning	-0.212872
-4.917364	burke	-0.1917616
-4.917364	burleigh	-0.2134398
-4.917364	burn	-0.2134713
-4.616333	burning	-0.2742803
-4.440242	bursting	-0.2313963
-4.440242	bus	-0.2109107
-4.616333	bush	-0.2134135
-2.671851	business	-0.4763062
-4.917364	business-class	-0.213445
-4.917364	business-owner	-0.2133925
-4.917364	business-to-business	-0.2109582
-4.440242	business.	-0.4775747
-3.33758	businesses	-0.5934305
-4.218394	businesses.	-0.368678
-3.771236	but	-0.2076406
-4.315304	butler	-0.2182819
-4.917364	button	-0.2134398
-4.218394	buy	-0.2314324
-4.917364	buyback	-0.1944099
-3.349162	buyer	-1.773705
-4.440242	buyers	-0.2433408
-4.616333	buying	-0.2129772
-2.563255	by	-0.3467953
-4.917364	by-laws	-0.1944099
-4.917364	bylaws	-0.1917616
-4.917364	bypass	-0.2036746
-4.616333	byron	-0.2133505
-4.917364	c	-0.1917616
-3.595145	c.	-0.2808739
-4.616333	c.a	-0.2555762
-4.917364	c.p.a	-0.1944099
-4.440242	c.v	-0.4820604
-4.917364	c100	-0.2134398
-4.917364	ca8-1	-0.1917616
-4.917364	ca8-4	-0.1974892
-4.072266	cab	-0.1926771
-3.963121	cable	-0.2196634
-4.616333	cachafeiro	-0.252928
-4.917364	caching	-0.2036746
-4.917364	cadet	-0.2134766
-4.616333	caess	-0.1891082
-4.917364	caf	-0.2134713
-4.014274	cafe	-0.203828
-3.875971	cafes	-0.4241947
-4.917364	cafes.	-0.1899242
-4.917364	cafeterias	-0.2126668
-4.917364	caffeine	-0.2036746
-4.440242	calame	-0.2284972
-4.440242	calif	-0.4820604
-3.161489	california	-0.518977
-4.218394	california.	-0.6383178
-4.917364	california.health	-0.2111326
-4.917364	californians	-0.213382
-2.771236	call	-1.7676
-3.63861	called	-0.2583212
-4.917364	calling	-0.2080583
-3.373296	calls	-1.124673
-4.917364	calyon	-0.1917616
-4.917364	cambridge	-0.2134398
-4.616333	came	-0.2745431
-4.616333	cameras	-0.252928
-4.440242	campaign	-0.184831
-4.917364	campaigns	-0.2036746
-4.917364	campbell	-0.1917616
-4.917364	campus	-0.2067052
-4.616333	campuses	-0.252928
-3.50239	can	-0.3070368
-3.838182	canada	-0.2347132
-4.616333	canada.	-0.2510906
-4.315304	canadian	-0.2124615
-4.616333	canal	-0.1914523
-4.917364	candidates	-0.212098
-4.616333	canned	-0.2134661
-4.917364	cans	-0.2036746
-4.616333	canter	-0.252928
-4.616333	canton	-0.1798988
-3.771236	capabilities	-0.2586661
-4.917364	capabilities.	-0.1899242
-3.963121	capability	-0.2504569
-4.315304	capable	-0.4670345
-3.771236	capacity	-0.3456019
-4.616333	capcom	-0.2744538
-3.454966	capital	-0.2899264
-4.917364	capital.	-0.1899242
-4.917364	capture	-0.1958566
-4.917364	captures	-0.1958566
-4.616333	car	-0.2134398
-4.917364	caracas	-0.2036746
-4.616333	carafe	-0.212651
-4.616333	carb	-0.2134293
-3.80342	carbs	-0.7398939
-3.30458	card	-0.3311991
-4.917364	cardinal	-0.2134083
-4.917364	cardmembers	-0.2112276
-4.014274	cards	-0.1791776
-3.555636	care	-0.2425594
-4.014274	career	-0.1906741
-4.917364	cares/equity	-0.2134766
-4.440242	carley	-0.1786541
-4.218394	carlyle	-0.3886335
-4.616333	carolina	-0.1716887
-4.917364	carolina-based	-0.2134713
-4.616333	carolyn	-0.2746324
-4.917364	carr	-0.2134608
-4.917364	carrier	-0.2134713
-4.917364	carriers	-0.2036746
-4.616333	carries	-0.2132349
-4.440242	carry-out	-0.1883519
-4.917364	carrying	-0.2134398
-4.917364	cars	-0.1917616
-4.616333	carter	-0.2095717
-4.014274	case	-0.1566984
-4.440242	cases	-0.1910597
-4.917364	cases.	-0.1899242
-4.917364	casey	-0.213445
-3.18497	cash	-0.6425555
-4.917364	cash..	-0.2127721
-4.616333	cashing	-0.2080424
-4.917364	castano	-0.1917616
-4.917364	catalan	-0.2133662
-4.440242	catch	-0.2212514
-4.014274	categories	-0.2106528
-4.917364	categories.	-0.1899242
-4.440242	category	-0.2334797
-4.917364	catelli	-0.2109582
-4.917364	catering	-0.2036746
-4.917364	cathy	-0.2132559
-4.616333	cauley	-0.2746376
-4.917364	cause	-0.2022052
-4.917364	causes.	-0.1899242
-4.917364	cbc	-0.2109582
-4.616333	cd	-0.2746376
-4.616333	cdma	-0.2130456
-4.917364	cdma2000	-0.2109582
-4.917364	ce	-0.2109582
-4.917364	celebrate	-0.2111537
-4.917364	celebrated	-0.1958566
-4.917364	celebrates	-0.2134713
-4.917364	cell	-0.2134503
-4.917364	cellnet	-0.2133557
-4.315304	cellular	-0.212893
-4.616333	cellular/wi-fi	-0.2743749
-4.917364	cellular/wireless	-0.2133189
-3.917364	cent	-1.04133
-3.209794	center	-0.3335427
-4.917364	centered	-0.2112118
-4.014274	centers	-0.1690501
-3.741272	central	-0.2109204
-4.616333	central-southern	-0.2746376
-4.917364	centre	-0.1944099
-3.30458	cents	-1.017941
-4.917364	century	-0.2022052
-3.349162	ceo	-0.5646605
-4.917364	ceo-elect	-0.1917616
-4.616333	ceo.	-0.2510906
-3.574941	certain	-0.2926027
-4.014274	certification	-0.3728032
-4.315304	certified	-0.2047747
-4.315304	ces	-0.3878156
-4.917364	cez	-0.2134766
-4.315304	cfo	-0.1913472
-4.917364	chai	-0.1944099
-4.014274	chain	-0.1744446
-4.917364	chain.	-0.1899242
-4.917364	chains.	-0.1899242
-4.917364	chair	-0.2120611
-3.193088	chairman	-1.035623
-4.917364	chairman.	-0.1899242
-4.616333	challenge	-0.2037713
-4.917364	challenged	-0.1958566
-4.616333	challenges	-0.2066518
-4.315304	challenging	-0.1981156
-3.771236	change	-0.6153625
-4.315304	changed	-0.4759829
-3.519424	changes	-0.6187359
-4.917364	changes.	-0.1899242
-4.616333	changing	-0.2745011
-3.236122	channel	-0.4238921
-4.917364	channel.	-0.1899242
-4.139213	channels	-0.2104459
-4.616333	chapter	-0.1904563
-4.616333	characteristics	-0.21334
-4.917364	charde	-0.1917616
-4.014274	charge	-0.5551193
-4.917364	charge-backs	-0.1917616
-4.139213	charged	-0.7992044
-4.917364	chargeoffs	-0.2134713
-4.218394	charges	-0.2465794
-4.218394	charles	-0.2367569
-4.440242	charleston	-0.2314737
-4.440242	charlotte	-0.2532668
-4.218394	chase	-0.6615338
-4.917364	chattanooga	-0.2120559
-4.014274	check	-0.2827447
-4.917364	check-cashing	-0.2129457
-4.917364	checkfree	-0.2128615
-4.917364	checking	-0.2130193
-4.440242	checks	-0.2013472
-4.917364	cheese	-0.2134608
-4.917364	chef	-0.2036746
-4.917364	chest	-0.2110586
-4.917364	chevy	-0.2095982
-4.616333	chicago	-0.2035349
-4.917364	chicago.	-0.1899242
-2.707849	chief	-0.8045655
-4.917364	chief.	-0.1899242
-4.072266	children	-0.7308592
-4.014274	chile	-0.5526512
-4.917364	chilean	-0.2110375
-4.917364	chill	-0.2134766
-3.838182	china	-0.2325032
-4.440242	chinese	-0.2531039
-4.616333	chinese-language	-0.2746166
-3.713244	chip	-0.2886283
-4.218394	chips	-0.1890749
-3.385885	chipset	-0.2789695
-3.662091	chipsets	-0.3782132
-4.616333	chira	-0.1886913
-4.917364	chita	-0.2134713
-4.440242	chocolate	-0.2434537
-4.440242	choice	-0.2410018
-4.616333	choicedek	-0.2109054
-4.917364	choices	-0.2049837
-4.315304	chosen	-0.2184598
-4.616333	chris	-0.2746271
-4.917364	christine	-0.2134713
-4.917364	christmas	-0.1944099
-4.315304	christopher	-0.4093198
-4.616333	chrome	-0.2134713
-4.917364	chunk	-0.2133767
-4.917364	cigarette	-0.2134766
-4.616333	cigna	-0.2745904
-4.616333	cincinnati	-0.1913086
-4.917364	cindy	-0.213361
-4.616333	cio	-0.1917727
-4.917364	circuit	-0.1917616
-4.917364	circular	-0.2134713
-4.917364	circulation	-0.2127457
-4.917364	cisco	-0.1917616
-4.616333	cited	-0.2131192
-4.616333	citi	-0.2707645
-4.139213	cities	-0.2416013
-4.616333	citigroup	-0.252928
-4.917364	citing	-0.2128247
-4.917364	citizens	-0.2132559
-4.917364	citrus.	-0.1899242
-3.616334	city	-0.193371
-4.917364	city.	-0.1899242
-4.917364	civilian	-0.213466
-4.917364	civilians.	-0.1899242
-4.315304	cl	-0.4737006
-4.917364	claim	-0.212372
-4.616333	claimed	-0.2133084
-4.917364	claiming	-0.1958566
-3.741272	claims	-0.2386769
-4.616333	clara	-0.1916788
-4.440242	clark	-0.2530566
-3.20136	class	-0.8373845
-4.917364	class-	-0.213361
-4.218394	class-action	-0.2614173
-4.616333	classes	-0.2057597
-4.917364	classic	-0.2134766
-4.917364	classical	-0.2134083
-4.917364	classico	-0.2109582
-4.917364	classics	-0.2134766
-4.440242	classified	-0.2134398
-4.917364	classroom.	-0.1899242
-4.616333	clearances	-0.2648409
-4.917364	clearing	-0.2134608
-4.616333	cleary	-0.252928
-3.686915	cleveland	-0.285699
-4.917364	cleveland-	-0.2131981
-3.875971	cleveland-based	-1.254023
-4.917364	cleveland.	-0.1899242
-4.440242	clever	-0.2532615
-4.139213	client	-0.2032177
-3.838182	clients	-0.2050795
-4.917364	clients.	-0.1899242
-4.917364	climates	-0.2126668
-4.218394	climbing	-0.4102654
-4.616333	clines	-0.1828231
-4.218394	clinical	-0.2615171
-4.616333	clinton	-0.2133242
-4.315304	clips	-0.3863496
-3.30458	close	-1.028398
-3.454966	closed	-0.6563762
-4.440242	closely	-0.4988781
-4.616333	closer	-0.26615
-4.440242	closes	-0.2507166
-4.917364	closet	-0.1917616
-3.741272	closing	-0.3822949
-4.616333	closings	-0.2715747
-4.917364	clots	-0.2067052
-4.917364	clues	-0.1917616
-4.917364	clustering	-0.2134188
-4.315304	cme	-0.4781639
-4.218394	cmos	-0.4082036
-4.616333	cms	-0.205503
-4.917364	cn1220	-0.2036746
-4.917364	cn1250	-0.2133767
-4.616333	cncbb	-0.2070519
-4.616333	cnn	-0.2111009
-2.515963	co	-2.26985
-4.917364	co-branded	-0.2134503
-4.917364	co-development	-0.2128089
-4.616333	co-founder	-0.192137
-4.917364	co-founding	-0.2022052
-4.917364	co-head	-0.2022052
-4.917364	co-marketing	-0.2128089
-4.917364	co-operatives	-0.2049837
-4.917364	co-own	-0.2036746
-3.283895	co.	-1.621732
-4.917364	co.-cafe	-0.1917616
-4.014274	co..	-0.2576942
-4.917364	co.announced	-0.1958566
-4.917364	coal	-0.2134766
-4.917364	coal-fired	-0.2132611
-4.917364	coalition	-0.2080583
-4.139213	coast	-0.1762741
-4.917364	coast.	-0.1899242
-4.917364	coat	-0.2022052
-4.917364	coates	-0.1917616
-4.616333	cobo	-0.1814454
-4.917364	coca-cola	-0.2134608
-4.917364	coconino	-0.1917616
-4.917364	code.	-0.1899242
-4.616333	codes	-0.2079254
-2.852906	coffee	-0.4651441
-4.917364	coffee-related	-0.2133767
-4.616333	coffeehouse	-0.2065504
-4.616333	coffeehouses	-0.1942727
-4.917364	coffeemaker	-0.1917616
-4.218394	cohen	-0.3860741
-4.917364	cohesive	-0.2134766
-4.616333	cohn	-0.252928
-4.917364	coil	-0.1917616
-4.616333	cold	-0.1911206
-4.917364	coldwatt	-0.2128983
-4.218394	coleman	-0.2010391
-4.917364	colin	-0.2134713
-4.440242	collaborate	-0.2003575
-4.616333	collaborated	-0.2723781
-4.917364	collaborating	-0.2112276
-4.072266	collaboration	-0.3377914
-4.917364	collecting	-0.213466
-3.917364	collection	-0.2219359
-4.440242	collections	-0.1911316
-4.917364	collects	-0.2133347
-4.917364	colleen	-0.2133978
-4.616333	college	-0.2134713
-4.440242	collins	-0.4794121
-4.917364	colombia	-0.1917616
-4.917364	colombo	-0.1917616
-4.315304	color	-0.2049408
-4.014274	colorado	-0.2856887
-4.917364	colorado.	-0.1899242
-3.963121	colors	-0.1841163
-4.917364	colour	-0.2134555
-4.917364	coloured	-0.2134766
-4.917364	colours	-0.2110586
-4.139213	colubris	-0.5466415
-3.80342	columbia	-0.3891908
-4.917364	columbiana	-0.2134766
-4.616333	columbus	-0.2036477
-4.315304	column	-0.2376241
-4.072266	columnist	-0.2705422
-4.917364	columnist.	-0.1899242
-4.917364	com	-0.1899242
-4.917364	comb	-0.213424
-4.917364	combination	-0.2022052
-4.440242	combine	-0.2528305
-4.072266	combined	-0.3440242
-4.315304	combines	-0.1897523
-4.315304	combining	-0.2164542
-4.917364	comcast	-0.2134345
-4.139213	come	-0.3233277
-4.315304	comerica	-0.2394339
-4.139213	comes	-0.2362858
-4.315304	comexo	-0.478227
-4.917364	comfortably	-0.1917616
-4.917364	comics	-0.2129667
-4.139213	coming	-0.2158777
-4.917364	comm	-0.2127615
-4.917364	command	-0.2134188
-4.440242	commenced	-0.246383
-4.917364	commentaries	-0.2067052
-4.616333	commentary	-0.1903068
-4.616333	comments	-0.2732644
-4.218394	commerce	-0.4106965
-3.470206	commercial	-0.2312851
-4.917364	commercialize	-0.2133978
-4.917364	commercially	-0.2133137
-4.072266	commission	-0.1688336
-4.616333	commissioned	-0.2122614
-4.917364	commissioner	-0.2022052
-4.014274	commitment	-0.5497705
-4.218394	commitments	-0.3352986
-4.616333	committed	-0.26615
-4.072266	committee	-0.3013144
-4.917364	committee.	-0.1899242
-4.440242	committees	-0.2414987
-4.917364	commodity-focused	-0.2133084
-3.019737	common	-1.215485
-4.917364	commonwealth	-0.2022052
-4.917364	communicate	-0.2112276
-4.139213	communication	-0.2063494
-2.375784	communications	-0.931415
-4.616333	communications.	-0.2510906
-4.014274	communities	-0.2937809
-4.917364	communities.	-0.1899242
-3.771236	community	-0.2556449
-4.917364	community.	-0.1899242
-4.917364	commute	-0.1917616
-4.917364	compact	-0.2036746
-4.616333	compamerica	-0.252928
-4.917364	compania	-0.2134188
-2.744177	companies	-0.873036
-4.616333	companies.	-0.2510906
-2.250846	company	-0.667828
-3.616334	company-operated	-1.32162
-4.218394	company-owned	-0.2026686
-4.917364	company-wide	-0.2134608
-4.440242	company.	-0.4775747
-4.917364	companyowned	-0.2128562
-2.982865	comparable	-1.512827
-3.118023	compared	-2.002025
-4.616333	comparison	-0.2744485
-4.616333	comparisons	-0.201914
-4.917364	compatibility	-0.2080583
-4.616333	compatible	-0.272394
-4.616333	compensation	-0.2133452
-4.440242	compensatory	-0.5010798
-4.616333	competing	-0.2130719
-4.917364	competition	-0.2112276
-4.917364	competition.	-0.1899242
-4.139213	competitive	-0.2031531
-4.917364	compilations	-0.212098
-4.917364	compiles	-0.1958566
-4.014274	complaint	-0.4424629
-4.440242	complement	-0.1916788
-4.917364	complementary	-0.2134766
-4.616333	complements	-0.1941134
-4.072266	complete	-0.2115625
-3.616334	completed	-0.5391095
-4.917364	completed.	-0.1899242
-4.315304	completely	-0.2132401
-4.917364	completeness	-0.2022052
-4.218394	completes	-0.2162859
-4.014274	completion	-0.9429659
-4.616333	complex	-0.2043994
-4.917364	complexity	-0.2067052
-4.014274	compliance	-0.2221075
-4.440242	compliant	-0.2503095
-4.917364	complication	-0.2134293
-4.917364	complications	-0.2022052
-4.917364	component	-0.2104084
-4.218394	components	-0.2007742
-4.616333	composed	-0.2021998
-4.616333	composite	-0.2021891
-4.440242	comprehensive	-0.2131508
-4.440242	compression	-0.4794121
-4.218394	comprised	-0.6505988
-4.917364	comprises	-0.1974892
-4.917364	comprising	-0.2132243
-4.917364	compromising	-0.2132296
-4.014274	computer	-0.2426264
-4.917364	computerized	-0.2134766
-4.440242	computers	-0.1903179
-4.917364	computex	-0.1917616
-4.440242	computing	-0.2105565
-4.917364	concentrate	-0.2112118
-4.917364	concentrations	-0.2067052
-4.440242	concept	-0.2319429
-4.917364	concept.	-0.1899242
-4.616333	concepts	-0.2715747
-4.072266	concerning	-0.2256638
-4.315304	concurrent	-0.2125036
-4.616333	concurrently	-0.2555762
-4.917364	condiment	-0.2067052
-4.014274	condiments	-0.4319454
-4.917364	condiments.consumers	-0.2104084
-4.139213	condition	-0.3071613
-3.686915	conditions	-0.5552756
-4.616333	conditions.	-0.2510906
-4.440242	conduct	-0.2508329
-4.440242	conducted	-0.4999435
-4.218394	conducting	-0.357856
-4.917364	conducts	-0.2088714
-4.917364	conexant	-0.1917616
-4.917364	coney	-0.2134766
-3.139212	conference	-1.411869
-4.917364	conferencing	-0.2134713
-4.917364	confident	-0.2133925
-4.440242	configuration	-0.2477739
-4.616333	configurations	-0.1893915
-4.917364	configure	-0.2105618
-4.616333	configured	-0.2111959
-4.440242	confirmed	-0.2131087
-4.917364	confirming	-0.2122877
-4.616333	confirms	-0.204764
-4.917364	congenital	-0.2134766
-4.072266	conjunction	-0.7324887
-4.917364	conn.-based	-0.213466
-4.218394	connect	-0.2246607
-4.616333	connected	-0.2044315
-3.963121	connecticut	-0.4788765
-4.917364	connecting	-0.2134293
-4.072266	connection	-0.3052249
-4.616333	connections	-0.2066945
-3.838182	connectivity	-0.2941758
-4.917364	connects	-0.213014
-4.917364	connecture	-0.2095982
-4.917364	connemara	-0.2133294
-4.917364	connolly	-0.2036746
-4.917364	conscious	-0.2133873
-4.440242	consecutive	-0.2527674
-4.917364	consensus	-0.1917616
-4.917364	consent	-0.2126668
-4.616333	consents	-0.2009851
-4.917364	conservation	-0.2134766
-3.963121	consider	-0.372702
-4.440242	consideration	-0.2332872
-4.917364	considered	-0.213466
-4.315304	considering	-0.2085634
-4.616333	considers	-0.2745484
-4.440242	consistent	-0.2510072
-4.917364	consistently	-0.2134188
-4.917364	console	-0.2134713
-4.917364	consoles	-0.1944099
-2.868146	consolidated	-1.373495
-4.616333	consolidating	-0.2111273
-4.917364	consolidation	-0.2134188
-4.440242	consortium	-0.2507589
-4.917364	consortium.	-0.1899242
-4.917364	constituted	-0.213466
-4.917364	constitutes	-0.2122877
-4.917364	constraints	-0.2133032
-4.315304	construct	-0.2102281
-3.838182	construction	-0.4119534
-4.917364	consu	-0.1899242
-4.917364	consult	-0.2112118
-4.616333	consultant	-0.1967419
-4.917364	consultation	-0.2112276
-4.616333	consulting	-0.213382
-4.917364	consume	-0.2134766
-3.254606	consumer	-0.5307218
-3.662091	consumers	-0.2152723
-4.315304	consummation	-0.4670345
-4.917364	consumption	-0.1917616
-4.917364	contact	-0.1944099
-4.917364	contained	-0.2067052
-4.917364	contemporary	-0.2134766
-4.917364	conten	-0.1899242
-4.917364	contending	-0.2110586
-3.412214	content	-0.2786237
-4.917364	contextual	-0.2134555
-4.917364	contiguous	-0.2112276
-4.917364	contingent	-0.213424
-3.39885	continue	-0.8674359
-4.315304	continued	-0.2131718
-3.838182	continues	-0.8433374
-4.616333	continuing	-0.26615
-4.440242	continuous	-0.2531459
-4.917364	continuously	-0.213361
-3.616334	contract	-0.2484289
-4.616333	contracted	-0.272394
-4.440242	contracting	-0.1814341
-4.616333	contractor	-0.2746376
-4.616333	contractors	-0.1860582
-3.80342	contracts	-0.3115259
-4.616333	contractual	-0.2134713
-4.139213	contrasting	-0.359707
-4.917364	contributes	-0.2049837
-4.917364	contribution	-0.212098
-3.963121	control	-0.1751954
-3.713244	controller	-0.5534492
-4.616333	controller.	-0.2510906
-4.917364	controls	-0.2022052
-4.917364	controversy	-0.2134135
-3.80342	convenience	-0.2596066
-4.917364	conveniently	-0.2112276
-4.917364	convention	-0.2134398
-4.917364	conventional	-0.2134766
-4.917364	converging	-0.2134503
-4.072266	conversion	-0.2287605
-4.616333	convert	-0.2065184
-4.917364	converted	-0.2131087
-4.917364	conveyor	-0.2134766
-4.218394	coo	-0.1890923
-4.616333	cooking	-0.272394
-4.917364	coon	-0.2134766
-4.917364	cooperate	-0.2049837
-4.917364	cooperation	-0.2112276
-4.917364	cooperative	-0.213445
-4.917364	coordinate	-0.2122877
-4.616333	coordinating	-0.2036585
-4.917364	coordination.	-0.1899242
-4.917364	coordinator	-0.2131718
-4.917364	coos	-0.2104084
-4.440242	copeland	-0.207771
-4.917364	copied	-0.212098
-4.440242	cora	-0.5011166
-4.616333	cordless	-0.1974784
-4.072266	core	-0.2271357
-4.440242	corner	-0.2420058
-4.616333	corona	-0.2648409
-2.777485	corp	-2.010492
-3.963121	corp.	-0.5362965
-4.616333	corp..	-0.2126458
-3.18497	corporate	-0.3195409
-2.845482	corporation	-0.5820239
-4.917364	corporation.	-0.1899242
-4.917364	corporation..	-0.2127721
-4.218394	corporations	-0.2091028
-4.218394	correspondent	-0.2365875
-4.917364	corrupt	-0.2134503
-4.440242	cos	-0.4820604
-3.771236	cost	-0.363236
-4.616333	cost-effective	-0.1914744
-4.917364	cost.	-0.1899242
-4.616333	costa	-0.2746376
-4.917364	costly	-0.2134766
-3.875971	costs	-0.2972333
-4.917364	costs.	-0.1899242
-4.139213	could	-0.2116446
-4.917364	council	-0.1917616
-3.80342	counsel	-0.2948961
-4.917364	counsel.	-0.1899242
-4.917364	counterclaims	-0.2067052
-3.741272	counties	-0.2789046
-4.917364	counties.	-0.1899242
-4.218394	countries	-0.212446
-3.771236	country	-0.2121265
-3.662091	county	-0.41234
-4.917364	county.	-0.1899242
-4.917364	couple	-0.1917616
-4.917364	courses	-0.2067052
-3.595145	court	-0.3487148
-4.616333	covenants	-0.252928
-4.440242	cover	-0.1958402
-3.713244	coverage	-0.3265185
-4.315304	covered	-0.273275
-4.917364	covering	-0.2134135
-4.917364	covers	-0.1958566
-4.917364	cox	-0.2134503
-4.139213	coyne	-0.1745365
-4.616333	cpa	-0.252928
-4.218394	craig	-0.26168
-4.917364	craiova	-0.2127773
-4.616333	cramer-krasselt	-0.26615
-4.917364	cranium	-0.1917616
-4.616333	crave	-0.2745273
-4.218394	craver	-0.2295511
-4.917364	cream	-0.1944099
-3.771236	create	-0.3756482
-3.616334	created	-0.6279508
-4.917364	creates	-0.2036746
-4.014274	creating	-0.2916523
-4.218394	creation	-0.6505988
-4.440242	creative	-0.2028733
-3.091289	credit	-0.6790045
-4.616333	credit.	-0.2510906
-4.917364	crediting	-0.2036746
-4.917364	creek	-0.2134293
-4.616333	creme	-0.1915794
-4.616333	cristian	-0.2745326
-4.917364	criteria	-0.213445
-4.616333	critical	-0.2133925
-4.440242	croom	-0.2416552
-4.917364	croom.	-0.1899242
-4.917364	crop	-0.2022052
-4.917364	cross-selling	-0.2134083
-4.917364	crossing	-0.2134503
-4.616333	crotty	-0.2110639
-4.917364	crown	-0.2131139
-4.917364	cruz	-0.2036746
-4.315304	crynes	-0.2360309
-4.917364	csr	-0.213382
-4.917364	csuhran	-0.2111167
-4.440242	ct	-0.2341445
-4.917364	ctam	-0.2109582
-4.616333	ctl	-0.210916
-4.917364	cub	-0.2134766
-4.616333	cucamonga	-0.2678715
-4.616333	culinary	-0.2134398
-4.616333	cultural	-0.2133347
-3.838182	culture	-0.3945974
-4.917364	culture.	-0.1899242
-4.917364	cultures.	-0.1899242
-4.917364	cum	-0.2134766
-3.875971	cumulative	-1.07905
-4.315304	cunningham	-0.2050372
-4.917364	cuppers	-0.2036746
-4.440242	curiel	-0.2226291
-3.771236	current	-0.2147633
-3.595145	currently	-0.2898943
-4.917364	custom	-0.2134398
-4.315304	customary	-0.27448
-3.63861	customer	-0.4221095
-4.917364	customer-focused	-0.213424
-3.124972	customers	-0.4778509
-4.616333	customers.	-0.2510906
-4.917364	customizable	-0.213466
-4.616333	customized	-0.2132611
-4.014274	cut	-0.2254459
-4.616333	cuts	-0.2741436
-4.917364	cycles	-0.2067052
-4.917364	cyclic	-0.2134766
-4.917364	cynthia	-0.213361
-4.917364	cytodyne	-0.2133978
-4.440242	czech	-0.2528252
-4.616333	d	-0.1899187
-4.139213	d'sa	-0.2200914
-4.616333	d-cubic	-0.252928
-4.917364	d-link	-0.1917616
-4.218394	d.	-0.2368357
-4.917364	d.c	-0.1944099
-4.616333	d.c.	-0.252928
-4.917364	da	-0.212872
-4.315304	daily	-0.2132085
-4.917364	dakota.	-0.1899242
-4.616333	dale	-0.2745378
-3.838182	dallas	-0.4534574
-4.917364	dallas-based	-0.2133925
-4.440242	dallas-ft	-0.4820604
-3.917364	damages	-0.2217548
-4.917364	damages.	-0.1899242
-4.440242	damron	-0.2212514
-4.616333	dan	-0.2746271
-4.917364	dangar	-0.1917616
-4.315304	daniel	-0.4094985
-4.917364	danone	-0.2109582
-3.875971	darman	-0.2539731
-4.917364	dashboard	-0.2049837
-3.537153	data	-0.2652025
-4.917364	data-	-0.2036746
-4.440242	database	-0.1921149
-3.616334	date	-0.4627257
-4.218394	date.	-0.6383178
-4.315304	dated	-0.2741909
-4.917364	dating	-0.2134608
-4.440242	dave	-0.2134556
-3.686915	david	-0.3062417
-4.616333	davis	-0.2744222
-3.838182	day	-0.1843448
-4.315304	day-to-day	-0.2424897
-4.440242	daylight	-0.4820604
-4.917364	daylight.	-0.1899242
-4.917364	days	-0.2133294
-4.917364	dayton	-0.2134766
-4.917364	db	-0.213466
-4.440242	dci	-0.2041901
-3.838182	de	-0.2668284
-4.616333	dead	-0.2132506
-4.440242	deadliest	-0.5011166
-4.139213	deadline	-0.3254113
-4.917364	deadlines	-0.2080583
-3.454966	deal	-0.4046736
-4.917364	deal.	-0.1899242
-4.917364	dealer	-0.2134713
-4.917364	dealers	-0.2129825
-4.917364	dealings	-0.2112276
-4.315304	deals	-0.1973966
-4.440242	dean	-0.1995229
-4.917364	death	-0.2022052
-4.917364	debevoise	-0.2131402
-4.440242	debit	-0.5009169
-4.917364	debiting	-0.2134713
-3.80342	debt	-0.311891
-4.917364	debt.	-0.1899242
-4.218394	debut	-0.1927325
-4.440242	debuts	-0.2088077
-4.218394	dec	-0.6428034
-4.917364	decade	-0.2112276
-3.09782	december	-1.533366
-4.616333	decided	-0.2025124
-4.917364	decision	-0.2049837
-4.917364	decision.	-0.1899242
-4.440242	deck	-0.212077
-3.264151	declared	-1.068837
-3.486	declares	-0.9355916
-4.315304	decline	-0.2564153
-4.917364	declining	-0.2130508
-4.917364	decorating	-0.2130456
-4.917364	decrease	-0.2067052
-4.440242	decreased	-0.4851397
-4.917364	dedicate	-0.2134608
-3.963121	dedicated	-0.2810217
-4.917364	dedication	-0.2036746
-4.917364	deep	-0.1917616
-4.917364	deepening	-0.2129562
-4.616333	deer	-0.213424
-4.917364	defandants	-0.1917616
-4.917364	defaults	-0.2036746
-4.917364	defendant	-0.2095982
-3.917364	defendants	-0.2719042
-4.440242	defense	-0.2049462
-4.917364	deferred	-0.2131297
-4.917364	deficiency	-0.1944099
-4.917364	define	-0.2036746
-4.315304	defined	-0.2062193
-3.574941	definitive	-1.315294
-4.616333	degree	-0.2052996
-4.917364	degrees	-0.212098
-4.440242	del	-0.253272
-4.616333	delaware	-0.252928
-4.917364	delay	-0.2134555
-4.315304	delayed	-0.2425738
-4.917364	delek	-0.2128773
-4.616333	deleted	-0.2570229
-4.917364	deliberate	-0.1944099
-4.917364	delicious	-0.2134766
-4.917364	delightful	-0.2134766
-4.917364	delights	-0.2022052
-3.537153	deliver	-0.2452327
-4.616333	delivered	-0.2066732
-4.072266	delivering	-0.2080137
-3.963121	delivers	-0.195446
-3.838182	delivery	-0.2801193
-4.917364	dell	-0.1917616
-4.315304	deloitte	-0.2328163
-4.917364	delta	-0.213466
-4.616333	deluca	-0.190146
-4.218394	demand	-0.2210251
-4.616333	demands	-0.2633716
-4.917364	demetris	-0.2134766
-4.917364	demo	-0.213466
-4.917364	democrat	-0.1917616
-4.917364	demographic	-0.2022052
-4.072266	demonstrated	-0.202243
-4.917364	demonstrates	-0.2134503
-4.616333	demonstrating	-0.2111167
-4.917364	demonstration	-0.2022052
-4.917364	denied	-0.1958566
-4.616333	denies	-0.2130035
-4.917364	denise	-0.213466
-4.917364	denmark	-0.1917616
-4.315304	dennis	-0.4094564
-4.917364	denominator	-0.2022052
-3.519424	dental	-0.8259969
-4.139213	denver	-0.2308601
-3.63861	department	-0.6104704
-4.616333	departments	-0.2120348
-4.440242	departure	-0.2405909
-4.315304	depending	-0.476041
-4.917364	depicting	-0.1958566
-4.315304	deploy	-0.2115232
-4.616333	deployed	-0.1846346
-4.440242	deploying	-0.2355969
-4.440242	deployment	-0.4898557
-4.440242	deposit	-0.2525938
-4.917364	deposits	-0.1917616
-4.139213	depot	-0.3112326
-4.917364	depots	-0.2036746
-4.917364	depreciation	-0.2036746
-3.555636	deputy	-0.3352161
-4.616333	der	-0.2745536
-4.917364	deregister	-0.2111537
-4.616333	described	-0.1928152
-4.917364	descriptions	-0.2134713
-3.50239	design	-0.2371716
-4.616333	design.	-0.2510906
-4.917364	designate	-0.212372
-4.315304	designated	-0.1945196
-3.662091	designed	-0.7092376
-4.917364	designer	-0.2134345
-4.917364	designers	-0.212098
-4.917364	designing	-0.2088714
-3.713244	designs	-0.2098192
-4.616333	desires	-0.1855263
-4.616333	desk	-0.1873265
-3.917364	desktop	-0.2989975
-4.917364	despite	-0.1958566
-4.917364	dessert	-0.2080583
-4.440242	destination	-0.1885634
-4.917364	destination-focused	-0.2133978
-4.917364	destined	-0.2080583
-4.917364	detailed	-0.2134608
-4.616333	details	-0.1826201
-4.616333	determine	-0.2132454
-4.917364	determined	-0.1944099
-4.917364	detroit	-0.2110375
-4.616333	deusem	-0.1917727
-4.616333	deutsche	-0.2130298
-3.385885	develop	-0.4252053
-4.072266	developed	-0.2303053
-4.315304	developer	-0.3942619
-4.917364	developers	-0.2067052
-4.072266	developing	-0.196294
-3.132034	development	-0.5476282
-4.917364	development.	-0.1899242
-4.917364	developments	-0.2067052
-4.315304	device	-0.2183097
-4.917364	device.	-0.1899242
-3.80342	devices	-0.2648215
-4.616333	devices.	-0.2510906
-4.616333	devote	-0.2745273
-4.315304	dhc	-0.4067051
-4.616333	dhs	-0.2721246
-4.917364	diagnosed	-0.1899242
-4.616333	dick	-0.2746219
-4.917364	dictate	-0.2088714
-4.917364	did	-0.2132506
-4.315304	diego	-0.2210866
-4.917364	differ	-0.2133925
-4.616333	different	-0.2134503
-4.616333	difficult	-0.2130193
-4.917364	diffie-hellman	-0.2129562
-3.169176	digital	-0.4808719
-4.917364	digits	-0.1917616
-4.072266	diluted	-0.4866562
-4.917364	dilutive	-0.2049837
-4.917364	dinghao	-0.2128562
-4.315304	dining	-0.242495
-3.80342	direct	-0.2002861
-4.917364	directing	-0.211159
-4.616333	direction	-0.192137
-3.875971	directly	-0.9449123
-3.014274	director	-0.9962372
-2.860459	directors	-0.6836879
-4.917364	directors.	-0.1899242
-4.616333	dirty	-0.2745588
-4.139213	disa.d	-0.798935
-4.917364	disad	-0.1944099
-4.917364	disad.	-0.1899242
-4.917364	disappointed	-0.2067052
-4.917364	disc	-0.1944099
-3.917364	disc.a	-1.209566
-4.616333	disciplinary	-0.2745273
-4.917364	disciplines	-0.2067052
-4.218394	disclose	-0.2166218
-3.875971	disclosed	-0.9120283
-4.218394	disclosed.	-0.6383178
-4.917364	disclosure	-0.2129667
-4.616333	discontinued	-0.191292
-4.917364	discount	-0.2134608
-4.917364	discover	-0.1917616
-2.486	discovery	-1.019803
-4.917364	discovery.baidu.com	-0.1917616
-4.440242	discrete	-0.501106
-4.616333	discrimination	-0.2133557
-4.315304	discuss	-0.2219366
-4.917364	discussions	-0.2112276
-4.440242	disease	-0.5006435
-4.917364	dismiss	-0.2134713
-4.917364	dismissal	-0.2022052
-4.917364	disorder	-0.2134766
-4.917364	dispatch	-0.1917616
-4.917364	dispenser.mirroring	-0.2134555
-4.917364	display	-0.2134135
-4.917364	displayed	-0.2121191
-4.616333	displaying	-0.211122
-4.917364	disposal	-0.2022052
-4.616333	disputes	-0.1944044
-4.917364	dissolving	-0.2111537
-4.917364	distance	-0.2022052
-4.917364	distance.	-0.1899242
-4.616333	distances	-0.2018547
-4.917364	distilled	-0.2134766
-4.917364	distinguish	-0.2132191
-3.963121	distribuidora	-0.5540428
-4.440242	distribute	-0.2532037
-4.917364	distributed	-0.213382
-4.440242	distributes	-0.2117184
-4.917364	distributing	-0.2134608
-3.146512	distribution	-0.3832908
-4.917364	distribution/communications	-0.2133452
-4.616333	distributor	-0.1798988
-4.917364	distributor.	-0.1899242
-4.917364	distributors	-0.2134608
-3.486	district	-0.7556915
-4.917364	districts	-0.2036746
-4.440242	diverse	-0.1886635
-4.218394	diversity	-0.1805113
-4.315304	divest	-0.1938991
-4.616333	divestiture	-0.2633716
-4.616333	divestitures	-0.1798988
-2.944236	dividend	-0.9467222
-4.917364	dividend.	-0.1899242
-4.014274	dividends	-0.558278
-3.454966	division	-0.8411106
-4.917364	division.	-0.1899242
-4.616333	divisional	-0.2117026
-4.218394	divisions	-0.3426646
-4.917364	divisions.	-0.1899242
-4.917364	dlm	-0.2109582
-4.917364	dn	-0.2109582
-3.917364	do	-0.2762643
-4.917364	docomo	-0.2103872
-4.917364	doctor	-0.2129457
-4.072266	doctors	-0.2276693
-4.616333	document	-0.2128352
-4.315304	does	-0.4092725
-4.917364	dog	-0.2133189
-4.917364	dog-chow	-0.2132664
-4.315304	doherty	-0.2404654
-4.917364	doing	-0.2114757
-4.315304	dolan	-0.2164095
-4.616333	dollar	-0.2132559
-4.917364	dollars	-0.2080583
-3.80342	domestic	-0.6411875
-4.917364	domestically	-0.2131087
-4.616333	dominianni	-0.2095717
-4.616333	dominican	-0.2746166
-3.917364	donald	-0.2900922
-4.616333	donaldson	-0.2746376
-4.917364	doors	-0.1944099
-4.917364	dora	-0.1958566
-4.315304	dorothy	-0.478269
-4.917364	dorsey	-0.2131402
-4.315304	double	-0.2239555
-4.917364	doubled	-0.1958566
-4.315304	doubleshot	-0.2372516
-4.616333	doug	-0.2746166
-4.014274	dough	-0.4603044
-4.616333	doughmakers	-0.2133347
-4.139213	douglas	-0.3709328
-4.072266	down	-0.195582
-4.440242	download	-0.1840897
-4.917364	downloadable	-0.2134713
-4.917364	downsizing	-0.2022052
-4.218394	downsizing/discontinued	-0.6614286
-4.616333	downtown	-0.2133767
-4.917364	downturn	-0.1917616
-4.917364	downward	-0.2134766
-4.917364	dozen	-0.2022052
-4.072266	dr	-0.7156709
-4.218394	dr.	-0.213403
-4.072266	draft	-0.3278369
-4.616333	dramatically	-0.2130771
-4.917364	draw	-0.2134503
-4.616333	drawn	-0.2555762
-4.616333	drax	-0.2746166
-4.917364	drinking	-0.2124036
-4.616333	drinks	-0.206465
-4.917364	drinks--absolutely	-0.2134135
-3.875971	drive	-0.1828897
-4.917364	driven	-0.212293
-4.616333	drivers	-0.1949804
-4.315304	driving	-0.1946019
-4.917364	drop	-0.2133978
-4.315304	dropped	-0.4769273
-4.139213	drug	-0.2104957
-4.917364	drugstore	-0.1944099
-4.440242	dry	-0.2129246
-4.917364	dryfoos	-0.1917616
-4.917364	ds	-0.2109582
-4.440242	dual	-0.2532405
-3.686915	dual-band	-0.2870572
-4.616333	dual-mode	-0.2134556
-4.616333	dual-radio	-0.2746114
-4.917364	dub	-0.2109582
-4.616333	dublin	-0.1876779
-3.385885	due	-1.027396
-4.315304	duetto	-0.2427158
-4.917364	duff	-0.2131402
-4.917364	duke	-0.2134135
-4.917364	duly	-0.2133715
-4.917364	dupes	-0.2133873
-4.917364	durability	-0.2036746
-4.917364	durable	-0.2134555
-4.917364	duration	-0.1917616
-3.63861	during	-0.691651
-4.917364	dutchess	-0.1917616
-4.616333	duties	-0.2633716
-4.616333	duty	-0.2111062
-4.014274	dvd	-0.4424839
-4.440242	dvds	-0.2004549
-4.917364	dvrs	-0.2109582
-4.917364	dwaine	-0.2134713
-4.616333	dwight	-0.2133662
-4.315304	dynamic	-0.4094879
-4.139213	e	-0.2338864
-4.616333	e-business	-0.2126721
-4.315304	e-commerce	-0.2118766
-4.315304	e-mail	-0.2402435
-4.917364	e-marketplace	-0.212293
-4.917364	e-payments	-0.2133137
-4.440242	e-zee	-0.5011008
-3.63861	e.	-0.3209858
-4.917364	e.j.	-0.2134766
-4.917364	e.on	-0.2134713
-4.917364	e.w	-0.1944099
-3.713244	each	-0.3088869
-4.014274	earlier	-0.2883232
-4.917364	earlier.	-0.1899242
-3.686915	early	-0.281359
-4.917364	earn	-0.2036746
-4.616333	earned	-0.2076646
-2.753011	earnings	-1.074902
-4.917364	ease	-0.1958566
-4.917364	ease-of-use	-0.1917616
-4.218394	easier	-0.247324
-4.072266	easily	-0.1979586
-4.139213	east	-0.2222512
-3.771236	eastern	-0.3440979
-4.616333	eastman	-0.2746376
-4.315304	easy	-0.2049568
-4.917364	easy-to-operate	-0.2134766
-4.917364	easy-to-read	-0.213466
-4.917364	easy-to-use	-0.2036746
-4.917364	eateries	-0.2067052
-4.917364	eco-centric	-0.2130508
-4.440242	economic	-0.2132559
-4.917364	economies	-0.2036746
-4.917364	economy	-0.2036746
-4.139213	ecotek	-0.398681
-4.616333	ed	-0.2746219
-4.218394	edc	-0.2063002
-4.616333	eddie	-0.2746376
-4.315304	edicube	-0.2429628
-4.917364	edina	-0.1917616
-4.440242	edison	-0.5008748
-4.315304	editing	-0.2315129
-4.315304	edition	-0.2113427
-3.054041	editor	-0.8695843
-4.917364	editor.	-0.1899242
-3.595145	editorial	-0.4500134
-4.440242	editors	-0.2022484
-4.917364	editors.	-0.1899242
-4.917364	edmund	-0.213466
-4.440242	edmunds.com	-0.1710462
-4.917364	eduardo	-0.2134083
-3.686915	education	-0.199145
-4.917364	education.	-0.1899242
-4.072266	educational	-0.2286814
-4.917364	educators	-0.2134555
-4.616333	edward	-0.2746271
-4.315304	edwards	-0.1763656
-4.917364	ee	-0.1917616
-4.616333	eeo	-0.2010932
-4.917364	eeoc	-0.2095982
-4.440242	effect	-0.2082498
-4.917364	effect.	-0.1899242
-3.084855	effective	-0.5063109
-4.315304	effectively	-0.2397145
-4.440242	efficiency	-0.1885077
-4.218394	efficient	-0.2034166
-4.616333	effort	-0.26615
-3.875971	efforts	-0.1786605
-4.440242	ehn	-0.2416552
-4.440242	eics	-0.2487464
-3.595145	eight	-0.7530032
-4.917364	eight-week	-0.2127352
-4.315304	eileen	-0.2429523
-4.014274	either	-0.2668262
-4.440242	ekibastuz	-0.2063903
-4.917364	ekimae	-0.21334
-4.014274	el	-0.3368241
-4.440242	elect	-0.2129141
-3.595145	elected	-0.537634
-3.963121	election	-0.3596789
-4.917364	electra	-0.213445
-4.315304	electric	-0.1916346
-4.218394	electrica	-0.3959453
-4.917364	electrical	-0.2036746
-4.917364	electricidad	-0.2134188
-3.741272	electricity	-0.2463091
-4.917364	electrico	-0.2134188
-4.315304	electron	-0.2733013
-4.072266	electronic	-0.2472836
-3.963121	electronics	-0.2861975
-4.440242	elects	-0.2131455
-4.917364	elements	-0.2134608
-4.917364	eletropaulo	-0.2134766
-4.917364	eleven	-0.2104242
-4.315304	eligible	-0.1991429
-4.616333	eliminates	-0.2128194
-4.917364	eliminating	-0.1958566
-4.917364	elisabeth	-0.2109582
-4.917364	elliot	-0.2134555
-4.917364	ellis	-0.2131402
-4.616333	ellsworth-based	-0.2745536
-4.616333	elmore	-0.1903068
-4.917364	elmores	-0.2134188
-4.440242	email	-0.2283359
-4.139213	embedded	-0.2523833
-4.917364	embedding	-0.2134555
-4.917364	embeds	-0.213466
-4.917364	embracing	-0.1958566
-4.917364	emergency	-0.2134503
-4.616333	emerging	-0.2131613
-4.440242	emeritus	-0.2313632
-4.440242	emmons	-0.1814115
-4.917364	emmy	-0.213445
-4.917364	emmy-nominated	-0.2134713
-4.616333	emphasizes	-0.1954735
-4.917364	empire	-0.2133767
-4.616333	employ	-0.2128089
-4.616333	employed	-0.2109265
-4.218394	employee	-0.2104877
-3.838182	employees	-0.1950272
-3.917364	employer	-1.212925
-4.616333	employers	-0.2107046
-4.917364	employing	-0.2118081
-4.218394	employment	-0.2122402
-4.315304	employs	-0.2383468
-4.917364	empresa	-0.2134555
-3.713244	enable	-0.2101881
-4.218394	enabled	-0.2093861
-3.917364	enables	-0.2134839
-4.440242	enabling	-0.209932
-4.917364	enacted	-0.2049837
-4.917364	enclosure	-0.1917616
-4.917364	encoder/decoder	-0.2134608
-4.917364	encompassed	-0.212551
-4.616333	encompasses	-0.1973857
-4.917364	encourage	-0.213156
-4.917364	encouraging	-0.213424
-4.616333	encryption	-0.2108631
-3.875971	end	-1.243533
-4.218394	end-user	-0.6617861
-4.917364	end-users.	-0.1899242
-2.567116	ended	-1.897802
-4.072266	ending	-0.2461788
-4.917364	endorsement	-0.2022052
-4.917364	ends	-0.2134766
-4.917364	enel	-0.2134766
-4.917364	energia	-0.2133978
-4.616333	energie	-0.2133084
-3.470206	energy	-0.2819048
-4.917364	energy.	-0.1899242
-4.917364	enforcement	-0.2134293
-4.917364	engage	-0.2112276
-4.616333	engaged	-0.2133978
-4.917364	engages	-0.2134713
-4.616333	engaging	-0.2678715
-4.616333	engine	-0.2036316
-4.917364	engineer	-0.1917616
-4.218394	engineering	-0.2032852
-4.917364	engineers	-0.2109582
-4.440242	england	-0.5007644
-4.315304	english	-0.2237963
-4.218394	enhance	-0.209773
-3.875971	enhanced	-0.2299764
-4.440242	enhancement	-0.1934703
-4.139213	enhancements	-0.1490066
-4.917364	enhancements.	-0.1899242
-4.014274	enhances	-0.304389
-4.917364	enhancing	-0.2129562
-4.139213	enjoy	-0.3113931
-4.917364	enjoying	-0.2088714
-4.917364	enlarged	-0.2132454
-4.917364	enough	-0.2049837
-4.917364	enrichment	-0.1917616
-4.917364	enrique	-0.2134608
-4.917364	enrolled	-0.2067052
-4.218394	ensure	-0.2167374
-4.440242	ensures	-0.2129194
-4.917364	ensuring	-0.2110586
-4.014274	enter	-0.3002542
-3.63861	entered	-1.474222
-3.838182	enterprise	-0.2065646
-4.917364	enterprise-	-0.2132086
-4.218394	enterprise-class	-0.3608516
-4.917364	enterprise/carrier	-0.2134713
-3.519424	enterprises	-0.5472889
-4.218394	enters	-0.2350139
-4.616333	entertaining	-0.1841571
-3.555636	entertainment	-0.2320351
-4.917364	entertainment/retail/restaurant	-0.2134713
-4.917364	enthusiasts	-0.1958566
-4.917364	entice	-0.213156
-3.875971	entire	-0.24128
-4.917364	entitled	-0.2134766
-4.917364	entity	-0.1917616
-4.917364	entrance	-0.2131087
-4.218394	entry	-0.3516729
-4.440242	environment	-0.2101967
-4.917364	environmental	-0.2134766
-4.139213	environments	-0.5056949
-4.917364	environments.	-0.1899242
-4.315304	envision	-0.4094985
-4.917364	eps	-0.1944099
-4.218394	epson	-0.3624783
-4.139213	equal	-0.2444788
-4.917364	equally	-0.2022052
-3.875971	equipment	-0.2972525
-4.917364	equipped	-0.2112276
-3.771236	equity	-0.3421098
-4.440242	equivalent	-0.4898557
-4.616333	eric	-0.2746271
-4.616333	erica	-0.2746376
-4.917364	erlanger	-0.1917616
-4.917364	ernst	-0.2131402
-4.917364	erwin	-0.1917616
-4.315304	es3	-0.1673115
-4.917364	escapes	-0.1917616
-4.917364	escos	-0.2036746
-4.616333	esolutions	-0.2048926
-4.616333	especially	-0.2079626
-4.917364	esplanade	-0.1917616
-3.80342	espresso	-0.3277285
-4.917364	esquerre	-0.1917616
-4.917364	essay	-0.2110586
-4.917364	essence	-0.2022052
-4.917364	essentially	-0.2134555
-4.139213	establish	-0.247412
-4.139213	established	-0.2021518
-4.917364	establishes	-0.2134293
-4.616333	establishing	-0.2132716
-4.616333	establishment	-0.2633716
-4.917364	establishments	-0.1917616
-3.595145	estate	-0.3167797
-4.917364	estate-related	-0.2134135
-4.917364	estate.	-0.1899242
-4.917364	esthetic	-0.2022052
-4.917364	estimate	-0.1958566
-4.139213	estimated	-0.3308731
-4.917364	estimates	-0.2110586
-4.917364	et	-0.1944099
-4.917364	etc.	-0.1899242
-4.917364	ethan	-0.213466
-4.917364	ethical	-0.213424
-4.917364	ethics.	-0.1899242
-4.917364	ethnic	-0.2134713
-4.917364	euro	-0.2134713
-3.574941	europe	-0.2911271
-4.616333	europe.	-0.2510906
-3.771236	european	-0.2271081
-4.917364	ev/do	-0.1944099
-4.917364	evaluate	-0.2132822
-4.440242	evans	-0.1994198
-4.139213	even	-0.2300935
-4.917364	evening	-0.2134766
-4.616333	event	-0.1716887
-4.917364	event.	-0.1899242
-4.616333	events	-0.1846346
-4.616333	ever	-0.2692247
-4.917364	everett	-0.1917616
-4.315304	evertrust	-0.4035477
-4.139213	every	-0.2125879
-4.616333	everyday	-0.2133084
-4.917364	everyone	-0.212098
-4.917364	evn	-0.2133137
-4.917364	evolve	-0.1958566
-4.917364	evolving	-0.2134345
-4.917364	evrt	-0.2109582
-4.315304	ewc	-0.1687405
-4.917364	exact	-0.2134135
-4.917364	example	-0.2022052
-4.917364	exceed	-0.2109318
-4.917364	exceeded	-0.1958566
-4.218394	exceeding	-0.3931409
-4.917364	excelled	-0.2067052
-4.440242	excellence	-0.1858231
-4.315304	excess	-0.3982158
-3.771236	exchange	-0.3271304
-4.616333	exchanged	-0.2745168
-4.616333	excitement	-0.2128247
-4.072266	excluding	-0.2474659
-3.63861	exclusive	-0.2404609
-4.917364	exclusive-label	-0.2133715
-4.315304	exclusively	-0.2345176
-4.917364	exec	-0.1944099
-4.917364	executing	-0.2133978
-4.440242	execution	-0.2319429
-2.652546	executive	-0.8450696
-4.917364	executive-level	-0.2132822
-4.616333	executive.	-0.2510906
-4.440242	executives	-0.1910984
-4.917364	exempt	-0.2134188
-4.917364	exempting	-0.2134766
-4.917364	exemptions	-0.212293
-4.616333	exercise	-0.2021675
-4.917364	exhibit	-0.2121191
-4.917364	exhibition	-0.2134766
-4.917364	exist	-0.2080583
-3.741272	existing	-0.2245689
-3.686915	expand	-0.2135407
-3.80342	expanded	-0.2053418
-3.963121	expanding	-0.276322
-4.014274	expands	-0.2089843
-3.486	expansion	-0.4621122
-4.917364	expect	-0.2049837
-4.616333	expectation	-0.2025124
-3.264151	expected	-1.411458
-3.838182	expects	-0.3189951
-4.917364	expedite	-0.1958566
-4.616333	expenditure	-0.201968
-4.917364	expenditure.	-0.1899242
-4.616333	expense	-0.2066145
-4.616333	expenses	-0.2648409
-4.440242	expensive	-0.2133767
-3.537153	experience	-0.2987562
-4.917364	experienced	-0.1974892
-4.917364	experiment.	-0.1899242
-4.917364	experimenting	-0.2112276
-4.917364	expertise	-0.1944099
-4.917364	experts	-0.2049837
-4.917364	expired	-0.2036746
-4.917364	expiring	-0.2133294
-4.440242	exploit	-0.4835071
-4.917364	explorer	-0.1917616
-4.917364	exploring	-0.2134766
-4.917364	expo	-0.2134766
-4.917364	exposure	-0.2067052
-4.917364	exposure.	-0.1899242
-4.072266	express	-0.2080783
-4.917364	expresscard	-0.2133452
-4.616333	expressed	-0.2134608
-4.218394	extend	-0.3399447
-3.741272	extended	-0.3607736
-4.218394	extending	-0.3783332
-4.139213	extends	-0.2151505
-4.315304	extension	-0.1909546
-4.440242	extensive	-0.2130824
-4.917364	exterior	-0.2022052
-4.917364	extinguish	-0.2134713
-4.917364	extraordinary	-0.2134713
-4.440242	eyemed	-0.2528305
-4.917364	eyemed.	-0.1899242
-4.917364	eyes	-0.213382
-4.917364	ez	-0.2134503
-4.440242	f	-0.2522832
-4.072266	f.	-0.3576149
-4.917364	f20	-0.1917616
-4.917364	f730	-0.2036746
-4.917364	f750	-0.2134398
-4.917364	fabricated	-0.213466
-4.616333	face	-0.2132822
-4.917364	face-offs	-0.2036746
-4.917364	facebook	-0.1944099
-4.616333	facets	-0.2633716
-4.917364	facilitate	-0.2134608
-4.917364	facilitated	-0.1958566
-3.686915	facilities	-0.2958599
-3.273911	facility	-0.398733
-4.616333	facility.	-0.2510906
-4.616333	fact	-0.1892138
-4.917364	factor	-0.1917616
-4.616333	factories	-0.20623
-4.440242	factors	-0.1909159
-4.616333	facts	-0.2746114
-4.917364	factual	-0.1917616
-4.917364	failed	-0.2049837
-4.072266	failing	-0.7262447
-4.218394	fall	-0.3651625
-4.917364	falls	-0.2134713
-4.440242	false	-0.2433085
-4.616333	familiar	-0.272394
-4.440242	families	-0.1855095
-3.713244	family	-0.3600626
-4.917364	family-focused	-0.1917616
-4.917364	family-run	-0.213424
-4.917364	family.orin	-0.2134293
-4.917364	fans	-0.2134345
-4.917364	far	-0.2130824
-4.616333	fargo	-0.2130403
-4.917364	farkas	-0.1917616
-4.917364	farmers	-0.2134293
-4.440242	fashion	-0.2434698
-4.218394	fast	-0.3527651
-4.917364	fast-growing	-0.213466
-4.616333	faster	-0.1936572
-4.917364	faster-growing	-0.2132822
-4.917364	fat-free	-0.1917616
-4.917364	fate	-0.2022052
-4.440242	faucet	-0.2086856
-4.440242	faucets	-0.1834034
-4.616333	faux	-0.2746166
-4.917364	favor	-0.1944099
-4.218394	favorite	-0.2132927
-4.616333	favorites	-0.2045549
-4.917364	favour	-0.2022052
-4.917364	fayetteville	-0.2036746
-4.616333	fbi	-0.2070519
-4.917364	fcc	-0.2109582
-4.917364	fci	-0.1917616
-4.917364	fcu	-0.213424
-3.555636	feature	-0.1720611
-4.917364	feature-rich	-0.2134766
-3.963121	featured	-1.160846
-3.426002	features	-0.206639
-4.616333	features.	-0.2510906
-3.875971	featuring	-0.3712378
-4.072266	feb	-0.7187503
-4.917364	feb-08	-0.1974892
-4.917364	feb-08-2005	-0.1944099
-4.917364	feb-17-2005	-0.1944099
-4.917364	feb-25-2009	-0.1944099
-4.917364	feb-28-2005	-0.1944099
-3.33758	february	-1.316597
-3.470206	federal	-0.293644
-4.917364	federico	-0.2134713
-4.917364	fee-based	-0.2129614
-4.440242	fee-free	-0.2526517
-4.917364	feed	-0.2049837
-4.917364	feeding	-0.21334
-4.616333	feel	-0.2017953
-4.139213	fees	-0.1799458
-4.917364	fees.	-0.1899242
-4.917364	feet	-0.1917616
-4.917364	fehbp	-0.2109582
-4.616333	fell	-0.2586556
-4.315304	fellow	-0.2384689
-4.917364	fence	-0.2134503
-4.917364	fenosa	-0.2132243
-4.917364	fernando	-0.2134713
-4.616333	ferris	-0.252928
-4.917364	ferry	-0.2134293
-4.917364	festivals	-0.1917616
-4.917364	festive	-0.2134555
-4.917364	feverishly	-0.2134766
-4.218394	few	-0.2117765
-4.440242	fewer	-0.2529409
-4.616333	fh	-0.2721246
-4.440242	fhcc	-0.4986087
-4.315304	fhps	-0.252939
-4.072266	fhs	-0.2377229
-4.917364	fiduciary	-0.2134713
-4.616333	field	-0.2134661
-4.917364	fields	-0.2134766
-4.917364	fifth	-0.2132927
-4.917364	fifth-generation	-0.2134766
-4.917364	fights	-0.2134766
-4.917364	figu	-0.1899242
-4.315304	file	-0.4036595
-4.917364	file-based	-0.2132506
-3.264151	filed	-0.8065174
-4.139213	files	-0.2109712
-4.218394	filing	-0.3917598
-4.917364	fill	-0.1958566
-4.917364	filled	-0.212293
-4.917364	film	-0.2134083
-4.139213	final	-0.2326557
-4.616333	finalized	-0.1956705
-4.917364	finalizes	-0.2128931
-4.616333	financal	-0.2745641
-3.245266	finance	-0.3726314
-2.90033	financial	-0.5149606
-4.917364	financial/b2b	-0.1917616
-4.014274	financing	-0.2642582
-4.616333	find	-0.2065184
-4.917364	finger	-0.213466
-4.917364	fingerprint	-0.2134555
-4.917364	finish	-0.2036746
-4.917364	finish.	-0.1899242
-4.917364	finished	-0.2134398
-4.917364	finland	-0.2112118
-4.616333	fire	-0.205321
-4.440242	firewall	-0.2531774
-4.917364	firing	-0.1917616
-3.771236	firm	-0.2824469
-4.315304	firms	-0.3904034
-4.917364	firms.	-0.1899242
-2.741272	first	-0.4368196
-4.917364	first-of-its-kind	-0.213424
-4.917364	first-quarter	-0.2134766
-4.917364	first-time	-0.2134766
-4.917364	first-to-market	-0.2134083
-4.917364	firstar	-0.2128615
-4.917364	firsts	-0.2036746
-2.793512	fiscal	-1.661984
-4.917364	fish	-0.2067052
-4.218394	fit	-0.2095574
-3.440243	five	-0.3883257
-4.917364	five-star	-0.2134766
-4.917364	five-store	-0.2133294
-3.713244	five-week	-1.229702
-4.917364	five-year	-0.2131297
-4.139213	fixed	-0.3612185
-4.315304	fixed-income	-0.4781587
-4.917364	fixtures	-0.1917616
-4.440242	fla	-0.4820604
-4.917364	flags	-0.213361
-4.315304	flagship	-0.2072278
-4.917364	flair.	-0.1899242
-4.917364	flash	-0.2134713
-4.917364	flat	-0.1917616
-4.139213	flatbed	-0.3332892
-4.218394	flavor	-0.2145527
-4.440242	flavors	-0.1798874
-4.917364	flavorstarbucks	-0.212872
-4.917364	flavours	-0.1917616
-4.616333	fleet	-0.1997778
-4.440242	flexibility	-0.1684726
-4.616333	flexible	-0.2134398
-4.315304	flo	-0.4782217
-4.440242	flom	-0.5004015
-4.218394	flooring	-0.1714572
-4.917364	flooring.	-0.1899242
-3.771236	florida	-0.1841426
-4.917364	florida.	-0.1899242
-4.616333	flow	-0.1887414
-4.917364	flows	-0.1944099
-4.917364	floyd	-0.2134766
-4.917364	fm	-0.2109582
-4.917364	fmcg	-0.2134555
-4.917364	fmi	-0.213445
-3.80342	focus	-0.844492
-4.315304	focused	-0.476041
-4.917364	focuses	-0.2112118
-4.917364	focusing	-0.2112118
-4.917364	fodor	-0.2095982
-4.616333	foley	-0.252928
-4.139213	folick	-0.2024111
-4.917364	folick.	-0.1899242
-4.917364	follow	-0.213177
-3.771236	following	-0.244854
-4.440242	follows	-0.1929088
-4.917364	foma	-0.2109582
-3.426002	food	-0.2504027
-3.686915	foods	-0.3244784
-4.218394	foodservice	-0.1932132
-4.917364	foolproof	-0.2112276
-4.917364	foot	-0.2134608
-4.616333	football	-0.2134556
-4.616333	footprint	-0.203508
-4.917364	footprint.	-0.1899242
-1.906216	for	-0.6170682
-4.917364	foray	-0.2131087
-4.315304	force	-0.1641215
-4.616333	forces	-0.1916622
-4.917364	forecasting	-0.2127142
-4.917364	forecastings	-0.1944099
-4.072266	foreign	-0.4805466
-4.218394	forest	-0.3885752
-4.917364	forge	-0.2133294
-3.917364	form	-0.1717772
-4.917364	form.	-0.1899242
-4.440242	formal	-0.194064
-4.616333	formally	-0.2110692
-4.440242	forman	-0.2226291
-4.440242	format	-0.2114946
-4.440242	formation	-0.4898557
-4.917364	formed	-0.2067052
-3.595145	former	-0.2190375
-4.014274	formerly	-0.2051444
-4.917364	forming	-0.2036746
-4.917364	forms	-0.213382
-4.616333	formula	-0.1896524
-4.917364	formularies	-0.1917616
-4.616333	formulary	-0.2746376
-4.917364	formulation	-0.1917616
-4.014274	fort	-0.4782323
-4.616333	fortune	-0.2133084
-4.315304	foster	-0.1891582
-4.616333	foulkes	-0.2012553
-4.218394	found	-0.1980339
-4.917364	found.	-0.1899242
-3.686915	foundation	-1.25295
-4.616333	founded	-0.198072
-4.917364	founder	-0.1917616
-4.917364	founders	-0.2022052
-4.917364	founding	-0.2133347
-4.139213	foundry	-0.3552446
-2.820454	four	-1.012158
-3.39885	four-week	-1.530732
-4.917364	four-year	-0.2134188
-3.875971	fourth	-1.254601
-4.917364	fourth-quarter	-0.2127142
-4.616333	fox	-0.2134503
-4.917364	fractional	-0.2129614
-4.917364	frame	-0.213466
-4.616333	frames	-0.1814454
-4.917364	framework	-0.2080583
-4.917364	framing	-0.2114757
-4.072266	france	-0.2225756
-4.917364	france.	-0.1899242
-3.616334	franchise	-0.3941666
-4.917364	franchise.	-0.1899242
-4.440242	franchised	-0.2123773
-3.963121	franchisee	-0.2827591
-4.440242	franchisees	-0.2044476
-4.616333	franchises	-0.2130614
-4.616333	francis	-0.2746376
-4.218394	francisco	-0.3639877
-4.917364	francisco-based	-0.2134766
-4.917364	franck	-0.2134766
-4.616333	frank	-0.2745378
-4.440242	franklin	-0.2342103
-4.072266	frappuccino	-0.6495641
-4.440242	frasso	-0.2446396
-4.440242	fraud	-0.1838648
-4.917364	fraudulent	-0.1944099
-4.917364	fraudulently	-0.2134766
-4.917364	fred	-0.2134398
-4.315304	frederick	-0.2745116
-3.80342	free	-0.178219
-4.616333	freeview	-0.1846346
-4.917364	freeze	-0.2109582
-4.917364	fremont	-0.1917616
-4.440242	french	-0.2112276
-4.917364	frequency	-0.2134766
-4.139213	fresh	-0.208772
-4.440242	fresno	-0.2212514
-4.917364	fricker	-0.1917616
-4.616333	friday	-0.2134188
-4.917364	friend	-0.213361
-4.917364	friend.	-0.1899242
-4.917364	friendly	-0.2134766
-4.917364	friends	-0.2036746
-4.616333	fries	-0.1943495
-2.497408	from	-0.4969518
-4.917364	front	-0.2133978
-4.917364	frontenac	-0.1917616
-3.616334	frozen	-0.4451672
-4.917364	fruit/vegetable	-0.2134766
-4.917364	fsa	-0.1917616
-4.917364	ft.	-0.2132506
-4.917364	ftp	-0.1917616
-4.440242	fujitsu	-0.2113596
-4.917364	fulfilling	-0.213403
-3.555636	full	-0.4743387
-4.616333	full-length	-0.2134661
-4.917364	full-time	-0.2133662
-4.315304	full-year	-0.2414735
-3.838182	fully	-0.2327713
-4.616333	fully-hardened	-0.2746376
-4.917364	fully-managed	-0.2129772
-4.917364	fun	-0.2036746
-4.917364	fun.	-0.1899242
-4.218394	function	-0.2001406
-4.440242	functional	-0.2129246
-4.218394	functionality	-0.2286281
-3.616334	functions	-0.219066
-4.440242	fund	-0.2088608
-4.917364	funding	-0.2036746
-4.440242	funds	-0.2129772
-4.917364	funky	-0.2134713
-4.616333	funmobility	-0.2005307
-4.917364	furnishings	-0.2130824
-4.315304	furniture	-0.1908716
-4.072266	further	-0.2124352
-4.917364	furthermore	-0.1917616
-3.80342	future	-0.2114726
-4.917364	future.	-0.1899242
-3.555636	g	-0.5837665
-4.917364	g.i	-0.1944099
-4.139213	gaiam	-0.343625
-4.440242	gail	-0.5011166
-4.315304	gain	-0.2078029
-4.917364	gains	-0.2036746
-4.616333	galleria	-0.2134713
-3.917364	game	-0.2732504
-4.917364	gamers	-0.2133452
-4.218394	games	-0.2364539
-4.616333	gaming	-0.2134608
-4.917364	gao	-0.2134713
-4.917364	gap	-0.213445
-4.917364	garcia	-0.1917616
-4.616333	garden	-0.1917561
-4.917364	garfield	-0.2134713
-4.917364	garners	-0.2134766
-4.917364	garnier.	-0.1899242
-4.616333	garrett	-0.1913583
-4.616333	gary	-0.2134713
-4.315304	gas	-0.2134135
-4.917364	gasoline	-0.2036746
-4.616333	gateway	-0.252928
-4.440242	gateways	-0.2327919
-4.917364	gathered	-0.2132296
-4.917364	gattuso	-0.2109582
-4.917364	gaucha	-0.2134188
-4.917364	gaz	-0.2134188
-4.917364	gazette	-0.1917616
-4.440242	ge	-0.2527989
-4.917364	geddes	-0.1944099
-4.616333	gee	-0.2080265
-4.616333	geller	-0.2128931
-4.616333	gellert	-0.252928
-4.139213	gener	-0.3634911
-3.283895	general	-0.6403691
-4.616333	generate	-0.210202
-4.616333	generated	-0.212972
-4.917364	generates	-0.2109318
-4.440242	generating	-0.5010588
-3.686915	generation	-0.2340591
-4.917364	generations	-0.212293
-4.917364	geneva	-0.1917616
-4.616333	geoff	-0.2746324
-4.616333	geographic	-0.2746324
-4.917364	geographies	-0.2130193
-4.917364	george	-0.213382
-4.440242	georgia	-0.2114946
-4.917364	georgia.	-0.1899242
-4.440242	gerald	-0.2532615
-4.440242	germany	-0.177263
-4.218394	get	-0.2013742
-4.616333	gets	-0.2088661
-4.315304	ghz	-0.2029916
-4.139213	giant	-0.1934153
-4.917364	giant.	-0.1899242
-4.917364	gift	-0.2134713
-4.917364	gifts	-0.2036746
-4.917364	gigafast	-0.2036746
-4.917364	gigahertz-based	-0.2127615
-4.616333	gillespie	-0.206497
-4.315304	gillette	-0.2033574
-4.917364	gilroy	-0.1917616
-4.440242	give	-0.2133873
-4.917364	giveaways	-0.2036746
-4.218394	given	-0.2411002
-4.440242	gives	-0.2095823
-4.440242	giving	-0.2130141
-4.917364	gizang	-0.2022052
-4.218394	glashow	-0.2273273
-4.917364	glass	-0.2134713
-4.440242	glazer	-0.4913251
-4.616333	glenn	-0.2134556
-3.454966	global	-0.2289146
-3.963121	globe	-0.3254645
-4.917364	globe.	-0.1899242
-4.616333	glovsky	-0.2648409
-4.315304	gluski	-0.2283569
-4.218394	go	-0.1885113
-4.917364	go.	-0.1899242
-4.917364	goals	-0.2080583
-4.218394	going	-0.3537687
-4.218394	golden	-0.2119231
-4.917364	goods	-0.2126984
-4.917364	goodwyn	-0.1917616
-4.616333	gorman	-0.1917064
-4.917364	got	-0.2130824
-4.616333	gottlieb	-0.252928
-4.917364	gould	-0.2036746
-4.315304	gourmet	-0.4068637
-4.917364	governance	-0.2036746
-4.917364	governme	-0.2127721
-3.686915	government	-0.2012562
-4.917364	governments	-0.2112118
-4.917364	gowanus	-0.2134713
-4.616333	grade	-0.2739279
-4.917364	graduated	-0.2134766
-4.440242	grain	-0.501106
-4.315304	grand	-0.2428682
-4.917364	grande	-0.2134293
-4.917364	granted	-0.2121613
-4.917364	graphics	-0.2133715
-4.917364	grass	-0.2109582
-4.917364	grass-	-0.2134766
-4.218394	graves	-0.4102969
-4.315304	great	-0.2132191
-3.963121	greater	-0.2354928
-4.917364	greatest	-0.2134555
-3.963121	greaves	-0.3145801
-4.917364	greece	-0.1917616
-3.917364	green	-0.2648942
-4.917364	green.	-0.1899242
-4.917364	greenbelt	-0.1944099
-4.917364	greenfield	-0.2131613
-4.917364	greg	-0.2134608
-4.440242	gregory	-0.2531932
-4.917364	gretchen	-0.2134766
-4.616333	grew	-0.2586556
-4.917364	grievances	-0.2133767
-4.917364	grinds	-0.2036746
-4.917364	grocers	-0.2134713
-4.218394	grocery	-0.2248714
-4.917364	groomer	-0.2111167
-4.616333	ground-breaking	-0.2746166
-2.856666	group	-0.4480585
-4.218394	group.	-0.6383178
-4.014274	groups	-0.194504
-4.917364	groups.	-0.1899242
-4.315304	grow	-0.1862484
-3.80342	growing	-0.2614988
-4.917364	grown	-0.2049837
-3.454966	growth	-0.3099893
-4.616333	grupo	-0.2746376
-4.917364	gsm	-0.2130508
-4.917364	gte	-0.1917616
-4.440242	guangzhou	-0.1683035
-4.917364	guarantee	-0.1944099
-4.917364	guess	-0.2134503
-4.917364	guest	-0.2129614
-4.014274	guidance	-0.6172889
-4.616333	guidance/update	-0.2739121
-4.917364	guide	-0.2104084
-4.917364	guidelines	-0.2036746
-4.917364	gutters	-0.2036746
-4.440242	h	-0.2342049
-3.537153	h.	-0.9912915
-3.537153	h.j	-1.378868
-3.963121	h.j.	-0.99869
-4.917364	h.j.heinz	-0.2111537
-4.917364	habits	-0.2105618
-4.917364	hackettstown	-0.1917616
-3.39885	had	-0.3232427
-4.917364	haidian	-0.21334
-4.315304	hak	-0.2402065
-4.917364	hale	-0.213403
-4.218394	half	-0.6505988
-4.616333	hall	-0.2020057
-4.917364	hallmark	-0.2132296
-4.917364	halls	-0.2126668
-4.917364	hamburger	-0.2134398
-4.917364	hamden	-0.1917616
-4.616333	hamilton	-0.2739173
-4.917364	hampshire	-0.1917616
-4.917364	hand	-0.2134766
-4.917364	hand-crafted	-0.213445
-4.440242	handcrafted	-0.1917175
-4.917364	handed	-0.2133715
-4.616333	handheld	-0.2132454
-4.440242	handle	-0.2522306
-4.616333	handles	-0.2124141
-4.440242	handset	-0.2531984
-4.139213	handsets	-0.1786313
-4.917364	handyphone	-0.2132822
-4.917364	hang	-0.2133767
-4.917364	hangout	-0.2080583
-3.838182	hanrahan	-0.1981748
-4.917364	hanrahan.	-0.2132243
-4.218394	hanselman	-0.2394003
-4.440242	harbor	-0.1716829
-4.917364	hard	-0.2067052
-4.139213	hardware	-0.1715151
-4.917364	hardwood	-0.2134766
-4.440242	hariri	-0.202701
-4.616333	harmon	-0.2110745
-4.616333	harpo	-0.2746324
-4.072266	harris	-0.2202961
-4.315304	harrison	-0.1989866
-4.917364	harsch	-0.2036746
-4.917364	harshest	-0.2134766
-4.917364	harty	-0.2036746
-2.265117	has	-0.7044482
-4.072266	hasbro	-0.2027364
-4.616333	hasbro-discovery	-0.2728162
-4.917364	hasbro.com	-0.1944099
-4.917364	hatchery	-0.1944099
-3.139212	have	-0.275219
-4.014274	having	-0.2178014
-4.440242	hay	-0.2075474
-4.315304	hayes	-0.2180205
-4.014274	hd	-0.2201851
-4.917364	hdtv	-0.2133294
-4.917364	hdtv-quality	-0.2127615
-2.845482	he	-0.6321791
-3.741272	head	-0.353602
-4.616333	headed	-0.1946184
-4.616333	heading	-0.207803
-4.917364	headline	-0.2134766
-4.917364	headquartered	-0.2067052
-4.139213	headquarters	-0.3422259
-4.917364	heads	-0.1958566
-4.917364	healt	-0.1899242
-2.272925	health	-1.351792
-4.917364	health.	-0.1899242
-3.875971	healthcare	-0.3444112
-4.440242	healthnet	-0.1951119
-4.218394	healthshare	-0.2279981
-4.440242	hear	-0.5010692
-4.616333	heart	-0.2021998
-4.917364	heat	-0.2134766
-4.917364	heater	-0.2049837
-4.616333	heavily	-0.2112065
-4.917364	heavy	-0.2127615
-4.616333	hebert	-0.1892749
-4.917364	heekin-canedy	-0.1917616
-4.616333	heights	-0.252928
-2.521164	heinz	-0.5639487
-4.917364	heinz-base	-0.21334
-4.917364	heinz.	-0.1899242
-3.80342	held	-0.236955
-4.917364	heller	-0.2129351
-4.917364	helm	-0.2121191
-3.741272	help	-0.2085421
-4.616333	helped	-0.2133452
-4.917364	helping	-0.2134766
-4.917364	helps	-0.2134713
-4.315304	hemphill	-0.2345766
-4.139213	henry	-0.3991805
-3.486	her	-0.4489567
-4.218394	herald	-0.6618438
-4.616333	herb	-0.2124405
-4.917364	here	-0.2067052
-4.616333	hereby	-0.2746219
-4.218394	herlyn	-0.2351268
-4.440242	herndon	-0.1892082
-4.917364	herring	-0.1917616
-4.218394	hersh	-0.2081003
-4.917364	hewlett	-0.2134766
-4.917364	hh	-0.2134766
-4.917364	hiding	-0.1958566
-3.616334	high	-0.4433401
-4.917364	high-arc	-0.2134766
-4.315304	high-bandwidth	-0.2416579
-4.616333	high-definition	-0.1940255
-4.917364	high-density	-0.2134766
-4.616333	high-end	-0.2134556
-3.574941	high-performance	-0.3266846
-4.917364	high-performing	-0.2036746
-4.139213	high-quality	-0.2313632
-4.917364	high-resolution	-0.2134766
-4.440242	high-speed	-0.2527937
-4.616333	high-throughput	-0.2126195
-4.440242	higher	-0.2529462
-4.218394	highest	-0.3615157
-4.917364	highest-performance	-0.2127615
-4.616333	highlighted	-0.2570229
-4.917364	highlighting	-0.2111537
-4.917364	highlights	-0.2133137
-3.963121	highly	-0.5094933
-4.917364	highwoods	-0.213445
-4.315304	hills	-0.3677315
-4.616333	hilton	-0.213361
-4.616333	him	-0.1895914
-4.616333	hine	-0.2745694
-4.917364	hinted	-0.2133242
-4.917364	hire	-0.2088714
-4.218394	hired	-0.2616012
-4.440242	hiring	-0.2224261
-3.060031	his	-0.428842
-4.139213	hispanic	-0.2065113
-4.917364	hispanic.	-0.2067052
-4.072266	history	-0.2912795
-4.917364	history-focused	-0.2134345
-4.440242	hit	-0.2117606
-4.917364	hits	-0.2036746
-3.019737	hj	-1.90178
-4.072266	hnt	-0.7322193
-4.440242	hnz	-0.4986087
-4.917364	hold	-0.2133662
-4.440242	holders	-0.4898557
-3.33758	holding	-0.8246303
-4.139213	holdings	-0.2334962
-4.315304	holiday	-0.2269474
-4.917364	hollinger	-0.1917616
-4.917364	holly	-0.213466
-4.917364	holman	-0.1917616
-4.917364	holzman	-0.1917616
-3.124972	home	-0.4483341
-4.616333	home-delivery	-0.2131034
-4.917364	home-improvement	-0.2133925
-4.917364	homeland	-0.213424
-4.917364	homeowner	-0.2127773
-4.315304	homeowners	-0.2148878
-4.917364	homeownrrs	-0.2104242
-4.616333	homes	-0.1841571
-4.917364	honeycutt	-0.1917616
-4.440242	hood	-0.1860246
-4.917364	hoover	-0.2132769
-4.616333	hoped	-0.1944044
-4.917364	hopeful	-0.2134555
-4.616333	hopes	-0.26615
-4.917364	hoping	-0.2049837
-4.917364	horan	-0.2131718
-4.917364	horizons	-0.2080583
-4.139213	hospital	-0.2226109
-4.139213	hospitals	-0.2880832
-4.917364	host	-0.2134608
-4.917364	hosted	-0.212293
-4.315304	hot	-0.2134345
-4.440242	hotel	-0.4794121
-4.917364	hotels	-0.2036746
-4.917364	hour	-0.213466
-4.917364	hourly	-0.21334
-4.315304	house	-0.2081222
-4.917364	household	-0.2132243
-4.440242	houston	-0.1715267
-4.917364	houston-area	-0.2134398
-4.616333	how	-0.1870028
-4.917364	how-to	-0.213466
-4.218394	howard	-0.3959926
-4.440242	howell	-0.5011166
-4.440242	however	-0.4794121
-4.072266	hp	-0.2682633
-4.917364	hpcustomers	-0.1944099
-4.917364	hsbc	-0.2134503
-4.616333	hsw	-0.2743907
-4.917364	hub	-0.2080583
-4.917364	huge	-0.212872
-4.917364	hughes	-0.1944099
-4.218394	hull	-0.2036824
-4.014274	human	-0.6240085
-4.917364	humana	-0.213466
-4.616333	hundreds	-0.2633716
-4.917364	hungary	-0.1917616
-4.616333	hunt	-0.1855263
-4.917364	husqvarna	-0.2134188
-4.917364	hwy	-0.1944099
-4.917364	hyatt	-0.2134766
-4.616333	hydroelectric	-0.274417
-4.917364	hynes	-0.2131402
-4.315304	i	-0.2192651
-4.440242	i-o	-0.5010062
-4.917364	i.	-0.2134713
-4.917364	i2	-0.2133978
-4.616333	ian	-0.2746376
-4.917364	iberdrola	-0.2133978
-4.917364	ibm	-0.2109582
-4.616333	ice	-0.2134293
-4.917364	ice.	-0.1899242
-4.616333	iced	-0.2128615
-4.139213	icom	-0.225816
-4.917364	iconic	-0.2134766
-4.917364	ics	-0.1917616
-4.616333	id	-0.2734646
-4.917364	idaho	-0.1917616
-4.616333	idamarie	-0.2746324
-4.440242	ideal	-0.2478483
-4.616333	ideally	-0.2746376
-4.616333	identified	-0.2110956
-4.315304	identify	-0.2326388
-4.616333	identifying	-0.2102602
-3.771236	ieee	-0.2083012
-4.315304	if	-0.2250792
-4.917364	iht	-0.2109582
-4.616333	ii	-0.1937837
-4.014274	iii	-0.1442641
-4.917364	il	-0.1944099
-4.917364	ill	-0.1944099
-4.440242	illinois	-0.2212514
-4.616333	images	-0.191198
-4.917364	immediate	-0.2133978
-3.537153	immediately	-0.9704548
-4.218394	immediately.	-0.6383178
-4.917364	immensely	-0.2134083
-4.616333	immersion	-0.1841571
-4.917364	immersive	-0.2133767
-4.315304	impact	-0.2293446
-4.616333	implement	-0.1957034
-4.218394	implementation	-0.3289934
-4.616333	implemented	-0.2743434
-4.616333	implementing	-0.2087652
-4.917364	import	-0.2134135
-4.917364	importance	-0.2022052
-4.917364	important	-0.2132454
-4.917364	improper	-0.2134766
-3.917364	improve	-0.2885132
-4.315304	improved	-0.2124826
-3.50239	improvement	-0.4012613
-4.315304	improvements	-0.1853077
-4.440242	improving	-0.212551
-1.810154	in	-0.5154521
-4.917364	in-building	-0.2133978
-4.917364	in-game	-0.1917616
-4.917364	in-house	-0.2134766
-4.917364	in-stock	-0.2112276
-4.440242	in-store	-0.2130666
-4.917364	in-the-field	-0.2134503
-4.917364	in/dining	-0.2133767
-4.917364	inbound	-0.2036746
-2.148726	inc	-2.275107
-2.872041	inc.	-1.314789
-4.218394	inc..	-0.2608176
-4.917364	inc.of	-0.1958566
-4.917364	incentive	-0.2132611
-4.616333	inception	-0.1952489
-4.917364	incident	-0.2134766
-3.537153	include	-0.2505575
-4.218394	included	-0.2254489
-3.440243	includes	-0.250904
-3.014274	including	-0.2583136
-4.315304	inclusion	-0.4715344
-4.315304	inclusive	-0.391883
-4.440242	income	-0.1943934
-4.440242	incorporate	-0.2117712
-4.218394	incorporated	-0.2008715
-4.616333	incorporates	-0.1941134
-4.440242	incorporating	-0.2104666
-3.03655	increase	-0.835696
-2.845482	increased	-1.276608
-4.072266	increases	-0.1852068
-4.917364	increasingly	-0.2132716
-4.917364	incredible	-0.2134713
-4.917364	incurred	-0.2132401
-4.917364	incurring	-0.1958566
-4.616333	indemnities	-0.2555762
-4.616333	indenture	-0.1795638
-4.917364	independence	-0.213445
-3.595145	independent	-0.5407212
-3.875971	index	-1.021686
-4.440242	index.	-0.4775747
-4.440242	indian	-0.5011166
-4.014274	indiana	-0.2567023
-4.917364	indiana.	-0.1899242
-4.917364	indicate	-0.212872
-4.917364	indicators.	-0.1899242
-4.917364	indigo	-0.2133294
-4.917364	individual	-0.2133452
-4.616333	individuals	-0.1967419
-4.917364	indonesia	-0.1917616
-4.440242	indoor	-0.2530828
-4.616333	indoors	-0.2745641
-4.917364	indulgent	-0.2036746
-4.218394	industrial	-0.2609808
-3.875971	industries	-0.2556776
-3.662091	industry	-0.2655515
-4.139213	industry-leading	-0.2104404
-4.917364	industry-standard	-0.2134713
-4.917364	industry-wide	-0.2133767
-4.917364	inexpensively	-0.2105618
-4.440242	infant	-0.2532562
-4.616333	inflating	-0.2570229
-4.917364	influence	-0.212293
-4.917364	influenced	-0.2036746
-3.440243	information	-0.7163708
-4.917364	information-technology	-0.2036746
-4.917364	informed	-0.2110586
-4.139213	infrastructure	-0.2005415
-4.616333	infrastructure.	-0.2510906
-4.917364	infrastructures.	-0.1899242
-4.917364	infringed	-0.2128247
-4.440242	infringement	-0.1796887
-4.917364	infringes	-0.2120611
-4.917364	ing	-0.2130403
-4.315304	initial	-0.212393
-4.440242	initially	-0.1917451
-4.917364	initiate	-0.2134188
-4.917364	initiated	-0.2067052
-4.218394	initiative	-0.2379934
-3.686915	initiatives	-0.2772537
-4.917364	initiatives.	-0.1899242
-4.917364	inland	-0.2134766
-3.917364	innovation	-0.4571737
-4.616333	innovations	-0.2063956
-3.595145	innovative	-0.2119725
-4.917364	input	-0.2134555
-4.616333	insertions	-0.2741436
-4.917364	insight	-0.2049837
-4.440242	inspired	-0.4999435
-4.917364	inspiring	-0.2134713
-4.917364	install	-0.2134766
-4.315304	installed	-0.2114863
-4.917364	installing	-0.2088714
-4.917364	instant	-0.2134766
-4.917364	instantly	-0.2134398
-4.917364	instead	-0.2022052
-4.139213	institute	-0.1500049
-4.917364	instituted	-0.2088714
-4.616333	institution	-0.2678715
-4.139213	institutional	-0.2432441
-4.014274	institutions	-0.1915548
-4.917364	instructional	-0.2131875
-4.917364	instrumental	-0.2067052
-4.917364	insulated	-0.2134766
-3.63861	insurance	-0.5515541
-4.917364	insureconnect	-0.2122877
-4.616333	insured	-0.2120559
-4.440242	insurers	-0.1716829
-4.917364	inte	-0.1899242
-4.917364	integral	-0.2134766
-4.440242	integrate	-0.2474705
-3.361061	integrated	-0.3233037
-4.139213	integrates	-0.3567865
-4.440242	integrating	-0.250891
-4.072266	integration	-0.2027655
-4.917364	intel	-0.1917616
-4.616333	intellectual	-0.2746324
-4.917364	intelligent	-0.2129614
-4.917364	intelligently	-0.2133873
-4.917364	intellinet	-0.2129404
-4.218394	intended	-0.6533772
-4.440242	intends	-0.4926341
-4.917364	intensity	-0.2022052
-4.072266	intent	-0.4816381
-4.917364	intention	-0.2049837
-4.917364	interac	-0.1899242
-4.014274	interactive	-0.1981972
-4.616333	interbank	-0.2746061
-3.616334	interest	-0.3775331
-4.917364	interest-	-0.2134135
-4.917364	interest-free	-0.213466
-4.917364	interested	-0.213466
-3.963121	interests	-0.4039069
-4.440242	interface	-0.1714515
-4.917364	interface.	-0.1899242
-4.917364	interfered	-0.2112276
-4.616333	intergroup	-0.2633716
-4.218394	interim	-0.2088874
-4.218394	internal	-0.2124878
-3.227168	international	-0.3056587
-4.616333	internationally	-0.1940914
-3.713244	internet	-0.3040071
-4.917364	internet.	-0.1899242
-4.440242	interop	-0.501106
-4.072266	interoperability	-0.3163761
-4.218394	interoperable	-0.2381876
-4.917364	interoperate	-0.2112276
-4.917364	intersection	-0.2080583
-4.917364	intimate	-0.213445
-3.066105	into	-0.4721843
-4.917364	intra	-0.2129614
-4.616333	intriguing	-0.2648409
-4.440242	introduce	-0.1919162
-3.963121	introduced	-0.260854
-3.741272	introduces	-0.352574
-4.072266	introducing	-0.3437557
-4.315304	introduction	-0.4670345
-4.315304	inventory	-0.1919217
-3.875971	invest	-0.3026923
-4.616333	investcorp	-0.252928
-4.917364	investigating	-0.1958566
-3.838182	investigation	-0.8113613
-4.917364	investigative	-0.2134608
-3.555636	investment	-0.1783908
-4.218394	investments	-0.3335554
-3.963121	investor	-0.53495
-4.014274	investors	-0.1840871
-4.917364	invigorating	-0.2134398
-4.917364	involve	-0.2134608
-4.218394	involved	-0.3355279
-4.917364	involvement	-0.2112276
-4.917364	involving	-0.2134503
-4.315304	iowa	-0.1599582
-4.616333	ip	-0.2084199
-4.917364	ip-based	-0.2134345
-4.315304	ipalco	-0.2744748
-4.917364	ipas	-0.2109582
-4.440242	iphone	-0.4913251
-4.440242	ipod	-0.5011113
-4.616333	iq	-0.2743802
-4.072266	ireland	-0.2885782
-4.917364	irish	-0.2130508
-4.440242	ironpoint	-0.2367553
-4.917364	irs	-0.2109582
-4.917364	irwin	-0.2049837
-2.336439	is	-0.4276248
-4.315304	isaak	-0.2174248
-4.616333	island	-0.1846346
-4.917364	island.	-0.1899242
-4.917364	islands	-0.2132559
-4.917364	isolation	-0.1917616
-4.440242	israel	-0.2212514
-4.917364	israel.	-0.1899242
-4.917364	israeli	-0.2110375
-4.917364	issue	-0.2022052
-3.917364	issued	-0.1879824
-4.917364	issuer	-0.2022052
-4.139213	issues	-0.2147069
-4.917364	issues.	-0.1899242
-4.218394	issuing	-0.2570747
-2.60561	it	-0.6286619
-4.440242	italia	-0.2504365
-4.218394	italian	-0.2358942
-4.440242	italy	-0.177263
-4.917364	italy.	-0.1899242
-4.917364	itco	-0.2109582
-4.218394	items	-0.2060803
-4.917364	itm	-0.2134766
-2.271941	its	-0.331062
-4.917364	itself	-0.2067052
-4.917364	itv	-0.2134713
-4.917364	iv	-0.1917616
-4.440242	izvestia	-0.1824735
-4.616333	j	-0.2733381
-3.283895	j.	-0.6000628
-4.440242	j.p	-0.4820604
-4.616333	j.p.	-0.2746114
-4.917364	j.p.morgan	-0.2133662
-4.440242	jack	-0.5010167
-4.616333	jackie	-0.2746271
-4.315304	jackson	-0.1771431
-4.917364	jacqueline	-0.2133557
-4.616333	jacques	-0.2746376
-3.917364	james	-0.3296977
-3.838182	jan	-0.9196359
-4.917364	jan-21-2005	-0.1944099
-4.917364	jan-25-2005	-0.1944099
-4.917364	jan-30-2006	-0.1944099
-4.917364	jan-31-2005	-0.1944099
-4.315304	jane	-0.2429365
-4.440242	janet	-0.2531407
-3.139212	january	-1.50343
-4.917364	janus	-0.1917616
-3.63861	japan	-0.3916035
-4.917364	japanese	-0.2130351
-4.616333	jay	-0.2746376
-4.917364	jayson	-0.2134766
-4.139213	jeff	-0.3338412
-4.014274	jeffrey	-0.3446347
-4.440242	jennifer	-0.2531722
-4.616333	jenrette	-0.2648409
-3.80342	jersey	-0.3680784
-4.917364	jessamine	-0.2133873
-4.917364	jill	-0.2134766
-3.771236	jim	-0.3132456
-4.616333	jimenez	-0.252928
-4.917364	jimmy	-0.2134766
-4.440242	jnd	-0.5010955
-3.838182	job	-0.2885441
-3.686915	jobs	-0.5061289
-4.917364	jobs-	-0.2132296
-4.917364	jockeys	-0.1944099
-4.440242	joe	-0.2315565
-3.595145	john	-0.3116462
-4.139213	johnson	-0.2119455
-3.713244	join	-0.3451918
-3.273911	joined	-0.6049864
-3.63861	joining	-0.3275094
-3.50239	joins	-0.2911652
-3.412214	joint	-0.9591705
-4.917364	joint-venture	-0.1944099
-4.139213	jointly	-0.2299242
-4.440242	jolly	-0.1892582
-4.917364	jon	-0.2131402
-4.917364	jonathan	-0.2134766
-4.315304	jones	-0.3877879
-4.616333	jose	-0.1814454
-4.440242	joseforsky	-0.249632
-3.963121	joseph	-0.3117433
-4.315304	journal	-0.245801
-4.440242	journalism	-0.182575
-4.917364	journalist	-0.1917616
-4.315304	journalistic	-0.2036208
-4.440242	joyce	-0.2532615
-4.917364	jpmorgan	-0.2134555
-4.014274	jr	-0.6050307
-4.072266	jr.	-0.6056142
-4.218394	judge	-0.2042813
-4.917364	judgment	-0.2121191
-4.917364	judicial	-0.2133925
-4.616333	judy	-0.2746061
